SVM-light Version V6.01
0 # kernel type
3 # kernel parameter -d 
1 # kernel parameter -g 
1 # kernel parameter -s 
1 # kernel parameter -r 
empty# kernel parameter -u 
319 # highest feature index 
72373 # number of training documents 
3093 # number of support vectors plus 1 
0 # threshold b, each following line is a SV (starting with alpha*y)
-0.83569325344851463910345046315342 213:-0.25 214:0.25 #
-0.83569325344851463910345046315342 59:-0.20279464 68:0.23401287 94:-0.20279464 107:0.23401287 212:0.2236068 219:-0.19238855 249:0.23401287 250:-0.21320072 251:-0.21320072 307:0.2236068 #
-0.83569325344851463910345046315342 193:0.2236068 195:-0.2236068 #
-0.83569325344851463910345046315342 58:-0.44721359 59:0.44721359 93:0.2236068 95:-0.2236068 215:-0.2236068 218:-0.2236068 219:0.2236068 220:0.2236068 249:0.2236068 303:-0.2236068 #
-0.83569325344851463910345046315342 59:0.67082042 90:0.2236068 94:0.2236068 106:0.2236068 195:0.2236068 218:0.2236068 219:0.2236068 242:0.2236068 250:0.44721359 #
-0.83569325344851463910345046315342 59:0.058447957 90:0.038965303 94:0.019482652 170:0.2236068 195:0.019482652 219:-0.1846415 241:0.019482652 250:-0.1846415 298:0.2236068 #
0.83569325344851463910345046315342 1:0.23570226 59:0.47140452 90:0.23570226 125:0.47140452 195:0.23570226 213:0.23570226 228:0.23570226 242:0.47140452 264:0.23570226 #
0.83569325344851463910345046315342 59:0.5 69:0.25 90:0.25 125:0.5 170:0.25 195:0.25 228:0.25 242:0.25 262:0.25 264:0.25 #
0.83569325344851463910345046315342 45:0.26726124 59:0.53452247 90:0.26726124 125:0.26726124 145:0.26726124 195:0.26726124 219:0.26726124 228:0.26726124 242:0.26726124 250:0.26726124 264:0.26726124 #
-0.83569325344851463910345046315342 47:0.16222142 57:0.039129931 58:0.32444283 59:-0.16792312 69:-0.12309149 90:-0.29101461 105:0.32444283 107:0.16222142 125:0.039129931 169:0.16222142 170:-0.36927447 171:0.16222142 213:-0.083961561 215:0.32444283 219:0.16222142 228:-0.12309149 250:0.16222142 261:-0.12309149 262:-0.24618298 274:0.32444283 276:-0.12309149 298:-0.12309149 300:-0.12309149 303:0.32444283 304:0.16222142 #
-0.83569325344851463910345046315342 125:0.23570226 127:-0.23570226 193:0.23570226 196:-0.23570226 #
-0.83569325344851463910345046315342 59:0.14096792 61:-0.23570226 94:-0.063156232 128:-0.23570226 150:0.20412415 196:-0.23570226 218:0.20412415 219:-0.063156232 249:-0.031578116 250:0.40824831 252:-0.23570226 302:-0.23570226 #
-0.83569325344851463910345046315342 59:0.16515884 64:-0.2236068 94:-0.038965303 128:-0.2236068 150:0.20412415 193:-0.2236068 219:-0.038965303 220:0.20412415 249:-0.24308945 250:0.40824831 302:-0.2236068 #
-0.83569325344851463910345046315342 59:-0.024190925 64:0.2236068 66:-0.23570226 94:-0.024190925 127:-0.012095463 196:0.2236068 200:-0.23570226 219:-0.024190925 249:0.21151133 251:-0.23570226 266:-0.23570226 302:0.2236068 #
0.83569325344851463910345046315342 57:0.35355338 65:0.35355338 96:0.35355338 107:0.35355338 217:0.35355338 219:0.35355338 249:0.35355338 252:0.35355338 #
0.83569325344851463910345046315342 58:0.31622776 67:0.31622776 93:0.31622776 107:0.31622776 217:0.63245553 250:0.31622776 251:0.31622776 #
0.83569325344851463910345046315342 58:0.31622776 65:0.31622776 94:0.31622776 105:0.31622776 219:0.31622776 220:0.31622776 251:0.63245553 #
0.83569325344851463910345046315342 58:0.31622776 68:0.31622776 94:0.31622776 107:0.31622776 219:0.31622776 220:0.31622776 251:0.63245553 #
0.83569325344851463910345046315342 58:0.44721359 59:0.2236068 95:0.44721359 107:0.2236068 215:0.2236068 218:0.44721359 250:0.44721359 303:0.2236068 #
-0.83569325344851463910345046315342 59:0.052786406 68:0.026393203 90:-0.2236068 94:0.026393203 107:0.026393203 126:0.25 171:0.25 219:-0.1708204 243:-0.2236068 249:0.026393203 250:0.026393203 303:0.25 #
-0.83569325344851463910345046315342 57:-0.21320072 58:0.21320072 92:-0.21320072 149:0.21320072 250:0.21320072 251:0.21320072 252:-0.21320072 290:-0.21320072 #
-0.83569325344851463910345046315342 59:0.51639777 68:0.25819889 115:0.25819889 127:0.25819889 128:0.25819889 214:0.25819889 217:0.25819889 219:0.25819889 250:0.51639777 #
0.83569325344851463910345046315342 59:0.47140452 69:0.23570226 90:0.23570226 125:0.47140452 195:0.23570226 228:0.47140452 242:0.23570226 262:0.23570226 264:0.23570226 #
-0.83569325344851463910345046315342 58:0.26726124 59:0.26726124 66:0.26726124 90:0.26726124 94:0.26726124 107:0.26726124 195:0.26726124 219:0.53452247 243:0.26726124 250:0.26726124 251:0.26726124 #
-0.83569325344851463910345046315342 14:0.26726124 59:0.53452247 94:0.26726124 125:0.26726124 145:0.26726124 215:0.26726124 219:0.26726124 228:0.26726124 250:0.26726124 263:0.26726124 302:0.26726124 #
-0.83569325344851463910345046315342 14:0.26726124 59:0.53452247 94:0.26726124 125:0.26726124 145:0.26726124 213:0.26726124 219:0.26726124 228:0.26726124 250:0.26726124 263:0.26726124 302:0.26726124 #
-0.83569325344851463910345046315342 14:0.25 59:0.5 94:0.25 107:0.25 125:0.25 219:0.25 220:0.25 228:0.25 250:0.5 263:0.25 #
-0.83569325344851463910345046315342 14:0.25 59:0.5 94:0.25 107:0.25 125:0.25 218:0.25 219:0.25 228:0.25 250:0.5 263:0.25 #
-0.83569325344851463910345046315342 14:0.25 59:0.5 94:0.25 107:0.25 125:0.25 217:0.25 219:0.25 228:0.25 250:0.5 263:0.25 #
-0.43988184729887941371018200698018 57:0.21320072 59:-0.045003086 61:-0.23570226 94:-0.045003086 127:-0.23570226 150:0.21320072 194:-0.23570226 219:0.16819763 249:-0.022501543 250:0.21320072 252:-0.022501543 302:-0.23570226 #
-0.83569325344851463910345046315342 59:-0.066946708 68:0.25 94:0.12203553 125:0.25 150:-0.18898223 198:0.25 219:-0.31694672 220:0.25 249:0.061017763 250:-0.37796447 252:0.25 266:0.25 #
-0.83569325344851463910345046315342 57:0.21320072 58:-0.21320072 251:-0.21320072 252:0.21320072 #
-0.83569325344851463910345046315342 125:-0.44721359 127:0.44721359 214:-0.2236068 216:0.2236068 #
0.83569325344851463910345046315342 59:0.31622776 67:0.31622776 95:0.31622776 106:0.31622776 220:0.63245553 250:0.31622776 251:0.31622776 #
-0.83569325344851463910345046315342 59:0.70710677 90:0.23570226 94:0.23570226 143:0.23570226 195:0.23570226 215:0.23570226 219:0.23570226 241:0.23570226 250:0.23570226 302:0.23570226 #
-0.83569325344851463910345046315342 59:0.020812163 65:-0.21320072 68:0.2236068 94:0.020812163 107:-0.21320072 125:0.2236068 199:0.2236068 219:-0.19238855 249:0.23401287 250:-0.21320072 252:-0.21320072 266:0.2236068 #
-0.83569325344851463910345046315342 59:0.70710677 90:0.23570226 94:0.23570226 113:0.23570226 174:0.23570226 195:0.23570226 219:0.23570226 241:0.23570226 250:0.23570226 302:0.23570226 #
-0.83569325344851463910345046315342 59:-0.073598564 68:-0.036799282 94:0.17640144 107:-0.25 134:-0.25 148:0.21320072 219:0.13960215 223:-0.25 249:0.21320072 250:-0.25 251:-0.036799282 261:-0.25 298:0.21320072 #
-0.83569325344851463910345046315342 59:0.063156232 63:0.23570226 67:-0.20412415 94:0.063156232 106:-0.20412415 126:0.23570226 196:0.23570226 219:-0.14096792 249:0.031578116 250:-0.17254603 302:0.23570226 #
-0.83569325344851463910345046315342 59:0.024190925 61:0.23570226 68:-0.2236068 94:0.024190925 108:-0.2236068 125:0.23570226 194:0.23570226 218:-0.2236068 219:0.024190925 249:-0.21151133 250:-0.2236068 252:0.23570226 302:0.23570226 #
0.83569325344851463910345046315342 14:0.23570226 59:0.47140452 94:0.23570226 125:0.47140452 219:0.23570226 228:0.47140452 250:0.23570226 262:0.23570226 263:0.23570226 #
0.83569325344851463910345046315342 14:0.26726124 59:0.53452247 94:0.26726124 105:0.26726124 125:0.26726124 214:0.26726124 219:0.26726124 228:0.26726124 250:0.26726124 263:0.26726124 266:0.26726124 #
-0.83569325344851463910345046315342 169:0.23570226 170:-0.23570226 #
-0.83569325344851463910345046315342 59:0.020812163 68:0.010406082 94:0.010406082 107:0.23401287 125:-0.21320072 213:0.2236068 219:-0.19238855 241:0.2236068 250:0.020812163 301:-0.21320072 #
-0.83569325344851463910345046315342 53:0.26726124 59:0.53452247 90:0.26726124 107:0.26726124 125:0.26726124 195:0.26726124 220:0.26726124 228:0.26726124 242:0.26726124 250:0.26726124 264:0.26726124 #
-0.83569325344851463910345046315342 59:0.70710677 90:0.23570226 94:0.23570226 106:0.23570226 195:0.23570226 213:0.23570226 219:0.23570226 241:0.23570226 242:0.23570226 250:0.23570226 #
-0.83569325344851463910345046315342 59:0.47140452 67:0.23570226 90:0.23570226 94:0.23570226 106:0.23570226 195:0.23570226 219:0.47140452 242:0.23570226 250:0.47140452 #
0.83569325344851463910345046315342 28:0.30151135 58:0.30151135 59:0.30151135 94:0.30151135 96:0.30151135 119:0.30151135 217:0.30151135 219:0.30151135 223:0.30151135 249:0.30151135 266:0.30151135 #
0.83569325344851463910345046315342 59:0.53881592 90:0.53881592 216:0.53881592 302:0.35921061 #
0.83569325344851463910345046315342 58:0.35355338 67:0.35355338 96:0.35355338 107:0.35355338 219:0.35355338 220:0.35355338 249:0.35355338 251:0.35355338 #
0.83569325344851463910345046315342 59:0.53881592 125:0.53881592 216:0.53881592 302:0.35921061 #
-0.83569325344851463910345046315342 33:0.26726124 35:-0.26726124 54:0.26726124 68:-0.26726124 90:0.53452247 107:-0.26726124 125:-0.26726124 162:0.26726124 169:-0.26726124 170:-0.26726124 213:0.26726124 219:-0.26726124 220:0.26726124 241:-0.26726124 250:-0.26726124 252:0.26726124 303:0.26726124 #
-0.83569325344851463910345046315342 59:0.14113481 68:-0.2236068 91:0.19611613 94:-0.054981325 107:-0.2236068 217:-0.2236068 219:0.14113481 249:-0.25109747 250:-0.027490662 290:0.19611613 #
-0.83569325344851463910345046315342 58:0.21320072 59:-0.020812163 64:-0.2236068 94:-0.020812163 126:-0.2236068 149:0.21320072 194:-0.2236068 219:0.19238855 249:-0.23401287 250:0.21320072 251:0.21320072 302:-0.2236068 #
-0.83569325344851463910345046315342 59:-0.15914018 67:0.26726124 68:0.054060526 94:-0.15914018 106:0.26726124 107:0.26726124 148:-0.21320072 211:0.26726124 219:-0.10507967 249:0.054060526 250:0.26726124 251:-0.21320072 298:-0.21320072 307:0.26726124 #
0.83569325344851463910345046315342 59:0.63960212 90:0.21320072 94:0.21320072 145:0.21320072 195:0.42640144 219:0.21320072 241:0.21320072 250:0.42640144 #
0.83569325344851463910345046315342 59:0.63960212 81:0.21320072 90:0.21320072 94:0.21320072 195:0.42640144 219:0.21320072 241:0.21320072 250:0.42640144 #
0.83569325344851463910345046315342 59:0.63960212 90:0.21320072 94:0.21320072 141:0.21320072 195:0.42640144 219:0.21320072 241:0.21320072 250:0.42640144 #
0.83569325344851463910345046315342 59:0.67082042 90:0.44721359 94:0.2236068 194:0.2236068 195:0.2236068 219:0.2236068 241:0.2236068 242:0.2236068 250:0.2236068 #
-0.83569325344851463910345046315342 58:-0.44721359 59:0.24779773 68:0.23570226 94:0.47140452 95:-0.44721359 107:0.012095463 215:0.012095463 218:-0.44721359 219:0.47140452 249:0.23570226 250:-0.21151133 302:0.23570226 303:-0.2236068 #
-0.83569325344851463910345046315342 58:-0.44721359 59:0.24779773 68:0.23570226 94:0.47140452 95:-0.44721359 107:0.012095463 175:0.23570226 215:-0.2236068 218:-0.44721359 219:0.47140452 249:0.23570226 250:-0.21151133 302:0.23570226 303:-0.2236068 #
-0.83569325344851463910345046315342 59:0.63960212 94:0.42640144 126:0.21320072 208:0.21320072 219:0.42640144 249:0.21320072 250:0.21320072 262:0.21320072 #
-0.83569325344851463910345046315342 59:0.47140452 63:0.23570226 94:0.47140452 142:0.23570226 216:0.23570226 219:0.47140452 242:0.23570226 249:0.23570226 250:0.23570226 #
-0.83569325344851463910345046315342 59:0.47140452 63:0.23570226 94:0.47140452 144:0.23570226 214:0.23570226 219:0.47140452 242:0.23570226 249:0.23570226 250:0.23570226 #
0.83569325344851463910345046315342 57:0.23570226 59:0.47140452 90:0.47140452 125:0.23570226 195:0.23570226 221:0.23570226 228:0.23570226 242:0.47140452 264:0.23570226 #
0.83569325344851463910345046315342 45:0.26726124 59:0.53452247 90:0.26726124 125:0.26726124 147:0.26726124 188:0.26726124 195:0.26726124 228:0.26726124 242:0.26726124 264:0.26726124 306:0.26726124 #
-0.83569325344851463910345046315342 59:0.23135386 67:-0.20412415 90:0.21320072 94:0.018153142 105:-0.20412415 218:0.21320072 219:-0.18597101 249:0.0090765711 250:-0.19504757 290:0.21320072 #
-0.83569325344851463910345046315342 59:0.16515884 64:-0.2236068 94:-0.038965303 125:-0.2236068 150:0.20412415 195:-0.2236068 217:0.20412415 219:-0.038965303 249:-0.24308945 250:0.40824831 302:-0.2236068 #
-0.83569325344851463910345046315342 63:0.23570226 65:-0.23570226 105:-0.23570226 126:0.23570226 196:0.23570226 217:-0.23570226 252:-0.23570226 302:0.23570226 #
-0.83569325344851463910345046315342 59:0.70710677 84:0.23570226 90:0.23570226 94:0.23570226 171:0.23570226 195:0.23570226 219:0.23570226 241:0.23570226 250:0.23570226 262:0.23570226 #
-0.70317181543499629459148536625435 14:0.26726124 59:0.53452247 94:0.26726124 125:0.26726124 141:0.26726124 219:0.26726124 227:0.26726124 228:0.26726124 250:0.26726124 263:0.26726124 286:0.26726124 #
0.83569325344851463910345046315342 59:0.47140452 67:0.23570226 93:0.23570226 94:0.23570226 107:0.23570226 219:0.47140452 220:0.23570226 250:0.47140452 251:0.23570226 #
-0.83569325344851463910345046315342 59:-0.12208179 67:0.20412415 94:0.054694898 107:0.20412415 136:-0.17677669 217:0.20412415 219:-0.12208179 250:0.082042351 #
-0.83569325344851463910345046315342 14:0.26726124 59:0.53452247 94:0.26726124 107:0.26726124 125:0.26726124 219:0.26726124 221:0.26726124 228:0.26726124 250:0.26726124 263:0.26726124 274:0.26726124 #
-0.83569325344851463910345046315342 30:0.23570226 59:0.47140452 94:0.23570226 125:0.23570226 126:0.23570226 219:0.47140452 228:0.23570226 250:0.47140452 263:0.23570226 #
-0.83569325344851463910345046315342 30:0.23570226 59:0.47140452 94:0.23570226 125:0.23570226 128:0.23570226 219:0.47140452 228:0.23570226 250:0.47140452 263:0.23570226 #
-0.83569325344851463910345046315342 30:0.23570226 59:0.47140452 94:0.23570226 125:0.47140452 219:0.23570226 220:0.23570226 228:0.23570226 250:0.47140452 263:0.23570226 #
-0.83569325344851463910345046315342 14:0.26726124 59:0.53452247 94:0.26726124 125:0.26726124 143:0.26726124 215:0.26726124 219:0.26726124 228:0.26726124 250:0.26726124 263:0.26726124 266:0.26726124 #
-0.83569325344851463910345046315342 225:0.23570226 228:-0.23570226 #
0.83569325344851463910345046315342 14:0.26726124 59:0.53452247 94:0.26726124 105:0.26726124 125:0.26726124 215:0.26726124 219:0.26726124 228:0.26726124 250:0.26726124 263:0.26726124 266:0.26726124 #
-0.83569325344851463910345046315342 58:-0.23570226 59:0.01429774 60:0.25 68:0.01429774 94:0.01429774 96:-0.23570226 107:0.01429774 151:0.25 196:0.25 219:-0.20710678 247:0.25 249:0.26429775 250:-0.23570226 251:-0.23570226 #
0.83569325344851463910345046315342 35:0.23570226 59:0.47140452 90:0.47140452 125:0.23570226 161:0.23570226 208:0.23570226 228:0.23570226 241:0.23570226 302:0.47140452 #
-0.83569325344851463910345046315342 59:-0.095542185 62:0.23570226 94:0.093440048 126:0.23570226 152:-0.18898223 196:0.23570226 219:-0.095542185 249:0.046720024 250:-0.37796447 251:0.23570226 302:0.23570226 #
-0.83569325344851463910345046315342 59:-0.067504629 90:-0.022501543 94:-0.022501543 127:0.21320072 144:-0.23570226 195:-0.022501543 219:0.19069918 228:-0.23570226 241:-0.022501543 250:0.19069918 262:-0.23570226 #
-0.83569325344851463910345046315342 59:0.067504629 90:0.23570226 91:-0.21320072 94:0.022501543 107:0.022501543 215:0.022501543 219:-0.19069918 220:0.23570226 249:0.23570226 250:-0.19069918 301:-0.21320072 302:0.23570226 #
0.83569325344851463910345046315342 59:0.44721359 67:0.2236068 94:0.44721359 106:0.2236068 217:0.2236068 219:0.44721359 249:0.2236068 250:0.44721359 #
0.83569325344851463910345046315342 14:0.26726124 59:0.53452247 94:0.26726124 106:0.26726124 125:0.26726124 168:0.26726124 219:0.26726124 228:0.26726124 242:0.26726124 250:0.26726124 263:0.26726124 #
-0.83569325344851463910345046315342 125:-0.23570226 127:0.23570226 213:-0.23570226 216:0.23570226 #
0.83569325344851463910345046315342 14:0.26726124 59:0.53452247 94:0.26726124 106:0.26726124 125:0.26726124 219:0.26726124 222:0.26726124 228:0.26726124 250:0.26726124 263:0.26726124 274:0.26726124 #
-0.83569325344851463910345046315342 59:0.47140452 67:0.23570226 90:0.23570226 94:0.23570226 106:0.23570226 195:0.23570226 219:0.47140452 241:0.23570226 250:0.47140452 #
-0.83569325344851463910345046315342 59:0.47140452 67:0.23570226 90:0.23570226 94:0.23570226 108:0.23570226 195:0.23570226 219:0.47140452 241:0.23570226 250:0.47140452 #
-0.83569325344851463910345046315342 59:0.70710677 90:0.23570226 94:0.23570226 125:0.23570226 169:0.23570226 195:0.23570226 219:0.23570226 241:0.23570226 250:0.23570226 262:0.23570226 #
-0.83569325344851463910345046315342 59:0.70710677 90:0.23570226 93:0.23570226 94:0.23570226 195:0.23570226 213:0.23570226 219:0.23570226 241:0.23570226 250:0.23570226 262:0.23570226 #
-0.83569325344851463910345046315342 59:0.70710677 90:0.23570226 94:0.23570226 141:0.23570226 195:0.23570226 213:0.23570226 219:0.23570226 241:0.23570226 250:0.23570226 302:0.23570226 #
0.83569325344851463910345046315342 54:0.26726124 59:0.53452247 91:0.26726124 94:0.26726124 125:0.26726124 191:0.26726124 219:0.26726124 228:0.26726124 242:0.26726124 250:0.26726124 263:0.26726124 #
0.83569325344851463910345046315342 30:0.26726124 59:0.53452247 91:0.26726124 94:0.26726124 125:0.26726124 172:0.26726124 219:0.26726124 228:0.26726124 250:0.26726124 263:0.26726124 294:0.26726124 #
-0.83569325344851463910345046315342 59:-0.11973312 64:0.2236068 94:0.069249123 128:0.2236068 152:-0.18898223 196:0.2236068 219:-0.11973312 249:0.25823137 250:-0.37796447 302:0.2236068 #
0.83569325344851463910345046315342 59:0.35355338 68:0.35355338 95:0.35355338 107:0.35355338 219:0.35355338 220:0.35355338 250:0.35355338 252:0.35355338 #
-0.83569325344851463910345046315342 58:0.40824831 59:-0.5 68:0.20412415 94:-0.5 95:0.40824831 107:0.20412415 219:0.11237244 249:0.40824831 250:-0.5 251:0.20412415 #
-0.83569325344851463910345046315342 33:0.25 59:-0.5 68:0.25 90:-0.5 107:0.25 142:0.25 144:0.25 146:-0.25 170:0.5 188:-0.25 216:-0.25 301:0.25 302:-0.25 #
-0.83569325344851463910345046315342 33:0.25 35:0.01429774 59:-0.47140452 68:0.25 90:-0.47140452 107:0.25 125:-0.23570226 142:0.25 144:0.25 161:-0.23570226 170:0.5 208:-0.23570226 213:0.25 228:-0.23570226 241:-0.23570226 242:0.25 301:0.5 302:-0.47140452 #
-0.83569325344851463910345046315342 59:0.018153142 66:0.21320072 67:-0.20412415 94:0.018153142 105:0.21320072 107:-0.20412415 219:0.027229713 249:0.0090765711 250:-0.19504757 251:0.21320072 #
0.83569325344851463910345046315342 59:0.67082042 90:0.2236068 94:0.44721359 194:0.2236068 195:0.2236068 219:0.2236068 241:0.2236068 242:0.2236068 250:0.2236068 #
-0.83569325344851463910345046315342 3:0.25819889 59:0.51639777 116:0.25819889 125:0.51639777 213:0.25819889 215:0.25819889 220:0.25819889 250:0.25819889 302:0.25819889 #
-0.83569325344851463910345046315342 2:0.25 59:0.5 94:0.25 125:0.25 146:0.25 219:0.25 220:0.25 228:0.25 250:0.5 263:0.25 #
-0.83569325344851463910345046315342 14:0.25 59:0.5 84:0.25 94:0.25 125:0.25 219:0.25 220:0.25 228:0.25 250:0.5 263:0.25 #
-0.83569325344851463910345046315342 14:0.26726124 59:0.53452247 94:0.26726124 125:0.26726124 146:0.26726124 215:0.26726124 219:0.26726124 228:0.26726124 250:0.26726124 263:0.26726124 302:0.26726124 #
-0.44827352273996529108401887242508 2:0.25 59:0.5 94:0.25 125:0.25 147:0.25 219:0.25 220:0.25 228:0.25 250:0.5 263:0.25 #
-0.83569325344851463910345046315342 59:0.072655439 90:0.21320072 94:0.048436958 150:-0.18898223 219:-0.14054528 220:0.21320072 249:0.024218479 250:-0.16476376 290:0.21320072 #
0.83569325344851463910345046315342 57:0.25 59:0.25 68:0.25 94:0.5 107:0.25 219:0.5 239:0.25 249:0.25 252:0.25 255:0.25 #
-0.83569325344851463910345046315342 59:0.067504629 90:0.022501543 93:-0.21320072 94:0.022501543 126:0.23570226 170:0.23570226 195:0.022501543 219:-0.19069918 241:0.022501543 250:-0.19069918 262:0.23570226 #
0.83569325344851463910345046315342 58:0.23570226 59:0.47140452 94:0.47140452 106:0.23570226 214:0.23570226 219:0.47140452 250:0.23570226 251:0.23570226 302:0.23570226 #
0.83569325344851463910345046315342 59:0.35355338 67:0.35355338 94:0.35355338 105:0.35355338 219:0.35355338 220:0.35355338 250:0.35355338 251:0.35355338 #
0.83569325344851463910345046315342 14:0.26726124 59:0.53452247 94:0.26726124 106:0.26726124 125:0.26726124 215:0.26726124 219:0.26726124 228:0.26726124 250:0.26726124 263:0.26726124 266:0.26726124 #
0.83569325344851463910345046315342 58:0.26726124 59:0.53452247 94:0.26726124 101:0.26726124 125:0.26726124 182:0.26726124 219:0.26726124 228:0.26726124 242:0.26726124 250:0.26726124 263:0.26726124 #
-0.83569325344851463910345046315342 58:-0.44721359 59:0.2236068 67:0.2236068 94:0.44721359 95:-0.44721359 173:0.2236068 215:-0.2236068 218:-0.44721359 219:0.44721359 302:0.2236068 303:-0.2236068 #
-0.83569325344851463910345046315342 58:-0.44721359 59:0.3067233 94:0.35355338 95:-0.44721359 106:0.17677669 107:-0.2236068 215:-0.2236068 218:-0.44721359 219:0.53033006 250:0.083116487 303:-0.2236068 #
-0.83569325344851463910345046315342 58:-0.44721359 59:0.3067233 94:0.35355338 95:-0.27043691 107:-0.2236068 215:-0.2236068 218:-0.44721359 219:0.53033006 250:0.083116487 303:-0.2236068 #
-0.83569325344851463910345046315342 58:-0.44721359 59:0.1846415 67:0.20412415 94:0.40824831 95:-0.44721359 107:-0.019482652 215:-0.2236068 218:-0.24308945 219:0.40824831 250:0.16515884 303:-0.2236068 #
-0.83569325344851463910345046315342 59:0.038965303 68:0.019482652 94:0.019482652 107:0.038965303 213:0.2236068 219:-0.16515884 250:0.038965303 301:-0.20412415 305:0.2236068 #
-0.83569325344851463910345046315342 61:0.23570226 62:-0.23570226 126:-0.23570226 127:0.23570226 194:0.23570226 196:-0.23570226 251:-0.23570226 252:0.23570226 #
-0.83569325344851463910345046315342 59:-0.11973312 64:0.2236068 94:0.069249123 126:0.2236068 152:-0.18898223 196:0.2236068 219:-0.11973312 249:0.25823137 250:-0.37796447 302:0.2236068 #
-0.83569325344851463910345046315342 58:-0.25823137 59:0.15435767 95:-0.069249123 107:-0.034624562 215:-0.2236068 218:0.11973312 250:0.11973312 303:-0.2236068 #
-0.83569325344851463910345046315342 58:-0.23570226 59:0.14096792 92:-0.23570226 94:-0.063156232 150:0.20412415 218:-0.031578116 219:-0.063156232 249:-0.031578116 250:0.40824831 251:-0.23570226 290:-0.23570226 #
0.83569325344851463910345046315342 59:0.47140452 68:0.23570226 94:0.47140452 140:0.23570226 195:0.23570226 219:0.47140452 249:0.23570226 251:0.23570226 302:0.23570226 #
-0.83569325344851463910345046315342 59:0.063156232 68:0.031578116 84:0.23570226 94:0.031578116 107:-0.17254603 170:0.23570226 219:-0.14096792 250:0.063156232 301:0.031578116 #
0.83569325344851463910345046315342 57:0.26726124 59:0.26726124 68:0.26726124 94:0.26726124 107:0.26726124 142:0.26726124 175:0.26726124 219:0.53452247 249:0.26726124 252:0.26726124 263:0.26726124 #
-0.83569325344851463910345046315342 54:-0.23570226 59:-0.022501543 65:0.21320072 68:-0.022501543 94:-0.022501543 107:-0.045003086 213:-0.23570226 219:0.16819763 249:0.21320072 250:-0.045003086 305:-0.23570226 #
-0.83569325344851463910345046315342 57:0.21320072 58:-0.44721359 59:-0.010406082 66:0.21320072 94:0.42640144 95:-0.44721359 107:-0.010406082 215:-0.2236068 218:-0.44721359 219:0.63960212 250:-0.23401287 251:0.42640144 303:-0.2236068 #
-0.83569325344851463910345046315342 58:-0.44721359 59:0.2763932 66:0.25 94:0.5 95:-0.44721359 105:0.25 107:-0.2236068 214:0.25 215:-0.2236068 218:-0.19721359 219:0.25 249:0.25 250:-0.44721359 251:0.25 302:0.25 303:-0.2236068 #
-0.83569325344851463910345046315342 58:-0.44721359 59:0.2763932 66:0.25 94:0.5 95:-0.44721359 105:0.25 107:-0.2236068 174:0.25 215:-0.2236068 218:-0.19721359 219:0.25 249:0.25 250:-0.44721359 251:0.25 302:0.25 303:-0.2236068 #
-0.83569325344851463910345046315342 58:-0.038965303 59:-0.2236068 68:0.20412415 95:-0.038965303 107:-0.019482652 215:-0.2236068 218:-0.44721359 219:0.61237246 249:0.40824831 250:-0.44721359 251:0.20412415 303:-0.2236068 #
0.83569325344851463910345046315342 59:0.67082042 90:0.2236068 94:0.2236068 151:0.2236068 194:0.2236068 195:0.2236068 219:0.2236068 241:0.2236068 250:0.44721359 #
0.83569325344851463910345046315342 3:0.25 36:0.25 59:0.25 96:0.25 107:0.5 195:0.25 217:0.25 219:0.25 250:0.5 304:0.25 #
-0.83569325344851463910345046315342 59:0.5 67:0.25 90:0.25 94:0.25 107:0.25 195:0.25 218:0.25 219:0.25 241:0.25 250:0.5 #
-0.83569325344851463910345046315342 59:0.67082042 84:0.2236068 90:0.2236068 94:0.2236068 195:0.2236068 218:0.2236068 219:0.2236068 241:0.2236068 250:0.44721359 #
-0.83569325344851463910345046315342 59:0.5 67:0.25 90:0.25 94:0.25 105:0.25 195:0.25 218:0.25 219:0.25 241:0.25 250:0.5 #
-0.83569325344851463910345046315342 59:0.67082042 90:0.2236068 94:0.2236068 105:0.2236068 195:0.2236068 218:0.2236068 219:0.2236068 241:0.2236068 250:0.44721359 #
-0.83569325344851463910345046315342 59:0.67082042 90:0.2236068 94:0.2236068 148:0.2236068 195:0.2236068 218:0.2236068 219:0.2236068 241:0.2236068 250:0.44721359 #
0.83569325344851463910345046315342 59:0.44721359 64:0.2236068 94:0.44721359 128:0.2236068 194:0.2236068 219:0.44721359 249:0.44721359 302:0.2236068 #
0.83569325344851463910345046315342 59:0.47140452 62:0.23570226 94:0.47140452 127:0.23570226 193:0.23570226 219:0.47140452 249:0.23570226 251:0.23570226 302:0.23570226 #
0.83569325344851463910345046315342 59:0.25 60:0.25 68:0.25 91:0.25 94:0.25 107:0.25 196:0.25 219:0.5 243:0.25 249:0.5 #
-0.83569325344851463910345046315342 59:-0.083116487 67:0.2236068 94:0.093660206 107:0.2236068 133:-0.17677669 173:0.2236068 219:-0.083116487 250:-0.083116487 302:0.2236068 #
-0.57476608091179148818383737307158 35:-0.25 36:0.28867513 54:0.28867513 59:-0.21132487 89:0.28867513 90:-0.5 92:0.28867513 107:0.28867513 146:-0.25 162:0.28867513 188:-0.25 213:-0.25 215:0.28867513 216:-0.25 219:0.28867513 242:0.038675133 249:0.28867513 301:-0.25 302:-0.25 303:0.28867513 #
0.83569325344851463910345046315342 59:0.5 67:0.25 90:0.25 94:0.25 106:0.25 195:0.25 217:0.25 219:0.25 241:0.25 250:0.5 #
-0.83569325344851463910345046315342 59:0.56694669 94:0.18898223 95:0.37796447 219:0.56694669 249:0.18898223 250:0.37796447 #
-0.83569325344851463910345046315342 59:0.70710677 90:0.23570226 94:0.23570226 106:0.23570226 195:0.23570226 215:0.23570226 219:0.23570226 241:0.23570226 250:0.23570226 302:0.23570226 #
-0.83569325344851463910345046315342 59:0.70710677 90:0.23570226 94:0.23570226 142:0.23570226 195:0.23570226 215:0.23570226 219:0.23570226 241:0.23570226 250:0.23570226 302:0.23570226 #
-0.83569325344851463910345046315342 59:-0.095542185 61:0.23570226 94:0.093440048 125:0.23570226 150:-0.18898223 196:0.23570226 219:-0.095542185 249:0.046720024 250:-0.37796447 252:0.23570226 302:0.23570226 #
-0.83569325344851463910345046315342 59:0.67082042 90:0.2236068 94:0.44721359 195:0.2236068 215:0.2236068 219:0.2236068 241:0.2236068 250:0.2236068 262:0.2236068 #
-0.83569325344851463910345046315342 59:-0.26429775 68:0.22140452 94:-0.01429774 107:-0.01429774 119:0.23570226 134:-0.25 196:0.23570226 219:-0.028595479 223:-0.25 249:0.47140452 250:-0.25 251:-0.25 261:-0.25 295:0.23570226 #
-0.83569325344851463910345046315342 59:-0.2763932 68:0.19721359 94:-0.026393203 107:0.19721359 134:-0.25 212:0.2236068 219:-0.052786406 223:-0.25 249:0.44721359 250:-0.25 251:-0.25 261:-0.25 307:0.2236068 #
-0.83569325344851463910345046315342 59:-0.19069918 68:0.2582038 94:-0.19069918 107:0.23570226 119:0.23570226 128:-0.21320072 196:0.23570226 219:-0.16819763 249:0.2582038 251:-0.21320072 262:-0.21320072 295:0.23570226 #
-0.83569325344851463910345046315342 57:0.21320072 59:-0.045003086 61:-0.23570226 94:-0.045003086 126:-0.23570226 150:0.21320072 194:-0.23570226 219:0.16819763 249:-0.022501543 250:0.21320072 252:-0.022501543 302:-0.23570226 #
0.83569325344851463910345046315342 59:0.70710677 90:0.23570226 94:0.23570226 115:0.23570226 195:0.23570226 219:0.23570226 226:0.23570226 241:0.23570226 250:0.23570226 262:0.23570226 #
-0.83569325344851463910345046315342 14:0.26726124 59:0.53452247 84:0.26726124 94:0.26726124 125:0.26726124 219:0.26726124 223:0.26726124 228:0.26726124 250:0.26726124 263:0.26726124 274:0.26726124 #
-0.83569325344851463910345046315342 14:0.23570226 59:0.47140452 94:0.23570226 106:0.23570226 125:0.23570226 219:0.47140452 228:0.23570226 250:0.47140452 263:0.23570226 #
-0.83569325344851463910345046315342 14:0.23570226 59:0.47140452 94:0.23570226 113:0.23570226 125:0.23570226 219:0.47140452 228:0.23570226 250:0.47140452 263:0.23570226 #
-0.83569325344851463910345046315342 2:0.26726124 59:0.53452247 94:0.26726124 125:0.26726124 148:0.26726124 219:0.26726124 223:0.26726124 228:0.26726124 250:0.26726124 263:0.26726124 298:0.26726124 #
-0.83569325344851463910345046315342 14:0.26726124 59:0.53452247 84:0.26726124 94:0.26726124 125:0.26726124 219:0.26726124 221:0.26726124 228:0.26726124 250:0.26726124 263:0.26726124 274:0.26726124 #
-0.83569325344851463910345046315342 35:0.28867513 54:0.28867513 59:-0.15853846 68:-0.2236068 90:0.28867513 92:0.28867513 107:0.065068334 150:-0.44721359 162:0.28867513 170:-0.2236068 213:0.28867513 219:-0.44721359 220:0.28867513 242:0.28867513 249:0.28867513 250:-0.44721359 301:-0.2236068 303:0.28867513 #
-0.83569325344851463910345046315342 141:0.26726124 144:-0.26726124 #
-0.83569325344851463910345046315342 213:-0.23570226 215:0.23570226 #
-0.83569325344851463910345046315342 59:0.063156232 65:0.23570226 68:-0.20412415 94:0.063156232 107:-0.20412415 127:0.23570226 200:0.23570226 219:-0.14096792 249:-0.17254603 250:-0.20412415 252:0.23570226 266:0.23570226 #
-0.83569325344851463910345046315342 58:-0.44721359 59:0.1846415 67:0.20412415 94:0.40824831 95:-0.44721359 107:-0.019482652 215:-0.2236068 218:-0.44721359 219:0.40824831 220:0.20412415 250:0.16515884 303:-0.2236068 #
-0.83569325344851463910345046315342 58:-0.44721359 59:0.1846415 67:0.20412415 94:0.40824831 95:-0.44721359 107:-0.019482652 215:-0.2236068 217:0.20412415 218:-0.44721359 219:0.40824831 250:0.16515884 303:-0.2236068 #
-0.83569325344851463910345046315342 59:0.67082042 90:0.2236068 94:0.2236068 127:0.2236068 195:0.2236068 218:0.2236068 219:0.2236068 241:0.2236068 250:0.44721359 #
-0.83569325344851463910345046315342 59:-0.028595479 67:-0.01429774 115:-0.01429774 125:0.22140452 126:-0.25 215:-0.25 216:0.23570226 217:-0.25 218:0.23570226 219:-0.01429774 250:-0.028595479 301:-0.25 302:0.23570226 #
-0.83569325344851463910345046315342 59:0.027229713 90:-0.19504757 94:0.0090765711 127:0.21320072 195:0.0090765711 219:0.018153142 241:0.0090765711 250:0.018153142 #
0.83569325344851463910345046315342 35:0.23570226 59:0.47140452 90:0.23570226 91:0.23570226 94:0.23570226 195:0.23570226 219:0.47140452 241:0.23570226 250:0.47140452 #
-0.83569325344851463910345046315342 59:0.67082042 90:0.44721359 94:0.2236068 195:0.2236068 215:0.2236068 219:0.2236068 241:0.2236068 250:0.2236068 262:0.2236068 #
-0.83569325344851463910345046315342 59:0.70710677 81:0.23570226 90:0.23570226 94:0.23570226 170:0.23570226 195:0.23570226 219:0.23570226 241:0.23570226 250:0.23570226 262:0.23570226 #
-0.83569325344851463910345046315342 59:0.67082042 90:0.44721359 94:0.2236068 169:0.2236068 195:0.2236068 219:0.2236068 241:0.2236068 250:0.2236068 298:0.2236068 #
-0.83569325344851463910345046315342 59:-0.024190925 64:0.2236068 65:-0.23570226 94:-0.024190925 105:-0.23570226 126:0.2236068 196:0.2236068 217:-0.23570226 219:-0.024190925 249:0.21151133 250:-0.23570226 252:-0.23570226 302:0.2236068 #
-0.83569325344851463910345046315342 1:-0.28867513 16:0.26726124 36:-0.28867513 39:0.26726124 57:0.26726124 59:-0.28867513 90:-0.28867513 107:0.53452247 115:-0.28867513 125:-0.28867513 146:0.26726124 172:-0.28867513 204:0.26726124 213:-0.021413893 219:-0.021413893 250:-0.28867513 261:0.26726124 265:0.26726124 266:-0.28867513 268:0.26726124 301:-0.28867513 #
-0.83569325344851463910345046315342 59:-0.2763932 68:0.19721359 90:-0.25 94:-0.026393203 107:0.19721359 195:-0.25 212:0.2236068 219:-0.052786406 243:-0.25 249:0.19721359 250:-0.25 307:0.2236068 #
-0.83569325344851463910345046315342 105:0.26726124 107:-0.26726124 #
-0.83569325344851463910345046315342 59:-0.19504757 65:0.21320072 68:0.0090765711 94:0.0090765711 107:0.018153142 219:0.027229713 249:0.0090765711 250:0.018153142 #
0.83569325344851463910345046315342 55:0.26726124 59:0.53452247 90:0.26726124 94:0.26726124 121:0.26726124 162:0.26726124 195:0.26726124 219:0.26726124 241:0.26726124 250:0.26726124 298:0.26726124 #
0.83569325344851463910345046315342 59:0.67082042 90:0.2236068 94:0.2236068 141:0.2236068 195:0.2236068 219:0.44721359 241:0.2236068 242:0.2236068 250:0.2236068 #
-0.83569325344851463910345046315342 1:0.28867513 16:-0.26726124 36:0.28867513 39:-0.26726124 57:-0.26726124 59:0.28867513 90:0.28867513 107:-0.53452247 115:0.28867513 125:0.28867513 146:-0.26726124 172:0.28867513 213:0.021413893 219:0.021413893 228:-0.26726124 250:0.28867513 261:-0.26726124 266:0.28867513 268:-0.26726124 293:-0.26726124 301:0.28867513 #
-0.83569325344851463910345046315342 59:0.67082042 90:0.44721359 94:0.2236068 171:0.2236068 195:0.2236068 219:0.2236068 241:0.2236068 250:0.2236068 298:0.2236068 #
-0.83569325344851463910345046315342 59:0.5 65:0.25 90:0.25 101:0.25 125:0.25 195:0.25 228:0.5 242:0.25 264:0.25 266:0.25 #
0.83569325344851463910345046315342 59:0.63960212 90:0.42640144 94:0.21320072 194:0.21320072 195:0.21320072 219:0.21320072 241:0.21320072 250:0.42640144 #
-0.83569325344851463910345046315342 45:0.14142136 57:0.15975122 59:-0.068101898 69:-0.12309149 90:-0.33261475 107:0.42426407 125:0.018329864 170:-0.086431764 213:0.17808108 219:0.14142136 228:-0.12309149 250:0.14142136 261:-0.12309149 262:-0.24618298 274:0.14142136 276:0.018329864 298:-0.12309149 300:-0.12309149 302:0.28284273 304:0.14142136 #
-0.83569325344851463910345046315342 57:0.20412415 58:-0.44721359 59:0.1846415 94:0.40824831 95:-0.44721359 107:-0.019482652 215:-0.2236068 218:-0.44721359 219:0.61237246 250:-0.038965303 252:0.20412415 303:-0.2236068 #
-0.83569325344851463910345046315342 59:-0.23570226 65:0.23570226 107:0.23570226 125:-0.23570226 195:-0.23570226 213:0.23570226 #
-0.83569325344851463910345046315342 59:-0.038965303 67:0.20412415 68:-0.2236068 94:-0.038965303 107:0.20412415 125:-0.2236068 200:-0.2236068 219:0.16515884 249:-0.24308945 250:0.40824831 266:-0.2236068 #
0.83569325344851463910345046315342 53:0.25 59:0.5 90:0.25 125:0.5 195:0.25 219:0.25 228:0.25 242:0.25 250:0.25 264:0.25 #
0.83569325344851463910345046315342 59:0.70710677 90:0.23570226 94:0.23570226 143:0.23570226 195:0.23570226 219:0.23570226 228:0.23570226 241:0.23570226 250:0.23570226 302:0.23570226 #
-0.83569325344851463910345046315342 59:0.70710677 90:0.23570226 94:0.23570226 95:0.23570226 195:0.23570226 216:0.23570226 219:0.23570226 241:0.23570226 250:0.23570226 262:0.23570226 #
-0.83569325344851463910345046315342 59:0.67082042 90:0.2236068 94:0.2236068 125:0.2236068 195:0.2236068 218:0.2236068 219:0.2236068 241:0.2236068 250:0.44721359 #
-0.83569325344851463910345046315342 59:0.70710677 90:0.23570226 94:0.23570226 95:0.23570226 183:0.23570226 195:0.23570226 219:0.23570226 241:0.23570226 250:0.23570226 298:0.23570226 #
-0.83569325344851463910345046315342 59:0.70710677 90:0.23570226 94:0.23570226 95:0.23570226 195:0.23570226 215:0.23570226 219:0.23570226 241:0.23570226 250:0.23570226 262:0.23570226 #
0.83569325344851463910345046315342 3:0.26726124 35:0.26726124 59:0.26726124 94:0.26726124 107:0.26726124 108:0.26726124 195:0.26726124 219:0.26726124 220:0.26726124 250:0.53452247 301:0.26726124 #
0.83569325344851463910345046315342 2:0.26726124 35:0.26726124 59:0.26726124 94:0.26726124 105:0.26726124 107:0.26726124 195:0.26726124 219:0.53452247 250:0.26726124 251:0.26726124 304:0.26726124 #
-0.83569325344851463910345046315342 59:-0.2582038 65:0.21320072 68:-0.022501543 94:-0.022501543 107:0.19069918 125:-0.23570226 192:-0.23570226 219:0.16819763 249:0.21320072 250:-0.045003086 301:-0.23570226 #
-0.83569325344851463910345046315342 59:0.031218244 90:0.2236068 91:-0.21320072 94:0.010406082 107:0.010406082 215:0.010406082 219:-0.20279464 220:0.2236068 250:0.020812163 301:0.010406082 #
-0.83569325344851463910345046315342 59:-0.15236561 67:0.18898223 94:0.024411082 108:0.18898223 136:-0.17677669 219:0.036616623 250:0.036616623 #
-0.83569325344851463910345046315342 33:0.28867513 35:0.052972876 59:-0.47140452 66:0.28867513 90:-0.47140452 105:0.28867513 125:-0.23570226 142:0.28867513 144:0.28867513 161:-0.23570226 170:0.28867513 172:0.28867513 208:-0.23570226 215:0.28867513 228:-0.23570226 241:-0.23570226 244:0.28867513 301:0.28867513 302:-0.47140452 303:0.28867513 #
0.83569325344851463910345046315342 59:0.67082042 90:0.2236068 94:0.44721359 172:0.2236068 195:0.2236068 219:0.2236068 241:0.2236068 250:0.2236068 262:0.2236068 #
0.83569325344851463910345046315342 59:0.70710677 90:0.23570226 94:0.23570226 143:0.23570226 195:0.23570226 219:0.23570226 228:0.23570226 241:0.23570226 250:0.23570226 262:0.23570226 #
0.83569325344851463910345046315342 59:0.67082042 90:0.2236068 94:0.2236068 113:0.2236068 195:0.2236068 219:0.44721359 241:0.2236068 242:0.2236068 250:0.2236068 #
-0.83569325344851463910345046315342 14:0.23570226 59:0.47140452 94:0.23570226 114:0.23570226 125:0.23570226 219:0.47140452 228:0.23570226 250:0.47140452 263:0.23570226 #
-0.83569325344851463910345046315342 14:0.23570226 59:0.47140452 94:0.23570226 116:0.23570226 125:0.23570226 219:0.47140452 228:0.23570226 250:0.47140452 263:0.23570226 #
0.83569325344851463910345046315342 59:0.44721359 67:0.2236068 95:0.2236068 96:0.2236068 107:0.2236068 217:0.2236068 218:0.2236068 219:0.2236068 250:0.67082042 #
0.83569325344851463910345046315342 59:0.53452247 66:0.26726124 94:0.26726124 125:0.26726124 149:0.26726124 171:0.26726124 219:0.26726124 228:0.26726124 250:0.26726124 263:0.26726124 274:0.26726124 #
-0.83569325344851463910345046315342 67:0.20412415 68:-0.20412415 249:-0.20412415 250:0.20412415 #
-0.83569325344851463910345046315342 59:0.093440048 67:-0.18898223 68:0.23570226 94:0.093440048 105:-0.18898223 107:0.23570226 175:0.23570226 219:-0.095542185 249:0.23570226 250:-0.33124444 302:0.23570226 #
-0.83569325344851463910345046315342 59:-0.058925565 68:0.23570226 94:0.11785113 96:-0.17677669 107:0.23570226 175:0.23570226 219:-0.058925565 249:0.23570226 250:-0.29462782 302:0.23570226 #
-0.83569325344851463910345046315342 59:-0.058925565 68:0.23570226 93:-0.17677669 94:0.11785113 107:0.23570226 175:0.23570226 219:-0.058925565 249:0.23570226 250:-0.29462782 302:0.23570226 #
-0.83569325344851463910345046315342 126:0.25 142:-0.25 171:0.25 215:-0.25 263:-0.25 303:0.25 #
-0.83569325344851463910345046315342 35:0.25 59:-0.22140452 68:0.01429774 94:0.01429774 107:0.01429774 125:0.25 127:-0.23570226 213:0.25 219:0.028595479 236:-0.23570226 250:0.028595479 301:0.01429774 #
0.83569325344851463910345046315342 14:0.26726124 59:0.53452247 94:0.26726124 114:0.26726124 125:0.26726124 184:0.26726124 219:0.26726124 228:0.26726124 250:0.26726124 263:0.26726124 302:0.26726124 #
0.83569325344851463910345046315342 14:0.26726124 59:0.53452247 94:0.26726124 106:0.26726124 125:0.26726124 219:0.26726124 221:0.26726124 228:0.26726124 250:0.26726124 263:0.26726124 302:0.26726124 #
-0.83569325344851463910345046315342 125:-0.23570226 148:0.23570226 192:-0.23570226 213:0.23570226 #
-0.83569325344851463910345046315342 2:0.25 59:0.5 94:0.25 125:0.25 146:0.25 218:0.25 219:0.25 228:0.25 250:0.5 263:0.25 #
-0.83569325344851463910345046315342 14:0.25 59:0.5 94:0.25 115:0.25 125:0.25 218:0.25 219:0.25 228:0.25 250:0.5 263:0.25 #
-0.83569325344851463910345046315342 59:0.63960212 90:0.21320072 94:0.21320072 114:0.21320072 195:0.21320072 219:0.42640144 241:0.21320072 250:0.42640144 #
-0.83569325344851463910345046315342 14:0.25 59:0.5 94:0.25 105:0.25 125:0.25 218:0.25 219:0.25 228:0.25 250:0.5 263:0.25 #
-0.83569325344851463910345046315342 57:0.2236068 58:-0.44721359 66:0.2236068 93:0.2236068 94:0.2236068 95:-0.44721359 215:-0.2236068 218:-0.44721359 219:0.67082042 250:-0.2236068 251:0.44721359 303:-0.2236068 #
-0.83569325344851463910345046315342 57:0.2236068 58:-0.44721359 66:0.2236068 94:0.2236068 95:-0.44721359 96:0.2236068 215:-0.2236068 218:-0.44721359 219:0.67082042 250:-0.2236068 251:0.44721359 303:-0.2236068 #
0.83569325344851463910345046315342 2:0.26726124 59:0.53452247 94:0.26726124 125:0.26726124 147:0.26726124 175:0.26726124 219:0.26726124 228:0.26726124 250:0.26726124 263:0.26726124 298:0.26726124 #
0.83569325344851463910345046315342 14:0.26726124 59:0.53452247 94:0.26726124 125:0.26726124 126:0.26726124 219:0.26726124 222:0.26726124 228:0.26726124 250:0.26726124 263:0.26726124 298:0.26726124 #
-0.83569325344851463910345046315342 59:-0.024190925 62:-0.23570226 64:0.2236068 94:-0.024190925 126:-0.012095463 194:0.2236068 196:-0.23570226 219:-0.024190925 249:0.21151133 251:-0.23570226 302:-0.012095463 #
-0.83569325344851463910345046315342 226:0.2236068 228:-0.2236068 #
-0.83569325344851463910345046315342 170:-0.23570226 171:0.23570226 #
-0.83569325344851463910345046315342 58:0.26726124 59:0.017261242 60:-0.25 65:0.26726124 68:-0.25 93:0.26726124 94:-0.25 95:-0.25 106:0.26726124 107:-0.25 134:0.26726124 217:0.26726124 219:-0.23273876 220:-0.25 222:0.26726124 249:-0.5 250:0.53452247 251:-0.25 264:0.26726124 #
-0.83569325344851463910345046315342 2:0.26726124 59:0.53452247 94:0.26726124 125:0.26726124 148:0.26726124 219:0.26726124 221:0.26726124 228:0.26726124 250:0.26726124 263:0.26726124 298:0.26726124 #
-0.83569325344851463910345046315342 59:-0.024190925 62:-0.23570226 64:0.2236068 94:-0.024190925 126:-0.012095463 195:0.2236068 196:-0.23570226 219:-0.024190925 249:0.21151133 251:-0.23570226 302:-0.012095463 #
-0.83569325344851463910345046315342 58:-0.44721359 59:0.1846415 60:0.20412415 94:0.40824831 95:-0.24308945 107:-0.2236068 215:-0.2236068 218:-0.44721359 219:0.61237246 249:0.20412415 250:-0.038965303 303:-0.2236068 #
-0.83569325344851463910345046315342 58:-0.44721359 59:0.1846415 60:0.20412415 94:0.40824831 95:-0.44721359 107:-0.2236068 135:0.20412415 215:-0.2236068 218:-0.44721359 219:0.61237246 249:0.20412415 250:-0.038965303 303:-0.2236068 #
-0.83569325344851463910345046315342 58:-0.44721359 59:0.15435767 67:0.18898223 94:0.37796447 95:-0.44721359 107:-0.2236068 108:0.18898223 215:-0.2236068 218:-0.44721359 219:0.56694669 250:0.11973312 303:-0.2236068 #
0.83569325344851463910345046315342 14:0.26726124 59:0.53452247 94:0.26726124 105:0.26726124 125:0.26726124 219:0.26726124 221:0.26726124 228:0.26726124 250:0.26726124 262:0.26726124 263:0.26726124 #
-0.83569325344851463910345046315342 58:0.53452247 59:0.26726124 91:0.26726124 95:0.26726124 125:0.26726124 196:0.26726124 215:0.26726124 219:0.26726124 243:0.26726124 250:0.26726124 303:0.26726124 #
-0.83569325344851463910345046315342 53:0.26726124 59:0.53452247 90:0.26726124 107:0.26726124 125:0.26726124 195:0.26726124 218:0.26726124 228:0.26726124 242:0.26726124 250:0.26726124 264:0.26726124 #
-0.83569325344851463910345046315342 59:0.53452247 69:0.26726124 90:0.26726124 95:0.26726124 125:0.26726124 195:0.26726124 219:0.26726124 228:0.26726124 242:0.26726124 250:0.26726124 264:0.26726124 #
-0.83569325344851463910345046315342 227:0.23570226 228:-0.23570226 #
-0.83569325344851463910345046315342 114:0.23570226 115:-0.23570226 #
0.83569325344851463910345046315342 59:0.40824831 63:0.20412415 94:0.40824831 150:0.20412415 219:0.61237246 249:0.20412415 250:0.40824831 #
0.83569325344851463910345046315342 35:0.23570226 59:0.47140452 90:0.23570226 93:0.23570226 94:0.23570226 195:0.23570226 219:0.47140452 241:0.23570226 250:0.47140452 #
0.83569325344851463910345046315342 59:0.63960212 89:0.21320072 90:0.21320072 94:0.21320072 195:0.21320072 219:0.42640144 241:0.21320072 250:0.42640144 #
0.83569325344851463910345046315342 59:0.63960212 90:0.21320072 94:0.21320072 141:0.21320072 195:0.21320072 219:0.42640144 241:0.21320072 250:0.42640144 #
-0.83569325344851463910345046315342 59:-0.20710678 68:0.25 90:0.01429774 94:0.01429774 107:0.25 144:-0.23570226 195:0.01429774 219:0.26429775 228:-0.23570226 241:0.01429774 249:0.25 250:0.01429774 262:-0.23570226 #
-0.83569325344851463910345046315342 59:0.63960212 90:0.21320072 94:0.21320072 116:0.21320072 195:0.21320072 219:0.42640144 241:0.21320072 250:0.42640144 #
-0.83569325344851463910345046315342 58:0.26726124 59:-0.20414329 68:0.031558983 94:-0.20414329 107:0.26726124 136:0.031558983 219:0.063117966 223:0.26726124 231:-0.23570226 249:-0.23570226 250:0.26726124 251:0.031558983 261:0.26726124 282:-0.23570226 #
-0.4480704166729796433799037913559 59:0.031218244 90:0.23401287 94:0.010406082 125:-0.21320072 170:0.2236068 195:0.010406082 219:-0.20279464 241:0.010406082 250:-0.20279464 298:0.2236068 #
0.83569325344851463910345046315342 2:0.26726124 59:0.53452247 94:0.26726124 106:0.26726124 125:0.26726124 216:0.26726124 219:0.26726124 228:0.26726124 250:0.26726124 262:0.26726124 263:0.26726124 #
0.83569325344851463910345046315342 14:0.26726124 59:0.53452247 94:0.26726124 106:0.26726124 125:0.26726124 219:0.26726124 223:0.26726124 228:0.26726124 250:0.26726124 262:0.26726124 263:0.26726124 #
-0.83569325344851463910345046315342 14:0.25 59:0.5 94:0.25 125:0.5 219:0.25 225:0.25 228:0.25 250:0.25 262:0.25 263:0.25 #
-0.83569325344851463910345046315342 14:0.25 59:0.5 94:0.25 125:0.5 219:0.25 227:0.25 228:0.25 250:0.25 262:0.25 263:0.25 #
-0.83569325344851463910345046315342 14:0.25 59:0.5 94:0.25 125:0.25 128:0.25 219:0.25 228:0.5 250:0.25 262:0.25 263:0.25 #
-0.83569325344851463910345046315342 14:0.26726124 59:0.53452247 94:0.26726124 125:0.26726124 142:0.26726124 215:0.26726124 219:0.26726124 228:0.26726124 250:0.26726124 263:0.26726124 266:0.26726124 #
-0.83569325344851463910345046315342 14:0.26726124 59:0.53452247 94:0.26726124 108:0.26726124 125:0.26726124 213:0.26726124 219:0.26726124 228:0.26726124 250:0.26726124 262:0.26726124 263:0.26726124 #
0.83569325344851463910345046315342 59:0.61237246 90:0.40824831 94:0.20412415 195:0.20412415 219:0.40824831 241:0.20412415 250:0.40824831 #
0.83569325344851463910345046315342 59:0.67082042 90:0.2236068 94:0.2236068 115:0.2236068 195:0.2236068 219:0.2236068 227:0.2236068 241:0.2236068 250:0.44721359 #
0.83569325344851463910345046315342 59:0.63960212 90:0.21320072 94:0.21320072 148:0.21320072 195:0.21320072 219:0.42640144 241:0.21320072 250:0.42640144 #
0.83569325344851463910345046315342 59:0.63960212 90:0.21320072 94:0.21320072 96:0.21320072 195:0.21320072 219:0.42640144 241:0.21320072 250:0.42640144 #
0.83569325344851463910345046315342 59:0.63960212 90:0.21320072 93:0.21320072 94:0.21320072 195:0.21320072 219:0.42640144 241:0.21320072 250:0.42640144 #
-0.83569325344851463910345046315342 59:0.70710677 90:0.23570226 94:0.23570226 144:0.23570226 195:0.23570226 216:0.23570226 219:0.23570226 241:0.23570226 250:0.23570226 302:0.23570226 #
-0.83569325344851463910345046315342 59:0.70710677 90:0.23570226 94:0.23570226 147:0.23570226 195:0.23570226 219:0.23570226 221:0.23570226 241:0.23570226 250:0.23570226 294:0.23570226 #
-0.83569325344851463910345046315342 59:0.70710677 90:0.23570226 94:0.23570226 127:0.23570226 195:0.23570226 216:0.23570226 219:0.23570226 241:0.23570226 250:0.23570226 302:0.23570226 #
-0.83569325344851463910345046315342 59:0.70710677 90:0.23570226 94:0.23570226 143:0.23570226 195:0.23570226 216:0.23570226 219:0.23570226 241:0.23570226 250:0.23570226 302:0.23570226 #
-0.83569325344851463910345046315342 59:0.70710677 90:0.23570226 94:0.23570226 141:0.23570226 195:0.23570226 216:0.23570226 219:0.23570226 241:0.23570226 250:0.23570226 302:0.23570226 #
0.83569325344851463910345046315342 14:0.25 59:0.5 94:0.25 125:0.5 213:0.25 219:0.25 228:0.25 250:0.25 262:0.25 263:0.25 #
0.83569325344851463910345046315342 14:0.25 59:0.5 94:0.25 105:0.25 125:0.25 219:0.25 228:0.5 250:0.25 262:0.25 263:0.25 #
0.83569325344851463910345046315342 14:0.25 59:0.5 84:0.25 94:0.25 125:0.25 219:0.25 228:0.5 250:0.25 262:0.25 263:0.25 #
0.83569325344851463910345046315342 14:0.26726124 59:0.53452247 94:0.26726124 108:0.26726124 125:0.26726124 219:0.26726124 224:0.26726124 228:0.26726124 250:0.26726124 262:0.26726124 263:0.26726124 #
-0.83569325344851463910345046315342 194:0.23570226 196:-0.23570226 #
-0.83569325344851463910345046315342 58:0.26726124 59:0.017261242 60:-0.25 68:0.017261242 91:-0.25 94:0.017261242 107:0.017261242 136:0.26726124 196:-0.25 219:0.034522485 223:0.26726124 243:-0.25 249:-0.5 250:0.26726124 251:0.26726124 261:0.26726124 #
-0.83569325344851463910345046315342 106:0.17677669 133:-0.17677669 #
-0.83569325344851463910345046315342 14:0.26726124 59:0.53452247 84:0.26726124 94:0.26726124 125:0.26726124 219:0.26726124 227:0.26726124 228:0.26726124 250:0.26726124 262:0.26726124 263:0.26726124 #
-0.83569325344851463910345046315342 59:0.095542185 63:-0.23570226 94:-0.093440048 127:-0.23570226 151:0.18898223 195:-0.23570226 219:0.095542185 249:-0.046720024 250:0.14226221 302:-0.23570226 #
-0.83569325344851463910345046315342 59:0.063156232 68:0.031578116 94:0.031578116 107:-0.17254603 148:0.23570226 213:0.23570226 219:-0.14096792 250:0.063156232 301:0.031578116 #
0.83569325344851463910345046315342 59:0.67082042 90:0.2236068 94:0.44721359 182:0.2236068 195:0.2236068 219:0.2236068 241:0.2236068 250:0.2236068 298:0.2236068 #
0.83569325344851463910345046315342 59:0.63960212 90:0.21320072 94:0.21320072 127:0.21320072 195:0.21320072 219:0.42640144 241:0.21320072 250:0.42640144 #
-0.83569325344851463910345046315342 14:0.23570226 59:0.47140452 94:0.23570226 125:0.23570226 128:0.23570226 219:0.47140452 228:0.23570226 250:0.47140452 263:0.23570226 #
-0.83569325344851463910345046315342 2:0.26726124 59:0.53452247 94:0.26726124 125:0.26726124 146:0.26726124 219:0.26726124 221:0.26726124 228:0.26726124 250:0.26726124 263:0.26726124 298:0.26726124 #
-0.83569325344851463910345046315342 59:0.70710677 90:0.23570226 94:0.23570226 127:0.23570226 195:0.23570226 219:0.23570226 228:0.23570226 241:0.23570226 250:0.23570226 262:0.23570226 #
-0.83569325344851463910345046315342 2:0.26726124 59:0.53452247 94:0.26726124 125:0.26726124 147:0.26726124 219:0.26726124 223:0.26726124 228:0.26726124 250:0.26726124 263:0.26726124 298:0.26726124 #
-0.83569325344851463910345046315342 14:0.26726124 59:0.53452247 84:0.26726124 94:0.26726124 125:0.26726124 219:0.26726124 225:0.26726124 228:0.26726124 250:0.26726124 262:0.26726124 263:0.26726124 #
-0.83569325344851463910345046315342 59:-0.20710678 68:0.25 90:0.01429774 94:0.01429774 107:0.25 125:-0.23570226 195:0.01429774 213:-0.23570226 219:0.26429775 241:0.01429774 249:0.25 250:0.01429774 302:-0.23570226 #
-0.83569325344851463910345046315342 59:-0.20710678 68:0.25 90:0.01429774 94:0.01429774 107:0.25 125:-0.23570226 170:-0.23570226 195:0.01429774 219:0.26429775 241:0.01429774 249:0.25 250:0.01429774 262:-0.23570226 #
-0.83569325344851463910345046315342 58:0.024190925 59:-0.2236068 67:0.23570226 95:0.024190925 105:0.23570226 107:-0.2236068 175:0.23570226 215:-0.2236068 218:-0.44721359 219:0.47140452 249:0.23570226 250:-0.21151133 303:0.012095463 #
0.83569325344851463910345046315342 14:0.26726124 59:0.53452247 94:0.26726124 125:0.26726124 142:0.26726124 219:0.26726124 225:0.26726124 228:0.26726124 250:0.26726124 263:0.26726124 266:0.26726124 #
0.83569325344851463910345046315342 59:0.53452247 66:0.26726124 94:0.26726124 125:0.26726124 147:0.26726124 206:0.26726124 219:0.26726124 228:0.26726124 250:0.26726124 263:0.26726124 298:0.26726124 #
0.83569325344851463910345046315342 14:0.26726124 59:0.53452247 94:0.26726124 108:0.26726124 125:0.26726124 216:0.26726124 219:0.26726124 228:0.26726124 250:0.26726124 263:0.26726124 266:0.26726124 #
0.83569325344851463910345046315342 59:0.70710677 90:0.23570226 94:0.23570226 142:0.23570226 195:0.23570226 219:0.23570226 228:0.23570226 241:0.23570226 250:0.23570226 294:0.23570226 #
0.83569325344851463910345046315342 59:0.67082042 90:0.2236068 94:0.2236068 115:0.2236068 195:0.2236068 219:0.2236068 228:0.2236068 241:0.2236068 250:0.44721359 #
-0.83569325344851463910345046315342 30:0.23570226 59:0.47140452 94:0.23570226 125:0.47140452 218:0.23570226 219:0.23570226 228:0.23570226 250:0.47140452 263:0.23570226 #
-0.83569325344851463910345046315342 14:0.23570226 59:0.47140452 94:0.23570226 125:0.47140452 218:0.23570226 219:0.23570226 228:0.23570226 250:0.47140452 263:0.23570226 #
-0.83569325344851463910345046315342 14:0.26726124 59:0.53452247 94:0.26726124 125:0.26726124 144:0.26726124 215:0.26726124 219:0.26726124 228:0.26726124 250:0.26726124 263:0.26726124 266:0.26726124 #
-0.83569325344851463910345046315342 146:0.26726124 147:-0.26726124 222:0.26726124 224:-0.26726124 #
-0.83569325344851463910345046315342 125:-0.23570226 126:0.23570226 #
-0.83569325344851463910345046315342 59:-0.16819763 61:0.23570226 90:-0.21320072 94:0.045003086 127:0.23570226 195:0.23570226 219:0.045003086 220:-0.21320072 249:0.022501543 250:-0.21320072 252:0.23570226 290:-0.21320072 302:0.23570226 #
-0.83569325344851463910345046315342 59:-0.20710678 68:0.25 90:0.01429774 94:0.01429774 107:0.25 125:-0.23570226 195:0.01429774 219:0.26429775 228:-0.23570226 241:0.01429774 249:0.25 250:0.01429774 262:-0.23570226 #
-0.83569325344851463910345046315342 213:-0.23570226 214:0.23570226 #
-0.83569325344851463910345046315342 149:0.21320072 150:-0.21320072 #
-0.83569325344851463910345046315342 14:-0.26726124 15:0.28867513 59:-0.24584734 60:0.28867513 94:0.021413893 107:0.021413893 125:-0.26726124 126:0.28867513 213:0.28867513 216:-0.26726124 219:0.021413893 228:0.021413893 250:-0.26726124 252:0.28867513 262:0.28867513 263:-0.26726124 297:0.28867513 298:-0.26726124 #
-0.83569325344851463910345046315342 3:0.26726124 59:-0.20414329 68:0.031558983 82:0.26726124 94:-0.20414329 107:0.26726124 143:-0.23570226 175:-0.23570226 215:0.26726124 219:0.063117966 249:0.031558983 250:0.26726124 251:-0.23570226 307:0.26726124 310:-0.23570226 #
0.83569325344851463910345046315342 14:0.26726124 59:0.53452247 94:0.26726124 108:0.26726124 125:0.26726124 214:0.26726124 219:0.26726124 228:0.26726124 250:0.26726124 263:0.26726124 266:0.26726124 #
-0.83569325344851463910345046315342 30:0.25 59:-0.22140452 68:0.01429774 94:0.01429774 107:0.01429774 125:0.25 148:-0.23570226 213:0.01429774 219:0.028595479 250:0.028595479 301:0.01429774 #
-0.83569325344851463910345046315342 59:0.031218244 90:0.010406082 94:0.010406082 145:-0.21320072 146:0.2236068 195:0.010406082 217:0.2236068 219:-0.20279464 241:0.010406082 250:0.020812163 #
-0.83569325344851463910345046315342 59:0.67082042 90:0.2236068 94:0.44721359 183:0.2236068 195:0.2236068 219:0.2236068 241:0.2236068 250:0.2236068 298:0.2236068 #
-0.83569325344851463910345046315342 57:0.21320072 59:-0.045003086 62:-0.23570226 90:0.21320072 94:-0.045003086 126:-0.23570226 196:-0.23570226 219:0.16819763 249:-0.022501543 251:-0.23570226 252:0.21320072 290:0.21320072 302:-0.23570226 #
-0.83569325344851463910345046315342 59:0.70710677 90:0.23570226 93:0.23570226 94:0.23570226 195:0.23570226 216:0.23570226 219:0.23570226 241:0.23570226 250:0.23570226 262:0.23570226 #
-0.83569325344851463910345046315342 59:0.70710677 90:0.23570226 94:0.23570226 95:0.23570226 195:0.23570226 213:0.23570226 219:0.23570226 241:0.23570226 250:0.23570226 262:0.23570226 #
-0.83569325344851463910345046315342 194:0.23570226 196:-0.23570226 #
-0.83569325344851463910345046315342 57:-0.26726124 59:0.20414329 66:-0.26726124 67:0.23570226 115:-0.031558983 125:0.20414329 126:-0.26726124 213:-0.26726124 214:0.23570226 219:-0.29882023 220:0.23570226 250:0.20414329 252:-0.26726124 302:-0.26726124 304:0.23570226 #
-0.83569325344851463910345046315342 57:-0.26726124 59:0.20414329 66:-0.26726124 67:0.23570226 115:-0.031558983 125:0.20414329 126:-0.26726124 213:-0.26726124 216:0.23570226 218:0.23570226 219:-0.29882023 250:0.20414329 252:-0.26726124 302:-0.031558983 #
-0.83569325344851463910345046315342 59:-0.031218244 90:-0.2236068 92:0.21320072 94:-0.44721359 95:0.42640144 194:0.20279464 195:-0.2236068 219:-0.010406082 241:-0.2236068 242:-0.010406082 243:0.21320072 250:-0.010406082 #
-0.83569325344851463910345046315342 58:0.21320072 59:-0.045003086 61:-0.23570226 94:-0.045003086 126:-0.23570226 149:0.21320072 195:-0.23570226 219:0.16819763 249:-0.022501543 250:0.21320072 251:0.21320072 252:-0.23570226 302:-0.23570226 #
0.83569325344851463910345046315342 59:0.70710677 90:0.23570226 94:0.23570226 103:0.23570226 195:0.23570226 219:0.23570226 228:0.23570226 241:0.23570226 250:0.23570226 262:0.23570226 #
0.83569325344851463910345046315342 59:0.70710677 83:0.23570226 90:0.23570226 94:0.23570226 195:0.23570226 219:0.23570226 228:0.23570226 241:0.23570226 250:0.23570226 262:0.23570226 #
-0.83569325344851463910345046315342 59:0.063156232 63:0.23570226 68:-0.20412415 94:0.063156232 106:-0.20412415 125:0.23570226 196:0.23570226 219:-0.14096792 249:-0.17254603 250:0.031578116 302:0.23570226 #
-0.83569325344851463910345046315342 58:-0.44721359 59:0.24779773 66:0.23570226 94:0.47140452 95:-0.44721359 106:0.23570226 107:-0.2236068 215:-0.2236068 218:-0.21151133 219:0.47140452 249:0.23570226 250:-0.21151133 251:0.23570226 303:-0.2236068 #
-0.83569325344851463910345046315342 58:-0.44721359 59:0.38876563 94:0.40824831 95:-0.44721359 106:0.20412415 107:-0.2236068 215:-0.2236068 218:-0.038965303 219:0.20412415 249:0.20412415 250:-0.038965303 303:-0.2236068 #
-0.83569325344851463910345046315342 58:-0.44721359 59:0.24779773 65:0.23570226 94:0.47140452 95:-0.44721359 106:0.23570226 107:-0.2236068 215:-0.2236068 218:0.024190925 219:0.23570226 249:0.23570226 250:-0.21151133 252:0.23570226 303:-0.2236068 #
-0.83569325344851463910345046315342 57:0.21320072 59:-0.020812163 60:-0.2236068 92:-0.2236068 94:-0.020812163 152:0.21320072 219:0.19238855 220:-0.2236068 249:-0.23401287 250:0.21320072 252:0.21320072 290:-0.2236068 #
-0.83569325344851463910345046315342 57:0.21320072 59:-0.020812163 60:-0.2236068 92:-0.2236068 94:-0.020812163 150:0.21320072 219:0.19238855 220:-0.2236068 249:-0.23401287 250:0.21320072 252:0.21320072 290:-0.2236068 #
-0.83569325344851463910345046315342 59:0.16515884 60:-0.2236068 92:-0.2236068 94:-0.038965303 150:0.20412415 218:0.20412415 219:-0.038965303 220:-0.2236068 249:-0.24308945 250:0.40824831 290:-0.2236068 #
-0.83569325344851463910345046315342 58:0.21320072 59:-0.020812163 60:-0.2236068 92:-0.2236068 94:-0.020812163 149:0.21320072 219:0.19238855 220:-0.2236068 249:-0.23401287 250:0.21320072 251:0.21320072 290:-0.2236068 #
-0.83569325344851463910345046315342 58:0.53452247 59:0.26726124 90:0.26726124 91:0.26726124 95:0.26726124 196:0.26726124 215:0.26726124 219:0.26726124 243:0.26726124 250:0.26726124 303:0.26726124 #
0.83569325344851463910345046315342 14:0.26726124 59:0.53452247 94:0.26726124 106:0.26726124 125:0.26726124 219:0.26726124 221:0.26726124 228:0.26726124 250:0.26726124 262:0.26726124 263:0.26726124 #
0.83569325344851463910345046315342 34:0.26726124 59:0.53452247 94:0.26726124 125:0.26726124 127:0.26726124 219:0.26726124 220:0.26726124 228:0.26726124 250:0.26726124 263:0.26726124 298:0.26726124 #
0.83569325344851463910345046315342 14:0.26726124 59:0.53452247 94:0.26726124 106:0.26726124 125:0.26726124 216:0.26726124 219:0.26726124 228:0.26726124 250:0.26726124 263:0.26726124 266:0.26726124 #
0.83569325344851463910345046315342 26:0.26726124 59:0.53452247 92:0.26726124 94:0.26726124 125:0.26726124 187:0.26726124 219:0.26726124 228:0.26726124 250:0.26726124 263:0.26726124 270:0.26726124 #
-0.83569325344851463910345046315342 14:0.26726124 59:0.53452247 94:0.26726124 125:0.26726124 143:0.26726124 219:0.26726124 227:0.26726124 228:0.26726124 250:0.26726124 263:0.26726124 266:0.26726124 #
-0.83569325344851463910345046315342 14:0.25 59:0.5 94:0.25 115:0.25 125:0.25 219:0.25 220:0.25 228:0.25 250:0.5 263:0.25 #
-0.74071925505177527160327599631273 125:0.23570226 148:-0.23570226 213:-0.23570226 215:0.23570226 257:0.23570226 301:-0.23570226 #
0.83569325344851463910345046315342 13:0.25 59:0.5 94:0.25 106:0.25 126:0.25 186:0.25 219:0.5 249:0.25 250:0.25 304:0.25 #
-0.83569325344851463910345046315342 58:-0.44721359 59:0.2763932 65:0.25 95:0.052786406 107:0.026393203 174:0.25 215:-0.2236068 218:-0.44721359 219:0.25 220:0.25 249:0.25 250:-0.44721359 252:0.25 302:0.25 303:-0.2236068 #
-0.83569325344851463910345046315342 58:-0.44721359 59:0.31091568 67:0.26726124 95:-0.17995235 96:0.26726124 107:0.043654446 174:0.26726124 215:-0.2236068 218:-0.44721359 219:0.26726124 220:0.26726124 249:0.26726124 250:-0.17995235 302:0.26726124 303:-0.2236068 #
-0.83569325344851463910345046315342 58:-0.44721359 59:0.31091568 67:0.26726124 95:-0.17995235 96:0.26726124 107:0.043654446 214:0.26726124 215:-0.2236068 218:-0.44721359 219:0.26726124 220:0.26726124 249:0.26726124 250:-0.17995235 302:0.26726124 303:-0.2236068 #
-0.83569325344851463910345046315342 58:-0.44721359 59:0.24779773 68:0.23570226 95:0.024190925 107:0.012095463 215:-0.2236068 218:-0.21151133 219:0.23570226 220:0.23570226 249:0.47140452 250:-0.21151133 303:-0.2236068 #
-0.83569325344851463910345046315342 58:0.052786406 59:-0.2236068 67:0.25 95:0.052786406 107:0.026393203 175:0.25 215:-0.2236068 218:-0.44721359 219:0.25 220:0.25 249:0.25 250:-0.19721359 303:0.026393203 #
0.83569325344851463910345046315342 14:0.23570226 59:0.47140452 94:0.23570226 125:0.23570226 146:0.23570226 219:0.47140452 228:0.23570226 250:0.47140452 263:0.23570226 #
-0.83569325344851463910345046315342 59:0.63960212 90:0.21320072 94:0.42640144 195:0.21320072 218:0.21320072 219:0.21320072 241:0.21320072 250:0.42640144 #
-0.83569325344851463910345046315342 59:0.067504629 90:0.022501543 94:0.022501543 125:-0.21320072 144:0.23570226 195:0.022501543 219:-0.19069918 228:0.23570226 241:0.022501543 250:-0.19069918 262:0.23570226 #
-0.83569325344851463910345046315342 2:0.25 59:0.5 94:0.25 125:0.25 148:0.25 218:0.25 219:0.25 228:0.25 250:0.5 263:0.25 #
-1.6523241108679087574273580685258e-16 59:0.67082042 83:0.2236068 90:0.2236068 94:0.2236068 195:0.2236068 218:0.2236068 219:0.2236068 241:0.2236068 250:0.44721359 #
0.83569325344851463910345046315342 2:0.26726124 59:0.53452247 94:0.26726124 125:0.26726124 147:0.26726124 219:0.26726124 224:0.26726124 228:0.26726124 250:0.26726124 263:0.26726124 298:0.26726124 #
0.83569325344851463910345046315342 54:0.26726124 59:0.53452247 90:0.26726124 94:0.26726124 125:0.26726124 219:0.26726124 225:0.26726124 228:0.26726124 250:0.26726124 263:0.26726124 298:0.26726124 #
-0.83569325344851463910345046315342 59:0.14113481 68:-0.2236068 92:0.19611613 94:-0.054981325 108:-0.2236068 218:-0.2236068 219:0.14113481 249:-0.25109747 250:-0.027490662 290:0.19611613 #
-0.83569325344851463910345046315342 59:0.11694388 65:-0.23570226 92:0.19611613 94:-0.079172254 105:-0.23570226 217:-0.23570226 219:0.11694388 249:-0.039586127 250:-0.039586127 252:-0.23570226 290:0.19611613 #
-0.83569325344851463910345046315342 59:0.14113481 68:-0.2236068 89:0.19611613 94:-0.054981325 108:-0.2236068 218:-0.2236068 219:0.14113481 249:-0.25109747 250:-0.027490662 290:0.19611613 #
-0.83569325344851463910345046315342 59:0.067504629 89:-0.21320072 90:0.022501543 94:0.022501543 107:0.23570226 195:0.022501543 219:-0.19069918 228:0.23570226 241:0.022501543 250:-0.19069918 262:0.23570226 #
-0.83569325344851463910345046315342 14:0.26726124 59:0.53452247 94:0.26726124 125:0.26726124 147:0.26726124 215:0.26726124 219:0.26726124 228:0.26726124 250:0.26726124 263:0.26726124 302:0.26726124 #
-0.83569325344851463910345046315342 61:0.23570226 65:-0.23570226 105:-0.23570226 125:0.23570226 194:0.23570226 217:-0.23570226 250:-0.23570226 302:0.23570226 #
-0.83569325344851463910345046315342 14:0.25 59:0.5 94:0.25 115:0.25 125:0.25 217:0.25 219:0.25 228:0.25 250:0.5 263:0.25 #
-0.83569325344851463910345046315342 59:-0.23273876 60:0.26726124 65:0.26726124 67:-0.25 115:0.017261242 125:-0.25 126:-0.25 127:0.53452247 213:0.26726124 215:-0.25 217:0.017261242 219:0.017261242 249:0.26726124 250:-0.23273876 301:-0.25 303:0.26726124 #
-0.83569325344851463910345046315342 59:-0.20414329 60:0.26726124 65:0.031558983 115:0.031558983 125:-0.47140452 127:0.53452247 213:0.26726124 215:-0.23570226 217:0.031558983 219:0.031558983 249:0.26726124 250:-0.20414329 303:0.26726124 304:-0.23570226 #
-0.83569325344851463910345046315342 59:-0.23273876 60:0.26726124 65:0.26726124 68:-0.25 115:0.017261242 125:-0.25 127:0.53452247 128:-0.25 213:0.26726124 216:-0.25 217:0.26726124 219:0.017261242 220:-0.25 249:0.26726124 250:-0.23273876 303:0.017261242 #
0.83569325344851463910345046315342 14:0.26726124 59:0.53452247 94:0.26726124 106:0.26726124 125:0.26726124 219:0.26726124 222:0.26726124 228:0.26726124 250:0.26726124 262:0.26726124 263:0.26726124 #
-0.83569325344851463910345046315342 59:0.70710677 90:0.23570226 94:0.23570226 108:0.23570226 195:0.23570226 215:0.23570226 219:0.23570226 241:0.23570226 250:0.23570226 262:0.23570226 #
-0.83569325344851463910345046315342 59:0.70710677 90:0.23570226 94:0.23570226 108:0.23570226 195:0.23570226 216:0.23570226 219:0.23570226 241:0.23570226 250:0.23570226 262:0.23570226 #
-0.83569325344851463910345046315342 59:0.70710677 90:0.23570226 94:0.23570226 105:0.23570226 195:0.23570226 216:0.23570226 219:0.23570226 241:0.23570226 250:0.23570226 262:0.23570226 #
-0.83569325344851463910345046315342 59:0.51639777 63:0.25819889 89:0.25819889 105:0.25819889 108:0.25819889 213:0.25819889 219:0.25819889 228:0.25819889 262:0.51639777 #
-0.83569325344851463910345046315342 59:0.16515884 64:-0.2236068 94:-0.038965303 127:-0.2236068 150:0.20412415 196:-0.2236068 218:0.20412415 219:-0.038965303 249:-0.24308945 250:0.40824831 302:-0.2236068 #
-0.83569325344851463910345046315342 35:0.25 59:-0.19721359 68:0.026393203 94:0.026393203 107:-0.19721359 125:0.25 186:0.25 213:-0.2236068 219:0.052786406 241:-0.2236068 250:0.052786406 301:0.25 #
-0.83569325344851463910345046315342 59:-0.024190925 64:0.2236068 65:-0.23570226 94:-0.024190925 105:-0.23570226 125:0.2236068 194:0.2236068 217:-0.23570226 219:-0.024190925 249:0.21151133 250:-0.23570226 252:-0.23570226 302:0.2236068 #
-0.83569325344851463910345046315342 35:-0.031558983 59:0.20414329 68:-0.26726124 90:0.47140452 107:-0.53452247 125:-0.031558983 161:0.23570226 169:-0.26726124 170:-0.26726124 208:0.23570226 219:-0.26726124 228:0.23570226 241:-0.031558983 242:-0.26726124 250:-0.26726124 302:0.47140452 #
-0.83569325344851463910345046315342 35:0.25 59:-0.22140452 68:0.01429774 86:-0.23570226 94:0.01429774 107:0.01429774 125:0.25 170:-0.23570226 186:0.25 219:0.028595479 250:0.028595479 301:0.01429774 #
-0.83569325344851463910345046315342 35:0.25 59:-0.22140452 68:0.01429774 84:-0.23570226 94:0.01429774 107:0.01429774 125:0.25 170:-0.23570226 186:0.25 219:0.028595479 250:0.028595479 301:0.01429774 #
0.83569325344851463910345046315342 59:0.67082042 90:0.2236068 94:0.44721359 195:0.2236068 219:0.2236068 228:0.2236068 241:0.2236068 250:0.2236068 262:0.2236068 #
0.83569325344851463910345046315342 59:0.70710677 90:0.23570226 94:0.23570226 125:0.23570226 195:0.23570226 219:0.23570226 228:0.23570226 241:0.23570226 250:0.23570226 262:0.23570226 #
-0.83569325344851463910345046315342 59:0.63960212 90:0.21320072 94:0.42640144 195:0.21320072 218:0.21320072 219:0.21320072 242:0.21320072 250:0.42640144 #
-0.83569325344851463910345046315342 59:0.67082042 90:0.2236068 94:0.2236068 114:0.2236068 195:0.2236068 219:0.2236068 228:0.2236068 241:0.2236068 250:0.44721359 #
-0.83569325344851463910345046315342 59:0.63960212 90:0.21320072 94:0.42640144 195:0.21320072 217:0.21320072 219:0.21320072 241:0.21320072 250:0.42640144 #
-0.83569325344851463910345046315342 59:0.67082042 90:0.2236068 94:0.2236068 115:0.2236068 195:0.2236068 217:0.2236068 219:0.2236068 241:0.2236068 250:0.44721359 #
0.72094851341101306996250741576659 59:0.5 70:0.25 90:0.25 94:0.25 106:0.25 219:0.5 225:0.25 249:0.25 250:0.25 299:0.25 #
0.83569325344851463910345046315342 14:0.26726124 59:0.53452247 94:0.26726124 105:0.26726124 125:0.26726124 164:0.26726124 219:0.26726124 228:0.26726124 250:0.26726124 262:0.26726124 263:0.26726124 #
0.83569325344851463910345046315342 14:0.26726124 59:0.53452247 94:0.26726124 105:0.26726124 125:0.26726124 208:0.26726124 219:0.26726124 228:0.26726124 250:0.26726124 262:0.26726124 263:0.26726124 #
-0.83569325344851463910345046315342 1:-0.021413893 36:-0.28867513 59:-0.021413893 65:0.26726124 90:-0.28867513 115:-0.28867513 125:-0.021413893 144:0.26726124 146:0.26726124 172:-0.28867513 205:-0.28867513 213:0.53452247 219:-0.28867513 228:0.26726124 244:0.26726124 250:-0.28867513 268:0.26726124 301:-0.28867513 306:-0.021413893 #
-0.83569325344851463910345046315342 59:0.036286388 90:-0.21151133 94:0.012095463 107:0.23570226 195:0.012095463 213:-0.2236068 219:0.012095463 228:0.23570226 241:0.012095463 250:0.012095463 262:0.012095463 #
-0.83569325344851463910345046315342 61:0.23570226 63:-0.23570226 125:0.23570226 127:-0.23570226 193:0.23570226 195:-0.23570226 250:-0.23570226 252:0.23570226 #
-0.83569325344851463910345046315342 61:0.23570226 63:-0.23570226 125:0.23570226 127:-0.23570226 194:0.23570226 195:-0.23570226 250:-0.23570226 252:0.23570226 #
0.83569325344851463910345046315342 59:0.70710677 90:0.23570226 94:0.23570226 146:0.23570226 195:0.23570226 219:0.23570226 228:0.23570226 241:0.23570226 250:0.23570226 294:0.23570226 #
0.83569325344851463910345046315342 26:0.26726124 59:0.53452247 89:0.26726124 94:0.26726124 125:0.26726124 187:0.26726124 219:0.26726124 228:0.26726124 250:0.26726124 263:0.26726124 270:0.26726124 #
-0.83569325344851463910345046315342 14:0.25 59:0.5 94:0.25 105:0.25 125:0.25 219:0.25 220:0.25 228:0.25 250:0.5 263:0.25 #
-0.83569325344851463910345046315342 14:0.25 59:0.5 94:0.25 105:0.25 125:0.25 217:0.25 219:0.25 228:0.25 250:0.5 263:0.25 #
-0.83569325344851463910345046315342 14:0.25 59:0.5 84:0.25 94:0.25 125:0.25 217:0.25 219:0.25 228:0.25 250:0.5 263:0.25 #
-0.83569325344851463910345046315342 14:0.26726124 59:0.53452247 94:0.26726124 125:0.26726124 127:0.26726124 219:0.26726124 225:0.26726124 228:0.26726124 250:0.26726124 262:0.26726124 263:0.26726124 #
-0.83569325344851463910345046315342 59:0.11694388 65:-0.23570226 89:0.19611613 94:-0.079172254 105:-0.23570226 217:-0.23570226 219:0.11694388 249:-0.039586127 250:-0.039586127 252:-0.23570226 290:0.19611613 #
-0.83569325344851463910345046315342 57:0.21320072 59:-0.045003086 65:-0.23570226 90:0.21320072 94:-0.045003086 105:-0.23570226 217:-0.23570226 219:0.16819763 249:-0.022501543 250:-0.23570226 252:-0.022501543 290:0.21320072 #
-0.83569325344851463910345046315342 59:-0.23570226 68:0.23570226 94:-0.23570226 107:0.23570226 119:0.23570226 143:-0.23570226 175:-0.23570226 196:0.23570226 249:0.23570226 251:-0.23570226 295:0.23570226 310:-0.23570226 #
-0.25834375337221127111320129188243 58:0.21320072 59:-0.045003086 65:-0.23570226 89:0.21320072 94:-0.045003086 105:-0.23570226 217:-0.23570226 219:0.16819763 249:-0.022501543 250:-0.23570226 251:0.21320072 252:-0.23570226 290:0.21320072 #
0.83569325344851463910345046315342 2:0.26726124 59:0.53452247 94:0.26726124 101:0.26726124 125:0.26726124 219:0.26726124 224:0.26726124 228:0.26726124 250:0.26726124 262:0.26726124 263:0.26726124 #
-0.83569325344851463910345046315342 30:0.23570226 59:0.47140452 94:0.23570226 125:0.47140452 217:0.23570226 219:0.23570226 228:0.23570226 250:0.47140452 263:0.23570226 #
-0.83569325344851463910345046315342 14:0.23570226 59:0.47140452 94:0.23570226 125:0.47140452 217:0.23570226 219:0.23570226 228:0.23570226 250:0.47140452 263:0.23570226 #
-0.83569325344851463910345046315342 14:0.25 59:0.5 94:0.25 125:0.25 146:0.25 217:0.25 219:0.25 228:0.25 250:0.5 263:0.25 #
-0.83569325344851463910345046315342 59:-0.2582038 65:0.21320072 68:-0.022501543 94:-0.022501543 107:0.19069918 125:-0.23570226 213:-0.23570226 219:0.16819763 249:0.21320072 250:-0.045003086 261:-0.23570226 #
-0.83569325344851463910345046315342 59:-0.23570226 65:0.23570226 107:0.23570226 125:-0.23570226 261:-0.23570226 301:0.23570226 #
-0.83569325344851463910345046315342 126:0.23570226 128:-0.23570226 195:0.23570226 196:-0.23570226 #
-0.83569325344851463910345046315342 213:-0.23570226 228:0.23570226 242:-0.23570226 262:0.23570226 #
0.83569325344851463910345046315342 14:0.25 59:0.5 94:0.25 125:0.25 142:0.25 219:0.25 228:0.5 250:0.25 263:0.25 286:0.25 #
0.83569325344851463910345046315342 30:0.2236068 59:0.44721359 94:0.2236068 125:0.44721359 219:0.44721359 228:0.2236068 250:0.44721359 263:0.2236068 #
0.83569325344851463910345046315342 14:0.26726124 59:0.53452247 94:0.26726124 113:0.26726124 125:0.26726124 219:0.26726124 224:0.26726124 228:0.26726124 250:0.26726124 263:0.26726124 318:0.26726124 #
-0.83569325344851463910345046315342 14:0.23570226 59:0.47140452 94:0.23570226 125:0.47140452 219:0.23570226 220:0.23570226 228:0.23570226 250:0.47140452 263:0.23570226 #
-0.83569325344851463910345046315342 59:0.70710677 90:0.23570226 94:0.23570226 105:0.23570226 169:0.23570226 195:0.23570226 219:0.23570226 241:0.23570226 250:0.23570226 262:0.23570226 #
-0.18896483766596874898091584782378 14:-0.26726124 16:0.26726124 59:-0.26726124 60:0.26726124 125:-0.26726124 126:0.26726124 185:0.26726124 186:-0.26726124 250:-0.26726124 252:0.26726124 261:0.53452247 262:-0.26726124 263:-0.26726124 #
-0.83569325344851463910345046315342 59:-0.11973312 68:0.2236068 94:0.069249123 125:0.2236068 150:-0.18898223 199:0.2236068 219:-0.11973312 249:0.25823137 250:-0.37796447 266:0.2236068 #
-0.83569325344851463910345046315342 59:0.16515884 64:-0.2236068 94:-0.038965303 125:-0.2236068 150:0.20412415 194:-0.2236068 219:-0.038965303 220:0.20412415 249:-0.24308945 250:0.40824831 302:-0.2236068 #
-0.83569325344851463910345046315342 59:-0.095542185 65:0.23570226 94:0.093440048 125:0.23570226 150:-0.18898223 200:0.23570226 219:-0.095542185 249:0.046720024 250:-0.37796447 252:0.23570226 266:0.23570226 #
-0.83569325344851463910345046315342 59:-0.11973312 68:0.2236068 94:0.069249123 125:0.2236068 152:-0.18898223 199:0.2236068 219:-0.11973312 249:0.25823137 250:-0.37796447 266:0.2236068 #
0.83569325344851463910345046315342 14:0.26726124 59:0.53452247 94:0.26726124 106:0.26726124 125:0.26726124 219:0.26726124 224:0.26726124 228:0.26726124 250:0.26726124 262:0.26726124 263:0.26726124 #
-0.83569325344851463910345046315342 59:0.095542185 61:-0.23570226 94:-0.093440048 128:-0.23570226 151:0.18898223 196:-0.23570226 219:0.095542185 249:-0.046720024 250:0.37796447 252:-0.23570226 302:-0.23570226 #
-0.83569325344851463910345046315342 59:0.095542185 61:-0.23570226 94:-0.093440048 126:-0.23570226 151:0.18898223 196:-0.23570226 219:0.095542185 249:-0.046720024 250:0.37796447 252:-0.23570226 302:-0.23570226 #
-0.83569325344851463910345046315342 59:0.095542185 61:-0.23570226 94:-0.093440048 127:-0.23570226 151:0.18898223 196:-0.23570226 219:0.095542185 249:-0.046720024 250:0.37796447 252:-0.23570226 302:-0.23570226 #
-0.83569325344851463910345046315342 59:0.095542185 61:-0.23570226 94:-0.093440048 128:-0.23570226 149:0.18898223 196:-0.23570226 219:0.095542185 249:-0.046720024 250:0.37796447 252:-0.23570226 302:-0.23570226 #
-0.83569325344851463910345046315342 59:0.095542185 66:-0.23570226 94:-0.093440048 126:-0.23570226 151:0.18898223 200:-0.23570226 219:0.095542185 249:-0.046720024 250:0.37796447 251:-0.23570226 266:-0.23570226 #
-0.83569325344851463910345046315342 59:0.024190925 62:0.23570226 68:-0.2236068 94:0.024190925 108:-0.2236068 125:0.23570226 196:0.23570226 218:-0.2236068 219:0.024190925 249:-0.21151133 250:-0.2236068 251:0.23570226 302:0.23570226 #
-0.83569325344851463910345046315342 59:0.024190925 61:0.23570226 68:-0.2236068 94:0.024190925 108:-0.2236068 125:0.23570226 195:0.23570226 218:-0.2236068 219:0.024190925 249:-0.21151133 250:-0.2236068 252:0.23570226 302:0.23570226 #
-0.83569325344851463910345046315342 59:0.024190925 63:0.23570226 68:-0.2236068 94:0.024190925 108:-0.2236068 125:0.23570226 196:0.23570226 218:-0.2236068 219:0.024190925 249:-0.21151133 250:0.012095463 302:0.23570226 #
-0.83569325344851463910345046315342 59:0.063156232 61:0.23570226 68:-0.20412415 94:0.063156232 108:-0.20412415 125:0.23570226 196:0.23570226 219:-0.14096792 249:-0.17254603 250:-0.20412415 252:0.23570226 302:0.23570226 #
-0.83569325344851463910345046315342 14:0.25 59:0.5 94:0.25 108:0.25 125:0.25 218:0.25 219:0.25 228:0.25 250:0.5 263:0.25 #
-0.83569325344851463910345046315342 14:0.25 59:0.5 94:0.25 106:0.25 125:0.25 218:0.25 219:0.25 228:0.25 250:0.5 263:0.25 #
-0.83569325344851463910345046315342 14:0.25 59:0.5 94:0.25 125:0.25 148:0.25 218:0.25 219:0.25 228:0.25 250:0.5 263:0.25 #
-0.83569325344851463910345046315342 59:-0.031218244 90:-0.23401287 94:-0.010406082 127:0.21320072 195:-0.010406082 216:-0.2236068 219:0.20279464 241:-0.010406082 250:0.20279464 262:-0.2236068 #
-0.83569325344851463910345046315342 59:-0.13960215 68:0.25 90:0.036799282 94:0.036799282 107:0.25 125:-0.21320072 195:0.036799282 219:0.073598564 241:0.036799282 249:0.25 250:-0.17640144 #
-0.83569325344851463910345046315342 65:-0.23570226 68:0.23570226 125:-0.23570226 128:0.23570226 213:0.23570226 215:-0.23570226 217:-0.23570226 219:0.23570226 #
-0.83569325344851463910345046315342 107:0.23570226 125:-0.23570226 213:-0.23570226 228:0.23570226 262:0.23570226 302:-0.23570226 #
-0.83569325344851463910345046315342 59:-0.1708204 68:0.25 90:-0.19721359 94:0.026393203 107:0.25 195:0.026393203 213:-0.2236068 219:0.2763932 241:0.026393203 249:0.25 250:0.026393203 262:-0.2236068 #
-0.83569325344851463910345046315342 59:-0.23570226 70:0.23570226 107:0.23570226 125:-0.23570226 261:-0.23570226 301:0.23570226 #
-0.83569325344851463910345046315342 59:0.063156232 68:0.031578116 86:0.23570226 94:0.031578116 107:-0.17254603 170:0.23570226 219:-0.14096792 249:-0.20412415 250:0.063156232 301:0.23570226 #
-0.40302865651881952802071396035899 106:0.20412415 107:-0.20412415 #
-0.83569325344851463910345046315342 14:0.25 59:0.5 94:0.25 108:0.25 125:0.25 217:0.25 219:0.25 228:0.25 250:0.5 263:0.25 #
-0.83569325344851463910345046315342 53:0.017261242 59:0.034522485 90:0.017261242 125:-0.23273876 126:0.26726124 195:0.017261242 219:0.017261242 228:0.017261242 242:0.017261242 250:0.017261242 264:0.017261242 #
-0.83569325344851463910345046315342 57:-0.23570226 59:0.14096792 90:-0.23570226 94:-0.063156232 150:0.20412415 217:-0.23570226 219:-0.063156232 220:0.20412415 249:-0.031578116 250:0.40824831 252:-0.23570226 290:-0.23570226 #
-0.83569325344851463910345046315342 14:0.26726124 59:0.53452247 94:0.26726124 108:0.26726124 125:0.26726124 219:0.26726124 221:0.26726124 228:0.26726124 250:0.26726124 263:0.26726124 274:0.26726124 #
-0.83569325344851463910345046315342 59:0.031218244 89:-0.21320072 90:0.010406082 94:0.23401287 195:0.010406082 219:-0.20279464 228:0.2236068 241:0.010406082 250:-0.20279464 262:0.2236068 #
-0.83569325344851463910345046315342 59:0.067504629 89:-0.21320072 90:0.022501543 94:0.022501543 107:0.23570226 170:0.23570226 195:0.022501543 219:-0.19069918 241:0.022501543 250:-0.19069918 262:0.23570226 #
-0.83569325344851463910345046315342 95:-0.25 151:0.25 196:0.25 220:-0.25 247:0.25 251:-0.25 #
-0.83569325344851463910345046315342 90:-0.25 142:0.25 215:0.25 217:-0.25 243:-0.25 263:0.25 #
-0.83569325344851463910345046315342 59:-0.024190925 62:-0.23570226 64:0.2236068 94:-0.024190925 127:-0.23570226 128:0.2236068 194:-0.23570226 196:0.2236068 219:-0.024190925 249:0.21151133 251:-0.23570226 302:-0.012095463 #
-0.83569325344851463910345046315342 59:0.063156232 61:0.23570226 67:-0.20412415 94:0.063156232 106:-0.20412415 125:0.23570226 195:0.23570226 219:-0.14096792 249:0.031578116 250:-0.40824831 252:0.23570226 302:0.23570226 #
-0.83569325344851463910345046315342 58:-0.23401287 59:0.20279464 94:0.63960212 95:-0.44721359 107:-0.2236068 215:-0.2236068 218:-0.020812163 219:0.21320072 249:0.21320072 250:-0.23401287 251:0.21320072 303:-0.2236068 #
-0.83569325344851463910345046315342 59:0.11694388 61:-0.23570226 92:0.19611613 94:-0.079172254 128:-0.23570226 196:-0.23570226 219:0.11694388 249:-0.039586127 250:0.19611613 252:-0.23570226 290:0.19611613 302:-0.23570226 #
-0.83569325344851463910345046315342 58:-0.054981325 59:-0.027490662 95:0.14113481 107:-0.2236068 215:-0.2236068 218:-0.44721359 219:0.58834839 249:0.19611613 250:-0.25109747 251:0.19611613 303:-0.2236068 #
-0.83569325344851463910345046315342 59:0.16515884 60:-0.2236068 92:-0.2236068 94:-0.038965303 150:0.20412415 219:-0.038965303 220:-0.019482652 249:-0.24308945 250:0.40824831 290:-0.2236068 #
-0.32567995217740836055853037578345 59:0.23135386 68:-0.20412415 94:0.018153142 108:-0.20412415 125:0.21320072 172:0.21320072 219:-0.18597101 249:-0.19504757 250:0.0090765711 302:0.21320072 #
-0.83569325344851463910345046315342 59:0.16515884 60:-0.2236068 90:-0.2236068 94:-0.038965303 150:0.20412415 218:0.20412415 219:-0.038965303 220:-0.2236068 249:-0.24308945 250:0.40824831 290:-0.2236068 #
-0.83569325344851463910345046315342 59:0.16515884 64:-0.2236068 94:-0.038965303 128:-0.2236068 150:0.20412415 194:-0.2236068 218:0.20412415 219:-0.038965303 249:-0.24308945 250:0.40824831 302:-0.2236068 #
0.83569325344851463910345046315342 14:0.26726124 59:0.53452247 94:0.26726124 108:0.26726124 125:0.26726124 208:0.26726124 219:0.26726124 228:0.26726124 250:0.26726124 263:0.26726124 294:0.26726124 #
-0.83569325344851463910345046315342 59:-0.058925565 68:0.23570226 94:0.11785113 96:-0.17677669 107:0.23570226 215:0.23570226 219:-0.058925565 249:0.23570226 250:-0.29462782 302:0.23570226 #
-0.83569325344851463910345046315342 59:-0.058925565 68:0.23570226 94:0.11785113 107:0.23570226 136:-0.17677669 215:0.23570226 219:-0.058925565 249:0.23570226 250:-0.29462782 302:0.23570226 #
-0.83569325344851463910345046315342 59:0.093440048 67:-0.18898223 68:0.23570226 94:0.093440048 105:-0.18898223 107:0.23570226 215:0.23570226 219:-0.095542185 249:0.23570226 250:-0.33124444 302:0.23570226 #
-0.83569325344851463910345046315342 59:-0.058925565 68:0.23570226 94:0.11785113 107:0.23570226 135:-0.17677669 215:0.23570226 219:-0.058925565 249:0.23570226 250:-0.29462782 302:0.23570226 #
-0.83569325344851463910345046315342 59:-0.058925565 68:0.23570226 94:0.11785113 107:0.23570226 133:-0.17677669 215:0.23570226 219:-0.058925565 249:0.23570226 250:-0.29462782 302:0.23570226 #
-0.83569325344851463910345046315342 59:-0.067504629 90:-0.022501543 94:-0.022501543 106:0.21320072 107:-0.23570226 215:-0.022501543 219:0.19069918 220:-0.23570226 249:-0.23570226 250:0.19069918 301:0.21320072 302:-0.23570226 #
-0.83569325344851463910345046315342 58:-0.24308945 59:0.1846415 95:-0.038965303 105:0.20412415 107:-0.2236068 215:-0.2236068 218:-0.038965303 219:0.20412415 250:0.16515884 303:-0.2236068 #
-0.83569325344851463910345046315342 59:0.13960215 68:-0.25 90:-0.036799282 94:-0.036799282 107:-0.25 125:0.21320072 195:-0.036799282 219:-0.073598564 241:-0.036799282 249:-0.25 250:0.17640144 #
-0.83569325344851463910345046315342 1:0.28867513 16:-0.26726124 36:0.28867513 39:-0.26726124 57:-0.26726124 59:0.28867513 90:0.28867513 107:-0.53452247 115:0.28867513 125:0.28867513 146:-0.26726124 172:0.28867513 205:0.28867513 213:-0.26726124 219:0.021413893 228:-0.26726124 250:0.28867513 261:-0.26726124 268:-0.26726124 293:-0.26726124 301:0.28867513 306:0.28867513 #
-0.83569325344851463910345046315342 57:0.25 59:-0.25 65:0.25 67:-0.25 125:-0.25 126:-0.25 128:0.5 213:0.25 215:-0.25 217:-0.25 219:0.25 250:-0.25 252:0.25 301:-0.25 303:0.25 #
-0.83569325344851463910345046315342 57:-0.017261242 59:-0.017261242 65:0.25 66:-0.26726124 115:-0.017261242 125:-0.26726124 126:-0.26726124 128:0.5 213:-0.017261242 219:-0.034522485 250:-0.017261242 252:-0.017261242 302:-0.26726124 303:0.25 #
-0.83569325344851463910345046315342 59:-0.036286388 90:-0.012095463 94:0.21151133 144:-0.23570226 195:-0.012095463 213:-0.23570226 219:-0.012095463 228:0.2236068 241:-0.012095463 250:-0.012095463 262:0.2236068 302:-0.23570226 #
-0.83569325344851463910345046315342 59:0.11694388 62:-0.23570226 92:0.19611613 94:-0.079172254 126:-0.23570226 196:-0.23570226 219:0.11694388 249:-0.039586127 250:0.19611613 251:-0.23570226 290:0.19611613 302:-0.23570226 #
-0.59725961259607807107840926619247 59:-0.17640144 60:0.25 68:0.036799282 91:0.25 94:-0.17640144 107:0.25 127:-0.21320072 196:0.25 219:-0.13960215 243:0.25 249:0.28679928 251:-0.21320072 262:-0.21320072 #
-0.83569325344851463910345046315342 105:0.23570226 107:-0.23570226 213:-0.23570226 216:0.23570226 #
-0.83569325344851463910345046315342 59:0.036286388 90:-0.21151133 94:0.012095463 107:0.23570226 170:0.23570226 195:0.012095463 213:-0.2236068 219:0.012095463 241:0.012095463 250:0.012095463 262:0.012095463 #
-0.83569325344851463910345046315342 59:0.5547002 60:0.2773501 126:0.2773501 127:0.2773501 143:0.2773501 213:0.2773501 219:0.2773501 228:0.2773501 261:0.2773501 302:0.2773501 #
-0.83569325344851463910345046315342 59:-0.095542185 67:0.23570226 94:0.093440048 125:0.23570226 150:-0.18898223 200:0.23570226 219:-0.095542185 249:0.046720024 250:-0.14226221 266:0.23570226 #
-0.83569325344851463910345046315342 59:-0.11973312 64:0.2236068 94:0.069249123 125:0.2236068 150:-0.18898223 196:0.2236068 219:-0.11973312 249:0.25823137 250:-0.37796447 302:0.2236068 #
-0.83569325344851463910345046315342 35:-0.017261242 59:0.23273876 68:-0.26726124 90:0.5 107:-0.53452247 125:-0.26726124 146:0.25 169:-0.26726124 170:-0.26726124 188:0.25 213:0.25 216:0.25 219:-0.26726124 241:-0.26726124 242:-0.017261242 250:-0.26726124 301:0.25 302:0.25 #
-0.83569325344851463910345046315342 59:0.11694388 61:-0.23570226 89:0.19611613 94:-0.079172254 128:-0.23570226 196:-0.23570226 219:0.11694388 249:-0.039586127 250:0.19611613 252:-0.23570226 290:0.19611613 302:-0.23570226 #
-0.83569325344851463910345046315342 59:0.11694388 61:-0.23570226 91:0.19611613 94:-0.079172254 128:-0.23570226 196:-0.23570226 219:0.11694388 249:-0.039586127 250:0.19611613 252:-0.23570226 290:0.19611613 302:-0.23570226 #
-0.83569325344851463910345046315342 59:0.16515884 64:-0.2236068 94:-0.038965303 128:-0.2236068 150:0.20412415 193:-0.2236068 218:0.20412415 219:-0.038965303 249:-0.24308945 250:0.40824831 302:-0.2236068 #
-0.83569325344851463910345046315342 59:-0.24779773 68:0.21151133 94:-0.24779773 107:0.44721359 136:-0.23570226 212:0.2236068 219:-0.024190925 231:-0.23570226 249:0.21151133 251:-0.23570226 282:-0.23570226 307:0.2236068 #
-0.83569325344851463910345046315342 59:-0.23570226 68:0.23570226 94:-0.23570226 107:0.23570226 119:0.23570226 136:-0.23570226 196:0.23570226 231:-0.23570226 249:0.23570226 251:-0.23570226 282:-0.23570226 295:0.23570226 #
-0.83569325344851463910345046315342 59:-0.14054528 65:0.21320072 94:0.048436958 107:0.21320072 150:-0.18898223 219:0.072655439 249:0.024218479 250:-0.16476376 252:0.21320072 #
-0.83569325344851463910345046315342 59:-0.14054528 65:0.21320072 94:0.048436958 105:0.21320072 150:-0.18898223 219:0.072655439 249:0.024218479 250:-0.16476376 252:0.21320072 #
-0.69589705825929737414980991161428 13:0.28867513 59:0.28867513 60:0.28867513 94:0.28867513 107:0.28867513 126:0.28867513 219:0.28867513 221:0.28867513 228:0.28867513 252:0.28867513 264:0.28867513 273:0.28867513 #
-0.83569325344851463910345046315342 58:0.26726124 59:0.017261242 60:-0.25 68:0.017261242 94:0.017261242 95:-0.25 107:0.017261242 136:0.26726124 219:0.034522485 220:-0.25 223:0.26726124 249:-0.5 250:0.26726124 251:0.017261242 261:0.26726124 #
-0.83569325344851463910345046315342 58:0.21320072 59:-0.020812163 60:-0.2236068 90:-0.2236068 94:-0.020812163 149:0.21320072 219:0.19238855 220:-0.2236068 249:-0.23401287 250:0.21320072 251:0.21320072 290:-0.2236068 #
-0.83569325344851463910345046315342 57:-0.23570226 58:0.21320072 59:-0.045003086 90:-0.23570226 94:-0.045003086 149:0.21320072 217:-0.23570226 219:0.16819763 249:-0.022501543 250:0.21320072 251:0.21320072 252:-0.23570226 290:-0.23570226 #
-0.83569325344851463910345046315342 64:0.2236068 68:-0.2236068 108:-0.2236068 128:0.2236068 196:0.2236068 218:-0.2236068 250:-0.2236068 302:0.2236068 #
-0.83569325344851463910345046315342 59:-0.024190925 64:0.2236068 65:-0.23570226 94:-0.024190925 105:-0.23570226 128:0.2236068 196:0.2236068 217:-0.23570226 219:-0.024190925 249:0.21151133 250:-0.23570226 252:-0.23570226 302:0.2236068 #
-0.83569325344851463910345046315342 59:-0.017261242 60:0.25 67:-0.26726124 68:-0.017261242 94:-0.017261242 107:-0.017261242 118:-0.26726124 151:0.25 195:-0.26726124 196:0.25 219:-0.034522485 247:0.25 249:0.23273876 250:-0.26726124 295:-0.26726124 #
-0.83569325344851463910345046315342 58:0.052786406 59:-0.2236068 67:0.25 95:0.052786406 107:0.026393203 215:0.026393203 218:-0.44721359 219:0.25 220:0.25 249:0.25 250:-0.19721359 303:0.026393203 #
-0.83569325344851463910345046315342 107:0.23570226 125:-0.23570226 170:0.23570226 213:-0.23570226 262:0.23570226 302:-0.23570226 #
-0.83569325344851463910345046315342 59:-0.067504629 90:-0.022501543 94:-0.022501543 115:0.21320072 125:-0.23570226 195:-0.022501543 213:-0.23570226 219:0.19069918 241:-0.022501543 250:0.19069918 302:-0.23570226 #
-0.83569325344851463910345046315342 59:-0.036286388 90:0.21151133 94:-0.012095463 144:-0.23570226 170:0.2236068 195:-0.012095463 213:-0.23570226 219:-0.012095463 241:-0.23570226 242:0.2236068 250:-0.012095463 298:0.2236068 302:-0.23570226 #
-0.83569325344851463910345046315342 14:-0.017261242 59:-0.034522485 94:-0.017261242 125:-0.017261242 142:-0.26726124 144:0.25 219:-0.017261242 225:-0.26726124 228:0.23273876 250:-0.017261242 263:-0.017261242 266:-0.017261242 #
-0.83569325344851463910345046315342 59:0.063156232 62:0.23570226 67:-0.20412415 94:0.063156232 106:-0.20412415 125:0.23570226 196:0.23570226 219:-0.14096792 249:0.031578116 250:-0.40824831 251:0.23570226 302:0.23570226 #
-0.83569325344851463910345046315342 59:-0.22140452 60:0.25 68:0.01429774 94:-0.22140452 107:0.25 136:-0.23570226 151:0.25 196:0.25 219:0.028595479 231:-0.23570226 247:0.25 249:0.26429775 251:-0.23570226 282:-0.23570226 #
-0.83569325344851463910345046315342 59:0.036286388 90:-0.21151133 94:0.012095463 144:0.23570226 195:0.012095463 213:0.23570226 216:-0.2236068 219:0.012095463 241:0.012095463 250:0.012095463 262:-0.2236068 302:0.23570226 #
-0.83569325344851463910345046315342 35:0.25 59:-0.22140452 68:0.01429774 84:-0.23570226 94:0.01429774 107:0.01429774 125:0.25 170:-0.23570226 213:0.25 219:0.028595479 250:0.028595479 301:0.01429774 #
-0.83569325344851463910345046315342 59:0.12208179 66:-0.20412415 94:-0.054694898 95:0.17677669 107:-0.20412415 219:-0.082042351 250:0.12208179 251:-0.20412415 #
-0.83569325344851463910345046315342 59:0.12208179 66:-0.20412415 94:-0.054694898 106:0.17677669 107:-0.20412415 219:-0.082042351 250:0.12208179 251:-0.20412415 #
-0.83569325344851463910345046315342 58:-0.23570226 59:0.14096792 92:-0.23570226 94:-0.063156232 150:0.20412415 218:-0.23570226 219:-0.063156232 220:0.20412415 249:-0.031578116 250:0.40824831 251:-0.23570226 290:-0.23570226 #
-0.83569325344851463910345046315342 147:0.26726124 148:-0.26726124 213:-0.26726124 216:0.26726124 #
-0.83569325344851463910345046315342 59:-0.073598564 68:-0.036799282 94:0.17640144 107:-0.25 127:0.21320072 150:-0.25 195:-0.25 219:0.13960215 247:-0.25 249:-0.036799282 250:-0.25 251:0.21320072 262:0.21320072 #
-0.83569325344851463910345046315342 59:0.021401696 92:0.19611613 94:0.014267798 150:-0.18898223 219:0.021401696 249:0.0071338988 250:-0.18184833 290:0.19611613 #
-0.83569325344851463910345046315342 59:0.021401696 90:0.19611613 94:0.014267798 150:-0.18898223 219:0.021401696 249:0.0071338988 250:-0.18184833 290:0.19611613 #
-0.83569325344851463910345046315342 59:-0.15869842 68:0.20412415 94:0.030283818 108:0.20412415 150:-0.18898223 219:0.045425728 249:0.21926606 250:-0.17384033 #
-0.83569325344851463910345046315342 59:-0.15869842 68:0.20412415 94:0.030283818 106:0.20412415 150:-0.18898223 219:0.045425728 249:0.21926606 250:-0.17384033 #
-0.83569325344851463910345046315342 59:-0.17254603 68:0.031578116 70:0.23570226 94:-0.17254603 107:0.26728037 213:0.23570226 219:-0.14096792 249:-0.20412415 250:0.063156232 301:0.23570226 #
-0.83569325344851463910345046315342 59:0.063156232 67:0.23570226 68:-0.20412415 94:0.063156232 108:-0.20412415 127:0.23570226 200:0.23570226 219:-0.14096792 249:-0.17254603 250:0.031578116 266:0.23570226 #
-0.83569325344851463910345046315342 59:0.23135386 68:-0.20412415 94:0.018153142 108:-0.20412415 125:0.21320072 208:0.21320072 219:-0.18597101 249:-0.19504757 250:0.0090765711 262:0.21320072 #
-0.83569325344851463910345046315342 59:-0.024190925 68:-0.012095463 94:-0.012095463 107:0.21151133 144:-0.23570226 188:-0.23570226 213:0.2236068 219:-0.024190925 250:-0.024190925 301:-0.23570226 305:0.2236068 #
-0.83569325344851463910345046315342 59:0.20710678 68:-0.25 90:-0.01429774 94:-0.01429774 107:-0.01429774 195:-0.01429774 219:-0.26429775 228:0.23570226 241:-0.01429774 249:-0.25 250:-0.01429774 262:0.23570226 #
-0.83569325344851463910345046315342 186:-0.26726124 187:0.26726124 #
-0.83569325344851463910345046315342 58:-0.020812163 59:-0.2236068 67:0.21320072 95:-0.020812163 105:0.21320072 107:-0.2236068 215:-0.2236068 218:-0.44721359 219:0.63960212 249:0.21320072 250:-0.23401287 251:0.21320072 303:-0.2236068 #
-0.83569325344851463910345046315342 59:-0.067504629 90:-0.022501543 94:-0.022501543 115:0.21320072 125:-0.23570226 170:-0.23570226 195:-0.022501543 219:0.19069918 241:-0.022501543 250:0.19069918 262:-0.23570226 #
-0.83569325344851463910345046315342 59:-0.031218244 90:-0.23401287 94:-0.010406082 115:0.21320072 195:-0.010406082 213:-0.2236068 219:0.20279464 241:-0.010406082 250:0.20279464 262:-0.2236068 #
-0.83569325344851463910345046315342 59:-0.045003086 68:-0.022501543 94:-0.022501543 107:-0.022501543 115:0.21320072 125:-0.23570226 219:0.16819763 223:-0.23570226 249:0.21320072 250:-0.045003086 301:-0.23570226 #
-0.83569325344851463910345046315342 59:-0.2582038 65:0.21320072 68:-0.022501543 94:-0.022501543 107:0.19069918 125:-0.23570226 219:0.16819763 223:-0.23570226 249:0.21320072 250:-0.045003086 301:-0.23570226 #
-0.83569325344851463910345046315342 57:-0.26726124 59:0.20414329 66:-0.031558983 115:-0.031558983 125:0.20414329 126:-0.26726124 213:-0.26726124 216:0.23570226 219:-0.29882023 220:0.23570226 250:0.20414329 252:-0.26726124 302:-0.26726124 304:0.23570226 #
-0.83569325344851463910345046315342 59:0.022501543 65:-0.21320072 68:0.022501543 70:0.23570226 94:0.022501543 107:0.045003086 213:0.23570226 219:-0.16819763 249:-0.21320072 250:0.045003086 301:0.23570226 #
-0.83569325344851463910345046315342 227:0.23570226 228:-0.23570226 #
-0.83569325344851463910345046315342 59:0.16819763 65:-0.23570226 90:0.21320072 94:-0.045003086 107:-0.23570226 217:-0.23570226 218:0.21320072 219:-0.045003086 249:-0.022501543 250:-0.022501543 252:-0.23570226 290:0.21320072 #
-0.5124581763536957268456717429217 59:-0.17640144 60:0.25 68:0.036799282 94:-0.17640144 107:0.25 127:-0.21320072 151:0.25 196:0.25 219:-0.13960215 247:0.25 249:0.28679928 251:-0.21320072 262:-0.21320072 #
-0.83569325344851463910345046315342 62:0.23570226 63:-0.23570226 126:0.23570226 127:-0.23570226 194:-0.23570226 195:0.23570226 250:-0.23570226 251:0.23570226 #
-0.83569325344851463910345046315342 61:0.23570226 63:-0.23570226 194:-0.23570226 195:0.23570226 250:-0.23570226 252:0.23570226 #
-0.83569325344851463910345046315342 90:-0.25 126:0.25 169:0.25 217:-0.25 243:-0.25 303:0.25 #
-0.83569325344851463910345046315342 90:-0.2236068 94:0.2236068 216:-0.2236068 228:0.2236068 #
-0.83569325344851463910345046315342 59:0.14096792 61:-0.23570226 94:-0.063156232 128:-0.23570226 150:0.20412415 195:-0.23570226 218:0.20412415 219:-0.063156232 249:-0.031578116 250:0.40824831 252:-0.23570226 302:-0.23570226 #
-0.83569325344851463910345046315342 59:0.14096792 61:-0.23570226 94:-0.063156232 128:-0.23570226 150:0.20412415 196:-0.23570226 217:0.20412415 219:-0.063156232 249:-0.031578116 250:0.40824831 252:-0.23570226 302:-0.23570226 #
-0.83569325344851463910345046315342 61:-0.23570226 63:0.23570226 127:0.23570226 128:-0.23570226 250:0.23570226 252:-0.23570226 #
-0.83569325344851463910345046315342 59:0.16819763 61:-0.23570226 90:0.21320072 94:-0.045003086 125:-0.23570226 196:-0.23570226 218:0.21320072 219:-0.045003086 249:-0.022501543 250:0.21320072 252:-0.23570226 290:0.21320072 302:-0.23570226 #
-0.83569325344851463910345046315342 59:-0.095542185 61:0.23570226 94:0.093440048 125:0.23570226 152:-0.18898223 196:0.23570226 219:-0.095542185 249:0.046720024 250:-0.37796447 252:0.23570226 302:0.23570226 #
-0.83569325344851463910345046315342 59:0.063156232 61:0.23570226 67:-0.20412415 94:0.063156232 105:-0.20412415 125:0.23570226 196:0.23570226 219:-0.14096792 249:0.031578116 250:-0.40824831 252:0.23570226 302:0.23570226 #
-0.83569325344851463910345046315342 61:0.23570226 63:-0.23570226 125:0.23570226 127:-0.23570226 250:-0.23570226 252:0.23570226 #
-0.83569325344851463910345046315342 61:0.23570226 62:-0.23570226 125:0.23570226 127:-0.23570226 194:0.23570226 195:-0.23570226 251:-0.23570226 252:0.23570226 #
-0.83569325344851463910345046315342 59:-0.094734348 90:0.17254603 94:-0.031578116 125:-0.23570226 195:-0.031578116 213:-0.23570226 219:0.17254603 241:-0.031578116 250:0.17254603 302:-0.23570226 #
-0.83569325344851463910345046315342 59:-0.067504629 90:-0.022501543 94:-0.022501543 125:-0.23570226 144:0.21320072 195:-0.022501543 213:-0.23570226 219:0.19069918 241:-0.022501543 250:0.19069918 302:-0.23570226 #
-0.83569325344851463910345046315342 59:0.11694388 61:-0.23570226 92:0.19611613 94:-0.079172254 125:-0.23570226 196:-0.23570226 219:0.11694388 249:-0.039586127 250:0.19611613 252:-0.23570226 290:0.19611613 302:-0.23570226 #
-0.095475323369942757811834610492951 59:-0.052786406 68:-0.026393203 84:-0.25 94:-0.026393203 95:0.2236068 107:-0.026393203 176:-0.25 219:0.1708204 249:-0.026393203 250:-0.026393203 251:0.2236068 299:-0.25 #
-0.83569325344851463910345046315342 59:0.017261242 60:-0.25 67:0.26726124 68:0.017261242 94:0.017261242 95:-0.25 106:0.26726124 107:0.017261242 211:0.26726124 219:0.034522485 220:-0.25 249:-0.23273876 250:0.26726124 251:-0.25 307:0.26726124 #
-0.83569325344851463910345046315342 59:0.017261242 60:-0.25 67:0.26726124 68:0.017261242 91:-0.25 94:0.017261242 106:0.26726124 107:0.017261242 196:-0.25 211:0.26726124 219:0.034522485 243:-0.25 249:-0.23273876 250:0.26726124 307:0.26726124 #
-0.83569325344851463910345046315342 61:0.23570226 63:-0.23570226 125:-0.23570226 126:0.23570226 193:0.23570226 194:-0.23570226 250:-0.23570226 252:0.23570226 #
-0.83569325344851463910345046315342 4:-0.25 59:0.17640144 68:-0.036799282 83:-0.25 94:0.17640144 107:-0.25 108:0.21320072 216:-0.25 219:0.13960215 249:-0.28679928 250:0.21320072 251:0.21320072 307:-0.25 #
-0.83569325344851463910345046315342 108:0.21320072 127:-0.21320072 250:0.21320072 262:-0.21320072 #
-0.83569325344851463910345046315342 59:0.038965303 64:0.2236068 67:-0.20412415 94:0.038965303 105:-0.20412415 125:0.2236068 196:0.2236068 219:-0.16515884 249:0.24308945 250:-0.40824831 302:0.2236068 #
-0.83569325344851463910345046315342 59:-0.11973312 64:0.2236068 94:0.069249123 125:0.2236068 152:-0.18898223 196:0.2236068 219:-0.11973312 249:0.25823137 250:-0.37796447 302:0.2236068 #
-0.83569325344851463910345046315342 59:0.063156232 62:0.23570226 67:-0.20412415 94:0.063156232 105:-0.20412415 125:0.23570226 196:0.23570226 219:-0.14096792 249:0.031578116 250:-0.40824831 251:0.23570226 302:0.23570226 #
-0.83569325344851463910345046315342 59:0.70710677 89:0.23570226 90:0.23570226 94:0.23570226 195:0.23570226 213:0.23570226 219:0.23570226 241:0.23570226 250:0.23570226 302:0.23570226 #
-0.83569325344851463910345046315342 59:0.11973312 64:-0.2236068 94:-0.069249123 125:-0.2236068 149:0.18898223 196:-0.2236068 219:0.11973312 249:-0.25823137 250:0.37796447 302:-0.2236068 #
-0.83569325344851463910345046315342 59:0.11973312 64:-0.2236068 94:-0.069249123 125:-0.2236068 151:0.18898223 196:-0.2236068 219:0.11973312 249:-0.25823137 250:0.37796447 302:-0.2236068 #
-0.83569325344851463910345046315342 59:0.11973312 64:-0.2236068 94:-0.069249123 125:-0.2236068 151:0.18898223 195:-0.2236068 219:0.11973312 249:-0.25823137 250:0.37796447 302:-0.2236068 #
-0.83569325344851463910345046315342 91:-0.21320072 152:0.21320072 250:0.21320072 290:-0.21320072 #
