SVM-light Version V6.01
1 # kernel type
2 # kernel parameter -d 
1 # kernel parameter -g 
1 # kernel parameter -s 
1 # kernel parameter -r 
empty# kernel parameter -u 
319 # highest feature index 
7000 # number of training documents 
1865 # number of support vectors plus 1 
0.12170669 # threshold b, each following line is a SV (starting with alpha*y)
-0.33333333362478673178586063841067 67:0.5 105:0.5 217:0.5 250:0.5 #
0.3230687407351011675160634695203 59:0.57735026 84:0.57735026 170:0.57735026 #
-0.28423487617435150287548140113358 65:0.5 105:0.5 219:0.5 251:0.5 #
-0.33333333362478673178586063841067 59:0.5 82:0.5 170:0.5 262:0.5 #
-0.16001346000278551806594862227939 59:0.5 106:0.5 217:0.5 250:0.5 #
0.33333333362478673178586063841067 59:0.5 90:0.5 195:0.5 242:0.5 #
0.33333333362478673178586063841067 66:0.5 105:0.5 219:0.5 250:0.5 #
-0.12452341686122364583511057389842 46:0.5 83:0.5 186:0.5 286:0.5 #
-0.011834476129772420263663867956438 60:0.5 89:0.5 224:0.5 301:0.5 #
0.33333333362478673178586063841067 59:0.5 125:0.5 228:0.5 264:0.5 #
-0.33333333362478673178586063841067 59:0.5 90:0.5 195:0.5 242:0.5 #
-0.33333333362478673178586063841067 59:0.5 94:0.5 195:0.5 242:0.5 #
0.33333333362478673178586063841067 65:0.5 105:0.5 219:0.5 251:0.5 #
0.33333333362478673178586063841067 60:0.5 91:0.5 196:0.5 243:0.5 #
0.33333333362478673178586063841067 60:0.5 91:0.5 196:0.5 243:0.5 #
0.18094106459534003983335992415959 59:0.5 146:0.5 186:0.5 308:0.5 #
-0.33333333362478673178586063841067 66:0.5 107:0.5 219:0.5 250:0.5 #
0.33326085818774603408698453677061 28:0.5 119:0.5 223:0.5 266:0.5 #
0.33333333362478673178586063841067 59:0.5 90:0.5 195:0.5 243:0.5 #
0.078143974995730169919028185177012 3:0.57735026 105:0.57735026 195:0.57735026 #
-0.33333333362478673178586063841067 59:0.5 90:0.5 195:0.5 242:0.5 #
-0.014743653798770465362943937748241 60:0.5 89:0.5 196:0.5 243:0.5 #
-0.33333333362478673178586063841067 59:0.5 94:0.5 196:0.5 243:0.5 #
-0.33333333362478673178586063841067 59:0.5 90:0.5 195:0.5 243:0.5 #
0.33333333362478673178586063841067 58:0.5 146:0.5 219:0.5 302:0.5 #
0.33333333362478673178586063841067 58:0.5 96:0.5 219:0.5 249:0.5 #
0.33333333362478673178586063841067 59:0.5 90:0.5 195:0.5 243:0.5 #
-0.19796377428519637553527843465417 3:0.5 146:0.5 219:0.5 249:0.5 #
-0.33333333362478673178586063841067 70:0.5 96:0.5 219:0.5 249:0.5 #
-0.33333333362478673178586063841067 3:0.5 146:0.5 219:0.5 250:0.5 #
0.33333333362478673178586063841067 59:0.5 94:0.5 217:0.5 243:0.5 #
0.33333333362478673178586063841067 60:0.5 95:0.5 220:0.5 251:0.5 #
0.33333333362478673178586063841067 58:0.5 146:0.5 219:0.5 302:0.5 #
0.33333333362478673178586063841067 60:0.5 95:0.5 220:0.5 251:0.5 #
-0.33333333362478673178586063841067 59:0.5 90:0.5 195:0.5 243:0.5 #
-0.33333333362478673178586063841067 59:0.57735026 90:0.57735026 220:0.57735026 #
0.33333333362478673178586063841067 59:0.5 115:0.5 219:0.5 250:0.5 #
-0.023094684757611970427060299471123 16:0.5 82:0.5 228:0.5 262:0.5 #
-0.33333333362478673178586063841067 1:0.5 141:0.5 213:0.5 302:0.5 #
-0.27169727666278448152681335159286 1:0.5 143:0.5 213:0.5 302:0.5 #
-0.014173717629995105302120883550288 60:0.5 90:0.5 195:0.5 243:0.5 #
0.33333333362478673178586063841067 59:0.5 90:0.5 194:0.5 242:0.5 #
0.33333333362478673178586063841067 59:0.5 90:0.5 195:0.5 241:0.5 #
-0.33333333362478673178586063841067 59:0.5 90:0.5 195:0.5 243:0.5 #
0.33333333362478673178586063841067 59:0.5 90:0.5 195:0.5 241:0.5 #
-0.17166712059147887226018269757333 47:0.5 84:0.5 187:0.5 287:0.5 #
-0.33333333362478673178586063841067 58:0.5 95:0.5 219:0.5 250:0.5 #
0.33333333362478673178586063841067 1:0.5 144:0.5 213:0.5 302:0.5 #
0.33333333362478673178586063841067 14:0.5 148:0.5 213:0.5 302:0.5 #
0.33333333362478673178586063841067 1:0.5 144:0.5 213:0.5 244:0.5 #
-0.33333333362478673178586063841067 59:0.5 90:0.5 224:0.5 241:0.5 #
-0.33333333362478673178586063841067 59:0.5 90:0.5 223:0.5 241:0.5 #
-0.33333333362478673178586063841067 59:0.5 90:0.5 222:0.5 241:0.5 #
0.33333333362478673178586063841067 3:0.5 94:0.5 219:0.5 249:0.5 #
0.33333333362478673178586063841067 58:0.5 94:0.5 219:0.5 249:0.5 #
-0.33333333362478673178586063841067 58:0.5 95:0.5 219:0.5 250:0.5 #
-0.33333333362478673178586063841067 71:0.5 94:0.5 219:0.5 249:0.5 #
-0.33333333362478673178586063841067 59:0.5 94:0.5 219:0.5 249:0.5 #
0.33333333362478673178586063841067 59:0.5 90:0.5 161:0.5 243:0.5 #
0.33333333362478673178586063841067 59:0.5 90:0.5 207:0.5 243:0.5 #
0.33333333362478673178586063841067 59:0.5 90:0.5 227:0.5 243:0.5 #
0.33333333362478673178586063841067 58:0.5 94:0.5 219:0.5 249:0.5 #
0.33333333362478673178586063841067 66:0.5 105:0.5 219:0.5 250:0.5 #
-0.33333333362478673178586063841067 1:0.5 144:0.5 215:0.5 302:0.5 #
-0.1752125529936285897036896130885 1:0.5 144:0.5 214:0.5 302:0.5 #
-0.33333333362478673178586063841067 1:0.5 144:0.5 216:0.5 302:0.5 #
0.33333333362478673178586063841067 59:0.5 95:0.5 219:0.5 249:0.5 #
0.33333333362478673178586063841067 59:0.5 95:0.5 219:0.5 252:0.5 #
-0.33333333362478673178586063841067 59:0.5 94:0.5 219:0.5 249:0.5 #
-0.33333333362478673178586063841067 66:0.5 107:0.5 219:0.5 249:0.5 #
-0.01595998453198594138613408688343 58:0.5 107:0.5 215:0.5 301:0.5 #
0.33333333362478673178586063841067 62:0.5 127:0.5 193:0.5 302:0.5 #
0.33333333362478673178586063841067 61:0.5 127:0.5 193:0.5 302:0.5 #
0.049347049326382209921693089427208 4:0.5 107:0.5 188:0.5 265:0.5 #
0.33333333362478673178586063841067 59:0.5 107:0.5 219:0.5 249:0.5 #
0.33333333362478673178586063841067 13:0.5 107:0.5 219:0.5 249:0.5 #
0.33333333362478673178586063841067 68:0.5 107:0.5 219:0.5 249:0.5 #
-0.33333333362478673178586063841067 66:0.5 107:0.5 219:0.5 249:0.5 #
0.33333333362478673178586063841067 59:0.5 95:0.5 219:0.5 249:0.5 #
-0.33333333362478673178586063841067 14:0.5 107:0.5 219:0.5 249:0.5 #
-0.0018813472894195859639460133294619 60:0.5 113:0.5 175:0.5 303:0.5 #
0.33333333362478673178586063841067 59:0.5 94:0.5 220:0.5 251:0.5 #
0.33333333362478673178586063841067 59:0.5 90:0.5 195:0.5 251:0.5 #
0.32233190803069483587606214314292 59:0.5 146:0.5 228:0.5 268:0.5 #
-0.09060090355897851277511279022292 59:0.5 95:0.5 193:0.5 244:0.5 #
-0.33333333362478673178586063841067 59:0.5 95:0.5 195:0.5 244:0.5 #
-0.056207769479687724745176069518493 59:0.5 92:0.5 224:0.5 244:0.5 #
0.33333333362478673178586063841067 65:0.5 107:0.5 219:0.5 249:0.5 #
0.33333333362478673178586063841067 71:0.5 107:0.5 219:0.5 268:0.5 #
-0.33333333362478673178586063841067 66:0.5 107:0.5 219:0.5 249:0.5 #
-0.099470250993763109637058050793712 13:0.5 107:0.5 219:0.5 252:0.5 #
-0.33333333362478673178586063841067 46:0.5 107:0.5 219:0.5 249:0.5 #
-0.33333333362478673178586063841067 54:0.5 107:0.5 219:0.5 249:0.5 #
0.33333333362478673178586063841067 58:0.5 95:0.5 218:0.5 250:0.5 #
0.33333333362478673178586063841067 59:0.5 95:0.5 220:0.5 251:0.5 #
0.33333333362478673178586063841067 59:0.57735026 95:0.57735026 217:0.57735026 #
-0.060607941351628231985149142246883 60:0.5 90:0.5 194:0.5 242:0.5 #
-0.33333333362478673178586063841067 59:0.5 125:0.5 218:0.5 250:0.5 #
-0.11292297053911393156511167035205 59:0.5 107:0.5 172:0.5 261:0.5 #
0.33333333362478673178586063841067 68:0.5 107:0.5 219:0.5 252:0.5 #
-0.33333333362478673178586063841067 59:0.5 115:0.5 176:0.5 304:0.5 #
-0.33333333362478673178586063841067 68:0.5 126:0.5 219:0.5 250:0.5 #
-0.33333333362478673178586063841067 68:0.5 101:0.5 228:0.5 268:0.5 #
0.33333333362478673178586063841067 59:0.5 89:0.5 215:0.5 302:0.5 #
0.33333333362478673178586063841067 59:0.5 141:0.5 214:0.5 263:0.5 #
0.33333333362478673178586063841067 68:0.5 107:0.5 219:0.5 249:0.5 #
-0.33333333362478673178586063841067 59:0.5 94:0.5 207:0.5 263:0.5 #
-0.11344171745681365381930305602509 68:0.5 108:0.5 217:0.5 250:0.5 #
0.33333333362478673178586063841067 1:0.5 101:0.5 219:0.5 250:0.5 #
0.33333333362478673178586063841067 46:0.5 107:0.5 217:0.5 250:0.5 #
0.33333333362478673178586063841067 59:0.5 94:0.5 220:0.5 251:0.5 #
0.33333333362478673178586063841067 59:0.5 141:0.5 214:0.5 263:0.5 #
-0.33333333362478673178586063841067 68:0.5 107:0.5 218:0.5 250:0.5 #
-0.33333333362478673178586063841067 65:0.5 107:0.5 218:0.5 250:0.5 #
0.33333333362478673178586063841067 59:0.5 94:0.5 195:0.5 263:0.5 #
0.33333333362478673178586063841067 59:0.57735026 94:0.57735026 218:0.57735026 #
-0.14274692479869693917393647097924 68:0.5 125:0.5 217:0.5 249:0.5 #
-0.33333333362478673178586063841067 59:0.5 94:0.5 219:0.5 252:0.5 #
0.33333333362478673178586063841067 67:0.5 107:0.5 218:0.5 250:0.5 #
0.33333333362478673178586063841067 14:0.5 126:0.5 222:0.5 298:0.5 #
-0.2112986510003211915176279944717 58:0.5 107:0.5 219:0.5 249:0.5 #
0.33333333362478673178586063841067 59:0.57735026 94:0.57735026 218:0.57735026 #
-0.33333333362478673178586063841067 67:0.5 107:0.5 220:0.5 250:0.5 #
-0.33333333362478673178586063841067 67:0.5 107:0.5 217:0.5 250:0.5 #
0.33333333362478673178586063841067 59:0.5 94:0.5 227:0.5 315:0.5 #
0.33333333362478673178586063841067 59:0.5 104:0.5 227:0.5 263:0.5 #
0.33333333362478673178586063841067 59:0.5 84:0.5 227:0.5 263:0.5 #
-0.2125908165905840696563444680578 59:0.5 90:0.5 223:0.5 244:0.5 #
0.31335419789193497130952437146334 35:0.5 90:0.5 216:0.5 302:0.5 #
0.33333333362478673178586063841067 67:0.5 107:0.5 220:0.5 250:0.5 #
0.33333333362478673178586063841067 67:0.5 107:0.5 217:0.5 250:0.5 #
-0.33333333362478673178586063841067 67:0.5 107:0.5 218:0.5 250:0.5 #
0.33333333362478673178586063841067 58:0.5 96:0.5 219:0.5 249:0.5 #
0.33333333362478673178586063841067 59:0.5 143:0.5 228:0.5 302:0.5 #
-0.33333333362478673178586063841067 59:0.5 94:0.5 219:0.5 252:0.5 #
0.33333333362478673178586063841067 67:0.5 107:0.5 218:0.5 250:0.5 #
-0.33333333362478673178586063841067 59:0.5 84:0.5 171:0.5 263:0.5 #
-0.33333333362478673178586063841067 59:0.5 84:0.5 170:0.5 263:0.5 #
0.29436141701281753890739878443128 16:0.5 107:0.5 204:0.5 265:0.5 #
0.33333333362478673178586063841067 59:0.5 95:0.5 218:0.5 250:0.5 #
0.33333333362478673178586063841067 59:0.5 150:0.5 224:0.5 250:0.5 #
-0.33333333362478673178586063841067 59:0.5 150:0.5 218:0.5 250:0.5 #
-0.33333333362478673178586063841067 67:0.5 107:0.5 218:0.5 250:0.5 #
0.33333333362478673178586063841067 59:0.5 94:0.5 219:0.5 252:0.5 #
-0.33333333362478673178586063841067 59:0.5 94:0.5 219:0.5 252:0.5 #
-0.33333333362478673178586063841067 59:0.5 94:0.5 219:0.5 250:0.5 #
-0.33333333362478673178586063841067 59:0.5 94:0.5 217:0.5 250:0.5 #
0.33333333362478673178586063841067 65:0.5 125:0.5 170:0.5 241:0.5 #
-0.089670045183945890077126250616857 59:0.5 125:0.5 226:0.5 263:0.5 #
0.33333333362478673178586063841067 59:0.5 94:0.5 219:0.5 252:0.5 #
-0.33333333362478673178586063841067 57:0.57735026 125:0.57735026 213:0.57735026 #
0.22236559968876501436341186490608 59:0.5 146:0.5 185:0.5 295:0.5 #
-0.33333333362478673178586063841067 14:0.5 145:0.5 213:0.5 302:0.5 #
0.33333333362478673178586063841067 59:0.5 94:0.5 219:0.5 249:0.5 #
0.33333333362478673178586063841067 67:0.5 107:0.5 220:0.5 250:0.5 #
-0.33333333362478673178586063841067 59:0.57735026 126:0.57735026 219:0.57735026 #
-0.33333333362478673178586063841067 59:0.5 92:0.5 219:0.5 290:0.5 #
-0.33333333362478673178586063841067 59:0.5 94:0.5 219:0.5 250:0.5 #
0.33333333362478673178586063841067 58:0.5 93:0.5 217:0.5 250:0.5 #
0.33333333362478673178586063841067 68:0.5 107:0.5 217:0.5 250:0.5 #
0.14825959209987371600902861246141 70:0.5 107:0.5 213:0.5 301:0.5 #
-0.33333333362478673178586063841067 67:0.5 107:0.5 220:0.5 250:0.5 #
-0.33333333362478673178586063841067 67:0.5 107:0.5 218:0.5 250:0.5 #
0.33333333362478673178586063841067 59:0.5 94:0.5 219:0.5 252:0.5 #
0.33333333362478673178586063841067 59:0.5 94:0.5 219:0.5 249:0.5 #
-0.040953444070242407681892160553616 13:0.5 107:0.5 217:0.5 250:0.5 #
-0.33333333362478673178586063841067 53:0.5 107:0.5 217:0.5 250:0.5 #
-0.0064734117111360746019133038942073 68:0.5 101:0.5 227:0.5 267:0.5 #
0.33333333362478673178586063841067 59:0.5 92:0.5 219:0.5 290:0.5 #
0.33333333362478673178586063841067 59:0.5 92:0.5 219:0.5 251:0.5 #
-0.33333333362478673178586063841067 59:0.5 94:0.5 219:0.5 251:0.5 #
0.33333333362478673178586063841067 67:0.5 107:0.5 217:0.5 250:0.5 #
0.33333333362478673178586063841067 35:0.5 107:0.5 220:0.5 250:0.5 #
-0.33333333362478673178586063841067 59:0.5 92:0.5 170:0.5 298:0.5 #
-0.12209262048504695985506884881033 58:0.5 96:0.5 196:0.5 243:0.5 #
-0.33333333362478673178586063841067 59:0.5 106:0.5 219:0.5 249:0.5 #
0.33333333362478673178586063841067 59:0.5 94:0.5 220:0.5 250:0.5 #
0.33333333362478673178586063841067 59:0.5 94:0.5 218:0.5 250:0.5 #
-0.13328678947306937807582016830565 35:0.5 94:0.5 220:0.5 250:0.5 #
-0.33333333362478673178586063841067 59:0.5 94:0.5 220:0.5 250:0.5 #
0.33333333362478673178586063841067 59:0.5 126:0.5 170:0.5 244:0.5 #
0.33333333362478673178586063841067 59:0.5 126:0.5 170:0.5 243:0.5 #
0.33333333362478673178586063841067 54:0.5 92:0.5 162:0.5 249:0.5 #
-0.33333333362478673178586063841067 59:0.5 107:0.5 170:0.5 264:0.5 #
-0.33333333362478673178586063841067 59:0.5 95:0.5 219:0.5 249:0.5 #
0.33333333362478673178586063841067 67:0.5 105:0.5 220:0.5 250:0.5 #
0.33333333362478673178586063841067 67:0.5 106:0.5 220:0.5 250:0.5 #
0.33333333362478673178586063841067 59:0.5 94:0.5 217:0.5 250:0.5 #
-0.33333333362478673178586063841067 59:0.5 94:0.5 220:0.5 250:0.5 #
-0.33333333362478673178586063841067 67:0.5 106:0.5 217:0.5 250:0.5 #
-0.33333333362478673178586063841067 59:0.5 94:0.5 217:0.5 250:0.5 #
0.33333333362478673178586063841067 59:0.5 95:0.5 219:0.5 251:0.5 #
0.32653519411809733830054369718709 59:0.57735026 95:0.57735026 219:0.57735026 #
-0.33333333362478673178586063841067 59:0.5 95:0.5 219:0.5 249:0.5 #
0.33333333362478673178586063841067 59:0.5 94:0.5 220:0.5 250:0.5 #
-0.26310832405739642547715106957185 59:0.5 95:0.5 219:0.5 251:0.5 #
0.33333333362478673178586063841067 14:0.5 107:0.5 216:0.5 298:0.5 #
0.33333333362478673178586063841067 58:0.5 136:0.5 223:0.5 261:0.5 #
0.33333333362478673178586063841067 59:0.5 95:0.5 219:0.5 251:0.5 #
0.33333333362478673178586063841067 59:0.5 92:0.5 219:0.5 251:0.5 #
0.33333333362478673178586063841067 56:0.5 81:0.5 219:0.5 250:0.5 #
-0.33333333362478673178586063841067 67:0.5 105:0.5 220:0.5 250:0.5 #
-0.33333333362478673178586063841067 14:0.5 147:0.5 213:0.5 301:0.5 #
0.33333333362478673178586063841067 59:0.5 125:0.5 219:0.5 249:0.5 #
0.33333333362478673178586063841067 59:0.5 93:0.5 219:0.5 249:0.5 #
0.33333333362478673178586063841067 59:0.5 115:0.5 219:0.5 249:0.5 #
-0.33333333362478673178586063841067 59:0.5 94:0.5 219:0.5 251:0.5 #
-0.33333333362478673178586063841067 59:0.5 93:0.5 219:0.5 251:0.5 #
0.33333333362478673178586063841067 70:0.5 125:0.5 213:0.5 301:0.5 #
0.33333333362478673178586063841067 67:0.5 106:0.5 217:0.5 250:0.5 #
-0.33333333362478673178586063841067 67:0.5 106:0.5 220:0.5 250:0.5 #
-0.33333333362478673178586063841067 67:0.5 106:0.5 219:0.5 250:0.5 #
0.33333333362478673178586063841067 59:0.5 89:0.5 219:0.5 251:0.5 #
0.33333333362478673178586063841067 59:0.5 94:0.5 219:0.5 251:0.5 #
0.33333333362478673178586063841067 67:0.5 106:0.5 217:0.5 250:0.5 #
-0.33333333362478673178586063841067 59:0.57735026 89:0.57735026 219:0.57735026 #
0.33333333362478673178586063841067 14:0.5 106:0.5 219:0.5 250:0.5 #
0.33333333362478673178586063841067 13:0.5 106:0.5 219:0.5 250:0.5 #
0.33333333362478673178586063841067 59:0.5 125:0.5 216:0.5 302:0.5 #
-0.33333333362478673178586063841067 59:0.5 94:0.5 219:0.5 251:0.5 #
-0.14134691513725020084457639768516 13:0.5 144:0.5 214:0.5 266:0.5 #
0.33333333362478673178586063841067 59:0.5 146:0.5 213:0.5 302:0.5 #
0.33333333362478673178586063841067 1:0.5 84:0.5 213:0.5 264:0.5 #
0.33333333362478673178586063841067 59:0.5 89:0.5 218:0.5 243:0.5 #
0.33333333362478673178586063841067 59:0.5 144:0.5 173:0.5 302:0.5 #
0.23324644612344727634400953775184 59:0.5 126:0.5 219:0.5 306:0.5 #
-0.33333333362478673178586063841067 59:0.5 107:0.5 213:0.5 243:0.5 #
0.33333333362478673178586063841067 59:0.5 93:0.5 219:0.5 251:0.5 #
0.11437579807481972060667629875752 52:0.5 139:0.5 212:0.5 255:0.5 #
-0.1039210442561220443247194111791 59:0.5 107:0.5 172:0.5 264:0.5 #
0.33333333362478673178586063841067 59:0.5 94:0.5 217:0.5 249:0.5 #
0.33333333362478673178586063841067 57:0.5 94:0.5 219:0.5 249:0.5 #
0.33333333362478673178586063841067 57:0.5 96:0.5 219:0.5 249:0.5 #
0.33333333362478673178586063841067 59:0.5 94:0.5 219:0.5 251:0.5 #
0.120197123790696192013882637184 71:0.5 107:0.5 219:0.5 268:0.5 #
-0.015723606194269688224318670677349 59:0.5 106:0.5 217:0.5 250:0.5 #
-0.33333333362478673178586063841067 56:0.5 125:0.5 219:0.5 249:0.5 #
0.33333333362478673178586063841067 59:0.5 94:0.5 218:0.5 251:0.5 #
0.33333333362478673178586063841067 59:0.5 93:0.5 218:0.5 251:0.5 #
-0.0091280284926105268589191510386627 63:0.5 144:0.5 214:0.5 242:0.5 #
-0.33333333362478673178586063841067 59:0.5 94:0.5 217:0.5 251:0.5 #
-0.33333333362478673178586063841067 59:0.5 94:0.5 228:0.5 261:0.5 #
0.33333333362478673178586063841067 69:0.5 84:0.5 219:0.5 249:0.5 #
0.33333333362478673178586063841067 63:0.5 118:0.5 219:0.5 249:0.5 #
0.33333333362478673178586063841067 53:0.5 125:0.5 219:0.5 250:0.5 #
-0.33333333362478673178586063841067 63:0.5 82:0.5 219:0.5 250:0.5 #
-0.33333333362478673178586063841067 53:0.5 106:0.5 219:0.5 250:0.5 #
-0.33333333362478673178586063841067 69:0.5 95:0.5 219:0.5 250:0.5 #
0.33333333362478673178586063841067 59:0.5 94:0.5 217:0.5 251:0.5 #
-0.019435737345634935407945320662293 13:0.5 142:0.5 227:0.5 287:0.5 #
0.33333333362478673178586063841067 67:0.5 107:0.5 220:0.5 250:0.5 #
-0.33333333362478673178586063841067 59:0.5 96:0.5 219:0.5 251:0.5 #
-0.33333333362478673178586063841067 59:0.5 84:0.5 219:0.5 251:0.5 #
-0.33333333362478673178586063841067 59:0.5 150:0.5 219:0.5 249:0.5 #
0.33333333362478673178586063841067 59:0.5 115:0.5 228:0.5 250:0.5 #
0.33333333362478673178586063841067 59:0.5 107:0.5 228:0.5 261:0.5 #
-0.33333333362478673178586063841067 67:0.5 106:0.5 217:0.5 250:0.5 #
0.33333333362478673178586063841067 59:0.5 89:0.5 219:0.5 251:0.5 #
0.33333333362478673178586063841067 59:0.5 93:0.5 219:0.5 251:0.5 #
0.33333333362478673178586063841067 59:0.5 125:0.5 224:0.5 262:0.5 #
-0.33333333362478673178586063841067 14:0.5 107:0.5 217:0.5 250:0.5 #
-0.33333333362478673178586063841067 67:0.5 105:0.5 217:0.5 250:0.5 #
0.33333333362478673178586063841067 59:0.5 96:0.5 219:0.5 251:0.5 #
0.33333333362478673178586063841067 59:0.5 91:0.5 219:0.5 251:0.5 #
-0.23182146228738462201413028651587 59:0.5 92:0.5 216:0.5 302:0.5 #
0.03433797542496536125966599684034 1:0.5 107:0.5 213:0.5 244:0.5 #
0.33333333362478673178586063841067 72:0.5 106:0.5 219:0.5 250:0.5 #
0.33333333362478673178586063841067 65:0.5 107:0.5 217:0.5 252:0.5 #
0.33333333362478673178586063841067 67:0.5 150:0.5 215:0.5 295:0.5 #
-0.33333333362478673178586063841067 67:0.5 106:0.5 219:0.5 250:0.5 #
-0.33333333362478673178586063841067 59:0.5 106:0.5 228:0.5 261:0.5 #
-0.33333333362478673178586063841067 59:0.5 115:0.5 228:0.5 250:0.5 #
-0.33333333362478673178586063841067 59:0.5 125:0.5 228:0.5 261:0.5 #
0.33333333362478673178586063841067 59:0.5 90:0.5 219:0.5 251:0.5 #
-0.29545946621962443368047956937517 60:0.5 90:0.5 170:0.5 298:0.5 #
0.33333333362478673178586063841067 59:0.5 94:0.5 217:0.5 250:0.5 #
0.33333333362478673178586063841067 59:0.5 150:0.5 224:0.5 250:0.5 #
-0.33333333362478673178586063841067 59:0.5 90:0.5 219:0.5 252:0.5 #
-0.33333333362478673178586063841067 59:0.5 90:0.5 219:0.5 251:0.5 #
0.33333333362478673178586063841067 59:0.5 82:0.5 184:0.5 250:0.5 #
0.33333333362478673178586063841067 59:0.5 96:0.5 217:0.5 250:0.5 #
0.33333333362478673178586063841067 59:0.5 90:0.5 219:0.5 251:0.5 #
0.33333333362478673178586063841067 59:0.5 91:0.5 219:0.5 251:0.5 #
-0.33333333362478673178586063841067 59:0.5 94:0.5 217:0.5 250:0.5 #
-0.33333333362478673178586063841067 48:0.5 146:0.5 188:0.5 308:0.5 #
-0.17981147696790394929777789911896 59:0.5 82:0.5 217:0.5 250:0.5 #
0.23075377849956246745222188110347 59:0.5 146:0.5 188:0.5 308:0.5 #
0.33333333362478673178586063841067 67:0.5 107:0.5 219:0.5 251:0.5 #
-0.33333333362478673178586063841067 59:0.5 90:0.5 219:0.5 251:0.5 #
-0.33333333362478673178586063841067 67:0.5 107:0.5 219:0.5 251:0.5 #
-0.33333333362478673178586063841067 68:0.5 107:0.5 219:0.5 251:0.5 #
0.33333333362478673178586063841067 59:0.5 94:0.5 217:0.5 252:0.5 #
0.33333333362478673178586063841067 59:0.57735026 94:0.57735026 217:0.57735026 #
-0.00336404796959323664634622375047 48:0.5 83:0.5 186:0.5 286:0.5 #
0.33333333362478673178586063841067 68:0.5 107:0.5 219:0.5 251:0.5 #
0.33333333362478673178586063841067 14:0.5 115:0.5 219:0.5 250:0.5 #
0.33333333362478673178586063841067 59:0.5 94:0.5 217:0.5 251:0.5 #
-0.33333333362478673178586063841067 59:0.5 91:0.5 195:0.5 241:0.5 #
-0.06772106795057272754512212031841 58:0.5 115:0.5 219:0.5 243:0.5 #
-0.22502062152108301407160695362109 66:0.5 104:0.5 228:0.5 268:0.5 #
0.33333333362478673178586063841067 67:0.5 107:0.5 217:0.5 251:0.5 #
0.33333333362478673178586063841067 28:0.5 95:0.5 228:0.5 303:0.5 #
0.33333333362478673178586063841067 59:0.5 95:0.5 220:0.5 252:0.5 #
-0.33333333362478673178586063841067 59:0.5 94:0.5 217:0.5 251:0.5 #
-0.026227129444825050125222887231757 46:0.5 125:0.5 219:0.5 249:0.5 #
-0.33333333362478673178586063841067 59:0.5 94:0.5 227:0.5 262:0.5 #
-0.00030589865558223593589720623597827 59:0.5 115:0.5 228:0.5 249:0.5 #
0.33333333362478673178586063841067 35:0.5 91:0.5 219:0.5 250:0.5 #
0.33333333362478673178586063841067 63:0.5 82:0.5 219:0.5 250:0.5 #
0.33333333362478673178586063841067 54:0.5 91:0.5 191:0.5 242:0.5 #
-0.33333333362478673178586063841067 59:0.5 95:0.5 219:0.5 250:0.5 #
-0.065364634217573033825310346855986 13:0.5 107:0.5 221:0.5 273:0.5 #
-0.030578037289963007350213075596912 47:0.5 82:0.5 186:0.5 286:0.5 #
0.33333333362478673178586063841067 67:0.5 106:0.5 219:0.5 250:0.5 #
-0.33333333362478673178586063841067 59:0.5 107:0.5 216:0.5 302:0.5 #
-0.33333333362478673178586063841067 59:0.5 93:0.5 193:0.5 242:0.5 #
-0.33333333362478673178586063841067 59:0.5 113:0.5 173:0.5 302:0.5 #
0.33333333362478673178586063841067 60:0.5 95:0.5 219:0.5 250:0.5 #
0.33333333362478673178586063841067 2:0.5 147:0.5 224:0.5 298:0.5 #
-0.33333333362478673178586063841067 59:0.5 95:0.5 219:0.5 250:0.5 #
0.33333333362478673178586063841067 59:0.5 89:0.5 218:0.5 243:0.5 #
0.33333333362478673178586063841067 59:0.5 94:0.5 218:0.5 251:0.5 #
-0.33333333362478673178586063841067 2:0.5 148:0.5 219:0.5 250:0.5 #
-0.33333333362478673178586063841067 2:0.5 147:0.5 219:0.5 250:0.5 #
-0.33333333362478673178586063841067 13:0.5 106:0.5 219:0.5 250:0.5 #
0.33333333362478673178586063841067 59:0.5 84:0.5 216:0.5 302:0.5 #
0.33333333362478673178586063841067 59:0.5 125:0.5 216:0.5 302:0.5 #
-0.33333333362478673178586063841067 59:0.5 94:0.5 218:0.5 249:0.5 #
0.33333333362478673178586063841067 59:0.5 144:0.5 228:0.5 262:0.5 #
0.33333333362478673178586063841067 2:0.5 106:0.5 219:0.5 250:0.5 #
0.33333333362478673178586063841067 69:0.5 106:0.5 219:0.5 250:0.5 #
0.33333333362478673178586063841067 58:0.5 106:0.5 219:0.5 250:0.5 #
-0.33333333362478673178586063841067 68:0.5 106:0.5 219:0.5 251:0.5 #
-0.33333333362478673178586063841067 14:0.5 106:0.5 219:0.5 250:0.5 #
0.33333333362478673178586063841067 59:0.5 94:0.5 218:0.5 249:0.5 #
0.33333333362478673178586063841067 59:0.5 94:0.5 220:0.5 249:0.5 #
-0.33333333362478673178586063841067 59:0.5 94:0.5 218:0.5 249:0.5 #
0.011523789225817787640337996890594 68:0.5 95:0.5 219:0.5 250:0.5 #
-0.33333333362478673178586063841067 59:0.5 94:0.5 220:0.5 249:0.5 #
-0.33333333362478673178586063841067 59:0.5 94:0.5 184:0.5 297:0.5 #
0.33333333362478673178586063841067 13:0.5 107:0.5 219:0.5 250:0.5 #
-0.1295394282584061140806142020665 48:0.5 81:0.5 186:0.5 287:0.5 #
0.33333333362478673178586063841067 14:0.5 107:0.5 219:0.5 250:0.5 #
0.33333333362478673178586063841067 59:0.5 94:0.5 220:0.5 249:0.5 #
-0.33333333362478673178586063841067 34:0.5 91:0.5 219:0.5 250:0.5 #
-0.33333333362478673178586063841067 72:0.5 93:0.5 219:0.5 250:0.5 #
-0.20767124943046968987836464748398 58:0.5 91:0.5 219:0.5 250:0.5 #
0.33333333362478673178586063841067 59:0.5 94:0.5 184:0.5 249:0.5 #
0.33333333362478673178586063841067 59:0.5 94:0.5 183:0.5 249:0.5 #
0.33333333362478673178586063841067 59:0.5 94:0.5 181:0.5 249:0.5 #
-0.33333333362478673178586063841067 59:0.5 94:0.5 217:0.5 249:0.5 #
0.33333333362478673178586063841067 67:0.5 93:0.5 219:0.5 250:0.5 #
-0.33333333362478673178586063841067 59:0.5 94:0.5 220:0.5 249:0.5 #
0.33333333362478673178586063841067 59:0.5 94:0.5 217:0.5 251:0.5 #
0.046311533224317122381386013785232 59:0.5 106:0.5 232:0.5 266:0.5 #
-0.33333333362478673178586063841067 59:0.5 107:0.5 216:0.5 243:0.5 #
0.33333333362478673178586063841067 59:0.5 93:0.5 219:0.5 252:0.5 #
0.33333333362478673178586063841067 59:0.5 94:0.5 219:0.5 252:0.5 #
-0.33333333362478673178586063841067 68:0.5 107:0.5 219:0.5 251:0.5 #
-0.33333333362478673178586063841067 35:0.5 94:0.5 219:0.5 252:0.5 #
-0.1667411385540400747817812998619 60:0.5 94:0.5 219:0.5 251:0.5 #
0.33333333362478673178586063841067 59:0.5 142:0.5 216:0.5 241:0.5 #
0.33333333362478673178586063841067 59:0.57735026 107:0.57735026 216:0.57735026 #
0.33333333362478673178586063841067 59:0.5 90:0.5 216:0.5 262:0.5 #
-0.33333333362478673178586063841067 59:0.5 107:0.5 216:0.5 243:0.5 #
-0.33333333362478673178586063841067 59:0.5 90:0.5 216:0.5 303:0.5 #
-0.33333333362478673178586063841067 59:0.5 142:0.5 216:0.5 303:0.5 #
0.33333333362478673178586063841067 59:0.5 94:0.5 219:0.5 249:0.5 #
0.33333333362478673178586063841067 60:0.5 113:0.5 219:0.5 250:0.5 #
0.33333333362478673178586063841067 60:0.5 94:0.5 219:0.5 250:0.5 #
-0.33333333362478673178586063841067 59:0.5 95:0.5 219:0.5 250:0.5 #
-0.33333333362478673178586063841067 71:0.5 94:0.5 219:0.5 250:0.5 #
-0.33333333362478673178586063841067 14:0.5 113:0.5 219:0.5 250:0.5 #
-0.33333333362478673178586063841067 67:0.5 108:0.5 219:0.5 250:0.5 #
0.33333333362478673178586063841067 59:0.5 106:0.5 213:0.5 261:0.5 #
0.33333333362478673178586063841067 57:0.5 146:0.5 213:0.5 261:0.5 #
0.20994780411574842649002903272049 68:0.5 95:0.5 219:0.5 250:0.5 #
-0.33333333362478673178586063841067 59:0.5 146:0.5 213:0.5 261:0.5 #
-0.29746722775949641093262698632316 59:0.5 106:0.5 213:0.5 261:0.5 #
-0.33333333362478673178586063841067 59:0.5 107:0.5 213:0.5 261:0.5 #
0.33333333362478673178586063841067 59:0.5 95:0.5 219:0.5 250:0.5 #
0.33333333362478673178586063841067 59:0.5 96:0.5 219:0.5 251:0.5 #
-0.33333333362478673178586063841067 59:0.5 141:0.5 216:0.5 302:0.5 #
0.33333333362478673178586063841067 59:0.5 125:0.5 213:0.5 261:0.5 #
0.33333333362478673178586063841067 59:0.5 82:0.5 213:0.5 261:0.5 #
0.33333333362478673178586063841067 59:0.5 94:0.5 228:0.5 261:0.5 #
0.0047795365944390908602423806428305 59:0.5 90:0.5 182:0.5 274:0.5 #
-0.33333333362478673178586063841067 59:0.5 93:0.5 181:0.5 298:0.5 #
-0.33333333362478673178586063841067 59:0.5 94:0.5 183:0.5 298:0.5 #
-0.33333333362478673178586063841067 59:0.5 106:0.5 219:0.5 250:0.5 #
0.33333333362478673178586063841067 14:0.5 108:0.5 214:0.5 266:0.5 #
0.33333333362478673178586063841067 4:0.5 108:0.5 196:0.5 303:0.5 #
0.33333333362478673178586063841067 24:0.5 139:0.5 220:0.5 243:0.5 #
-0.33333333362478673178586063841067 59:0.5 146:0.5 214:0.5 262:0.5 #
-0.17294974629987069913994446324068 59:0.5 106:0.5 169:0.5 262:0.5 #
-0.33333333362478673178586063841067 65:0.5 104:0.5 225:0.5 266:0.5 #
0.33333333362478673178586063841067 59:0.5 94:0.5 182:0.5 298:0.5 #
-0.33333333362478673178586063841067 4:0.5 146:0.5 224:0.5 298:0.5 #
-0.26231119366589672470269078985439 4:0.5 146:0.5 224:0.5 300:0.5 #
-0.33333333362478673178586063841067 58:0.5 94:0.5 182:0.5 298:0.5 #
0.33333333362478673178586063841067 59:0.5 145:0.5 195:0.5 250:0.5 #
0.33333333362478673178586063841067 59:0.5 141:0.5 195:0.5 250:0.5 #
0.33333333362478673178586063841067 59:0.5 81:0.5 195:0.5 250:0.5 #
0.33333333362478673178586063841067 58:0.5 96:0.5 219:0.5 249:0.5 #
-0.33333333362478673178586063841067 59:0.5 82:0.5 219:0.5 250:0.5 #
-0.33333333362478673178586063841067 59:0.5 114:0.5 219:0.5 250:0.5 #
0.33333333362478673178586063841067 58:0.5 94:0.5 220:0.5 251:0.5 #
0.33333333362478673178586063841067 34:0.5 127:0.5 220:0.5 298:0.5 #
0.33333333362478673178586063841067 66:0.5 147:0.5 206:0.5 298:0.5 #
-0.33333333362478673178586063841067 59:0.5 94:0.5 220:0.5 249:0.5 #
0.33333333362478673178586063841067 59:0.5 81:0.5 175:0.5 299:0.5 #
-0.33333333362478673178586063841067 59:0.5 143:0.5 219:0.5 249:0.5 #
-0.0030568028160930060636857330536031 59:0.5 91:0.5 218:0.5 290:0.5 #
0.33333333362478673178586063841067 59:0.5 106:0.5 219:0.5 250:0.5 #
-0.027044426743357448394977637917691 57:0.5 94:0.5 219:0.5 251:0.5 #
-0.33333333362478673178586063841067 59:0.5 106:0.5 219:0.5 250:0.5 #
-0.33333333362478673178586063841067 15:0.5 106:0.5 219:0.5 250:0.5 #
-0.33333333362478673178586063841067 47:0.5 106:0.5 219:0.5 250:0.5 #
0.33333333362478673178586063841067 59:0.5 144:0.5 181:0.5 298:0.5 #
0.33333333362478673178586063841067 59:0.5 91:0.5 215:0.5 301:0.5 #
0.0077494375976168636266372402587876 59:0.5 144:0.5 228:0.5 262:0.5 #
-0.33333333362478673178586063841067 59:0.5 90:0.5 215:0.5 301:0.5 #
-0.19863766775142766007888894819189 59:0.5 83:0.5 172:0.5 262:0.5 #
-0.017407013373580783321958875831115 59:0.5 143:0.5 228:0.5 261:0.5 #
0.065248962881844813077591993533133 69:0.5 96:0.5 219:0.5 250:0.5 #
0.33333333362478673178586063841067 70:0.5 106:0.5 219:0.5 250:0.5 #
0.27438968804932034606380852892471 4:0.5 106:0.5 219:0.5 250:0.5 #
-0.33333333362478673178586063841067 55:0.5 106:0.5 219:0.5 250:0.5 #
-0.33333333362478673178586063841067 68:0.5 106:0.5 220:0.5 250:0.5 #
0.33333333362478673178586063841067 59:0.5 90:0.5 223:0.5 301:0.5 #
0.091850435615191489135966662615829 59:0.5 146:0.5 220:0.5 302:0.5 #
0.33333333362478673178586063841067 59:0.5 142:0.5 215:0.5 263:0.5 #
-0.33333333362478673178586063841067 59:0.5 142:0.5 213:0.5 302:0.5 #
-0.33333333362478673178586063841067 1:0.5 144:0.5 213:0.5 303:0.5 #
-0.33333333362478673178586063841067 59:0.5 142:0.5 213:0.5 303:0.5 #
0.30656240707076815033005345867423 3:0.5 106:0.5 219:0.5 250:0.5 #
-0.050430789499494449446004296078172 59:0.5 94:0.5 206:0.5 264:0.5 #
-0.33333333362478673178586063841067 15:0.5 106:0.5 219:0.5 250:0.5 #
-0.33333333362478673178586063841067 14:0.5 81:0.5 219:0.5 250:0.5 #
-0.33333333362478673178586063841067 59:0.5 116:0.5 219:0.5 250:0.5 #
-0.33333333362478673178586063841067 58:0.5 115:0.5 219:0.5 250:0.5 #
0.16104419475586012611145747541741 59:0.5 144:0.5 213:0.5 302:0.5 #
0.0049999248990218771171445411027889 63:0.5 134:0.5 195:0.5 247:0.5 #
-0.33333333362478673178586063841067 59:0.5 125:0.5 227:0.5 263:0.5 #
-0.33333333362478673178586063841067 59:0.5 144:0.5 216:0.5 302:0.5 #
0.33333333362478673178586063841067 14:0.5 113:0.5 224:0.5 318:0.5 #
0.33333333362478673178586063841067 15:0.5 107:0.5 213:0.5 262:0.5 #
0.33333333362478673178586063841067 47:0.5 152:0.5 219:0.5 250:0.5 #
-0.33333333362478673178586063841067 63:0.5 107:0.5 215:0.5 262:0.5 #
-0.13659405786358846945915956894169 56:0.5 107:0.5 219:0.5 251:0.5 #
-0.33333333362478673178586063841067 63:0.5 105:0.5 213:0.5 262:0.5 #
0.33333333362478673178586063841067 59:0.5 125:0.5 228:0.5 263:0.5 #
0.33333333362478673178586063841067 59:0.5 125:0.5 214:0.5 303:0.5 #
0.33333333362478673178586063841067 59:0.57735026 125:0.57735026 216:0.57735026 #
-0.33333333362478673178586063841067 59:0.5 125:0.5 214:0.5 303:0.5 #
-0.33333333362478673178586063841067 70:0.5 125:0.5 228:0.5 264:0.5 #
0.33333333362478673178586063841067 14:0.5 105:0.5 221:0.5 262:0.5 #
0.33333333362478673178586063841067 14:0.5 106:0.5 221:0.5 262:0.5 #
0.33333333362478673178586063841067 14:0.5 106:0.5 221:0.5 302:0.5 #
-0.33333333362478673178586063841067 14:0.5 106:0.5 221:0.5 274:0.5 #
-0.33333333362478673178586063841067 14:0.5 84:0.5 221:0.5 274:0.5 #
-0.021035042045733316762312625769482 59:0.5 106:0.5 171:0.5 262:0.5 #
0.33333333362478673178586063841067 59:0.5 90:0.5 193:0.5 303:0.5 #
0.33333333362478673178586063841067 59:0.5 90:0.5 213:0.5 264:0.5 #
0.33333333362478673178586063841067 59:0.5 107:0.5 215:0.5 303:0.5 #
-0.33290471337560045839154554414563 59:0.5 90:0.5 215:0.5 262:0.5 #
-0.33333333362478673178586063841067 59:0.5 90:0.5 213:0.5 301:0.5 #
0.33333333362478673178586063841067 14:0.5 106:0.5 222:0.5 274:0.5 #
0.33333333362478673178586063841067 14:0.5 81:0.5 222:0.5 274:0.5 #
0.33333333362478673178586063841067 14:0.5 84:0.5 219:0.5 250:0.5 #
-0.1278047063370881253341337924212 14:0.5 128:0.5 222:0.5 298:0.5 #
-0.27426669919866153435350497602485 14:0.5 107:0.5 220:0.5 250:0.5 #
-0.33333333362478673178586063841067 14:0.5 105:0.5 219:0.5 250:0.5 #
0.33333333362478673178586063841067 59:0.5 90:0.5 216:0.5 301:0.5 #
0.11950187614074629649518755059034 59:0.5 90:0.5 188:0.5 301:0.5 #
-0.33333333362478673178586063841067 59:0.5 90:0.5 216:0.5 301:0.5 #
-0.33333333362478673178586063841067 59:0.5 90:0.5 223:0.5 301:0.5 #
-0.33333333362478673178586063841067 59:0.5 90:0.5 224:0.5 301:0.5 #
0.33333333362478673178586063841067 14:0.5 146:0.5 219:0.5 250:0.5 #
0.33333333362478673178586063841067 67:0.5 108:0.5 219:0.5 250:0.5 #
-0.33333333362478673178586063841067 67:0.5 108:0.5 219:0.5 250:0.5 #
-0.33333333362478673178586063841067 14:0.5 108:0.5 219:0.5 250:0.5 #
-0.33333333362478673178586063841067 11:0.5 146:0.5 219:0.5 250:0.5 #
0.33333333362478673178586063841067 59:0.5 90:0.5 220:0.5 300:0.5 #
0.33333333362478673178586063841067 59:0.5 90:0.5 170:0.5 298:0.5 #
-0.33333333362478673178586063841067 59:0.5 107:0.5 213:0.5 243:0.5 #
0.33333333362478673178586063841067 67:0.5 108:0.5 219:0.5 250:0.5 #
0.33333333362478673178586063841067 57:0.5 146:0.5 213:0.5 261:0.5 #
-0.33333333362478673178586063841067 59:0.5 90:0.5 170:0.5 300:0.5 #
-0.33333333362478673178586063841067 59:0.5 90:0.5 170:0.5 299:0.5 #
0.25573139992864851732790043570276 67:0.5 105:0.5 219:0.5 250:0.5 #
0.33333333362478673178586063841067 59:0.5 90:0.5 170:0.5 298:0.5 #
-0.33333333362478673178586063841067 67:0.5 127:0.5 219:0.5 250:0.5 #
-0.33333333362478673178586063841067 67:0.5 126:0.5 219:0.5 250:0.5 #
-0.33333333362478673178586063841067 47:0.5 146:0.5 219:0.5 250:0.5 #
0.33333333362478673178586063841067 59:0.5 90:0.5 170:0.5 300:0.5 #
0.33333333362478673178586063841067 59:0.5 90:0.5 171:0.5 299:0.5 #
0.33333333362478673178586063841067 59:0.5 142:0.5 216:0.5 243:0.5 #
-0.33333333362478673178586063841067 59:0.5 90:0.5 170:0.5 300:0.5 #
-0.33333333362478673178586063841067 59:0.5 90:0.5 171:0.5 298:0.5 #
-0.33333333362478673178586063841067 59:0.5 90:0.5 171:0.5 300:0.5 #
-0.33333333362478673178586063841067 59:0.5 90:0.5 195:0.5 244:0.5 #
0.33333333362478673178586063841067 47:0.5 150:0.5 219:0.5 250:0.5 #
0.2014633359882605501134378300776 23:0.5 148:0.5 219:0.5 250:0.5 #
0.20816159118199531463666573927185 21:0.5 148:0.5 219:0.5 250:0.5 #
-0.33333333362478673178586063841067 14:0.5 148:0.5 219:0.5 250:0.5 #
-0.33333333362478673178586063841067 10:0.5 148:0.5 219:0.5 249:0.5 #
-0.33333333362478673178586063841067 45:0.5 108:0.5 219:0.5 250:0.5 #
-0.33333333362478673178586063841067 34:0.5 95:0.5 219:0.5 250:0.5 #
0.33333333362478673178586063841067 59:0.5 125:0.5 205:0.5 262:0.5 #
0.33333333362478673178586063841067 59:0.5 90:0.5 195:0.5 301:0.5 #
0.33333333362478673178586063841067 59:0.5 127:0.5 236:0.5 301:0.5 #
-0.33333333362478673178586063841067 59:0.5 142:0.5 216:0.5 301:0.5 #
-0.33333333362478673178586063841067 59:0.5 90:0.5 222:0.5 301:0.5 #
-0.33333333362478673178586063841067 59:0.57735026 82:0.57735026 170:0.57735026 #
0.33333333362478673178586063841067 45:0.5 145:0.5 219:0.5 250:0.5 #
0.33333333362478673178586063841067 56:0.5 81:0.5 219:0.5 250:0.5 #
-0.33333333362478673178586063841067 2:0.5 145:0.5 219:0.5 250:0.5 #
-0.33333333362478673178586063841067 14:0.5 145:0.5 219:0.5 250:0.5 #
-0.33333333362478673178586063841067 45:0.5 81:0.5 188:0.5 286:0.5 #
0.33333333362478673178586063841067 59:0.5 115:0.5 214:0.5 242:0.5 #
0.33333333362478673178586063841067 68:0.5 144:0.5 215:0.5 278:0.5 #
0.33333333362478673178586063841067 59:0.5 82:0.5 170:0.5 300:0.5 #
0.14084134358793676256027538329363 67:0.5 105:0.5 219:0.5 250:0.5 #
0.019078153576248688128025321475434 59:0.5 107:0.5 228:0.5 262:0.5 #
-0.33333333362478673178586063841067 59:0.5 126:0.5 170:0.5 302:0.5 #
-0.33333333362478673178586063841067 59:0.5 96:0.5 195:0.5 242:0.5 #
0.33333333362478673178586063841067 2:0.5 146:0.5 219:0.5 250:0.5 #
0.33333333362478673178586063841067 14:0.5 125:0.5 219:0.5 250:0.5 #
0.20116683131598969702658052938204 22:0.5 148:0.5 219:0.5 250:0.5 #
0.33333333362478673178586063841067 59:0.57735026 90:0.57735026 170:0.57735026 #
-0.33333333362478673178586063841067 58:0.5 115:0.5 219:0.5 250:0.5 #
-0.33333333362478673178586063841067 15:0.5 146:0.5 219:0.5 250:0.5 #
0.33333333362478673178586063841067 59:0.5 82:0.5 170:0.5 302:0.5 #
0.33333333362478673178586063841067 59:0.5 126:0.5 170:0.5 267:0.5 #
0.33333333362478673178586063841067 59:0.5 126:0.5 170:0.5 241:0.5 #
-0.33333333362478673178586063841067 59:0.5 125:0.5 170:0.5 263:0.5 #
-0.33333333362478673178586063841067 59:0.57735026 125:0.57735026 215:0.57735026 #
-0.33333333362478673178586063841067 59:0.5 125:0.5 215:0.5 303:0.5 #
0.33333333362478673178586063841067 58:0.5 96:0.5 220:0.5 249:0.5 #
0.33333333362478673178586063841067 45:0.5 145:0.5 188:0.5 306:0.5 #
0.33333333362478673178586063841067 58:0.5 96:0.5 219:0.5 250:0.5 #
0.33333333362478673178586063841067 59:0.5 125:0.5 216:0.5 302:0.5 #
-0.33333333362478673178586063841067 35:0.5 96:0.5 220:0.5 250:0.5 #
-0.33333333362478673178586063841067 58:0.5 96:0.5 184:0.5 299:0.5 #
-0.33333333362478673178586063841067 68:0.5 105:0.5 220:0.5 250:0.5 #
0.33333333362478673178586063841067 59:0.5 125:0.5 215:0.5 257:0.5 #
0.33333333362478673178586063841067 59:0.5 125:0.5 222:0.5 303:0.5 #
-0.28129469285939578959698792459676 59:0.5 89:0.5 224:0.5 244:0.5 #
0.33333333362478673178586063841067 53:0.5 104:0.5 213:0.5 308:0.5 #
-0.33333333362478673178586063841067 59:0.5 125:0.5 214:0.5 303:0.5 #
-0.33333333362478673178586063841067 59:0.5 90:0.5 222:0.5 303:0.5 #
-0.33333333362478673178586063841067 59:0.5 82:0.5 170:0.5 263:0.5 #
-0.33333333362478673178586063841067 59:0.5 125:0.5 215:0.5 303:0.5 #
0.33333333362478673178586063841067 59:0.5 96:0.5 217:0.5 250:0.5 #
0.33333333362478673178586063841067 14:0.5 105:0.5 206:0.5 286:0.5 #
0.33333333362478673178586063841067 46:0.5 133:0.5 205:0.5 274:0.5 #
-0.33333333362478673178586063841067 14:0.5 146:0.5 216:0.5 302:0.5 #
-0.25433468781038970352170736077824 46:0.5 84:0.5 188:0.5 285:0.5 #
-0.058909775649773996053504276915191 46:0.5 84:0.5 188:0.5 288:0.5 #
0.33333333362478673178586063841067 59:0.5 90:0.5 220:0.5 303:0.5 #
0.33333333362478673178586063841067 59:0.5 90:0.5 223:0.5 303:0.5 #
-0.33333333362478673178586063841067 59:0.5 90:0.5 223:0.5 243:0.5 #
-0.1795904528487456963681268007349 46:0.5 146:0.5 186:0.5 305:0.5 #
-0.33333333362478673178586063841067 59:0.5 90:0.5 223:0.5 273:0.5 #
0.33333333362478673178586063841067 59:0.5 142:0.5 215:0.5 263:0.5 #
0.33333333362478673178586063841067 59:0.5 146:0.5 225:0.5 263:0.5 #
0.33333333362478673178586063841067 14:0.5 114:0.5 184:0.5 302:0.5 #
0.29561429952435297474622188929061 59:0.5 90:0.5 188:0.5 301:0.5 #
-0.33333333362478673178586063841067 59:0.5 105:0.5 217:0.5 250:0.5 #
-0.33333333362478673178586063841067 14:0.5 142:0.5 228:0.5 266:0.5 #
-0.28089978932001880007618410672876 54:0.5 106:0.5 219:0.5 249:0.5 #
0.33333333362478673178586063841067 59:0.5 90:0.5 223:0.5 319:0.5 #
0.33333333362478673178586063841067 59:0.5 134:0.5 223:0.5 261:0.5 #
-0.33333333362478673178586063841067 59:0.5 93:0.5 225:0.5 262:0.5 #
-0.10044984398956356697052427762173 59:0.5 150:0.5 220:0.5 251:0.5 #
0.33333333362478673178586063841067 14:0.5 108:0.5 216:0.5 266:0.5 #
0.33333333362478673178586063841067 14:0.5 107:0.5 214:0.5 266:0.5 #
0.33333333362478673178586063841067 14:0.5 142:0.5 228:0.5 286:0.5 #
0.33333333362478673178586063841067 59:0.5 94:0.5 219:0.5 251:0.5 #
-0.33333333362478673178586063841067 59:0.5 90:0.5 228:0.5 263:0.5 #
-0.011363081533729226316187244094635 59:0.5 126:0.5 170:0.5 262:0.5 #
-0.33333333362478673178586063841067 59:0.5 94:0.5 206:0.5 263:0.5 #
0.33333333362478673178586063841067 59:0.5 93:0.5 218:0.5 251:0.5 #
0.33333333362478673178586063841067 58:0.5 106:0.5 214:0.5 302:0.5 #
0.33333333362478673178586063841067 76:0.5 131:0.5 224:0.5 299:0.5 #
-0.19606653864539017040335977526411 60:0.5 94:0.5 219:0.5 251:0.5 #
0.33333333362478673178586063841067 59:0.5 115:0.5 228:0.5 250:0.5 #
-0.33333333362478673178586063841067 59:0.5 152:0.5 219:0.5 251:0.5 #
-0.30401482890696102101557585228875 3:0.5 142:0.5 216:0.5 301:0.5 #
0.3324814878843868615199141913763 67:0.5 104:0.5 219:0.5 250:0.5 #
0.33333333362478673178586063841067 59:0.5 90:0.5 228:0.5 264:0.5 #
0.33333333362478673178586063841067 59:0.5 90:0.5 228:0.5 262:0.5 #
-0.33333333362478673178586063841067 59:0.5 90:0.5 228:0.5 264:0.5 #
-0.33333333362478673178586063841067 59:0.5 90:0.5 228:0.5 277:0.5 #
-0.33333333362478673178586063841067 59:0.5 90:0.5 228:0.5 279:0.5 #
0.33333333362478673178586063841067 59:0.5 94:0.5 219:0.5 251:0.5 #
-0.33333333362478673178586063841067 59:0.5 115:0.5 176:0.5 302:0.5 #
-0.33333333362478673178586063841067 59:0.5 115:0.5 173:0.5 302:0.5 #
0.33333333362478673178586063841067 60:0.5 90:0.5 215:0.5 255:0.5 #
0.33333333362478673178586063841067 68:0.5 125:0.5 219:0.5 252:0.5 #
0.33333333362478673178586063841067 35:0.5 146:0.5 164:0.5 304:0.5 #
-0.33333333362478673178586063841067 59:0.5 114:0.5 219:0.5 250:0.5 #
0.24976215490380768158296120873274 59:0.5 144:0.5 213:0.5 302:0.5 #
-0.33333333362478673178586063841067 47:0.5 146:0.5 188:0.5 306:0.5 #
-0.33333333362478673178586063841067 14:0.5 142:0.5 215:0.5 266:0.5 #
-0.33333333362478673178586063841067 14:0.5 142:0.5 214:0.5 266:0.5 #
0.33333333362478673178586063841067 59:0.5 115:0.5 214:0.5 302:0.5 #
-0.33333333362478673178586063841067 59:0.5 144:0.5 214:0.5 302:0.5 #
-0.33333333362478673178586063841067 59:0.5 144:0.5 215:0.5 302:0.5 #
-0.33333333362478673178586063841067 59:0.5 107:0.5 214:0.5 302:0.5 #
0.33333333362478673178586063841067 14:0.5 142:0.5 225:0.5 266:0.5 #
0.26849877433064806009355152127682 71:0.5 84:0.5 219:0.5 250:0.5 #
-0.33333333362478673178586063841067 14:0.5 142:0.5 213:0.5 266:0.5 #
-0.33333333362478673178586063841067 14:0.5 84:0.5 225:0.5 262:0.5 #
-0.33333333362478673178586063841067 14:0.5 84:0.5 227:0.5 262:0.5 #
0.33333333362478673178586063841067 59:0.5 127:0.5 215:0.5 302:0.5 #
0.33333333362478673178586063841067 59:0.5 92:0.5 215:0.5 302:0.5 #
0.33333333362478673178586063841067 59:0.5 90:0.5 215:0.5 302:0.5 #
-0.11741721574164626362701824291435 59:0.5 106:0.5 216:0.5 242:0.5 #
-0.33333333362478673178586063841067 59:0.5 106:0.5 215:0.5 302:0.5 #
0.33333333362478673178586063841067 14:0.5 84:0.5 228:0.5 262:0.5 #
0.33333333362478673178586063841067 14:0.5 108:0.5 224:0.5 262:0.5 #
-0.096311696085610506989915791109524 58:0.5 107:0.5 213:0.5 243:0.5 #
-0.33333333362478673178586063841067 14:0.5 82:0.5 228:0.5 262:0.5 #
-0.33333333362478673178586063841067 14:0.5 108:0.5 213:0.5 262:0.5 #
0.057537499686715377900103618458161 4:0.57735026 107:0.57735026 195:0.57735026 #
0.33333333362478673178586063841067 59:0.5 125:0.5 226:0.5 243:0.5 #
0.33333333362478673178586063841067 59:0.5 146:0.5 176:0.5 242:0.5 #
-0.33333333362478673178586063841067 59:0.5 90:0.5 194:0.5 242:0.5 #
-0.33333333362478673178586063841067 59:0.5 146:0.5 224:0.5 295:0.5 #
0.33333333362478673178586063841067 14:0.5 106:0.5 223:0.5 262:0.5 #
0.33333333362478673178586063841067 14:0.5 106:0.5 222:0.5 262:0.5 #
0.33333333362478673178586063841067 14:0.5 125:0.5 228:0.5 262:0.5 #
-0.33333333362478673178586063841067 14:0.5 125:0.5 226:0.5 262:0.5 #
-0.33333333362478673178586063841067 14:0.5 125:0.5 225:0.5 262:0.5 #
-0.33333333362478673178586063841067 14:0.5 125:0.5 227:0.5 262:0.5 #
0.33333333362478673178586063841067 59:0.5 90:0.5 217:0.5 263:0.5 #
0.33333333362478673178586063841067 59:0.57735026 90:0.57735026 216:0.57735026 #
0.33333333362478673178586063841067 59:0.5 90:0.5 195:0.5 263:0.5 #
-0.26561054328549976721873804308416 59:0.5 90:0.5 217:0.5 251:0.5 #
-0.33333333362478673178586063841067 59:0.5 90:0.5 193:0.5 243:0.5 #
0.16881983738564965147332941342029 14:0.5 125:0.5 213:0.5 262:0.5 #
0.33333333362478673178586063841067 14:0.5 105:0.5 228:0.5 262:0.5 #
0.33333333362478673178586063841067 14:0.5 105:0.5 208:0.5 262:0.5 #
0.33333333362478673178586063841067 59:0.5 90:0.5 228:0.5 264:0.5 #
-0.33333333362478673178586063841067 14:0.5 105:0.5 223:0.5 275:0.5 #
-0.12039370302801466472431002330268 14:0.5 108:0.5 223:0.5 274:0.5 #
-0.33333333362478673178586063841067 63:0.5 106:0.5 213:0.5 262:0.5 #
0.33333333362478673178586063841067 59:0.5 126:0.5 171:0.5 301:0.5 #
0.33333333362478673178586063841067 59:0.5 126:0.5 220:0.5 295:0.5 #
-0.044283316204506949220753853069255 59:0.5 126:0.5 228:0.5 264:0.5 #
0.33333333362478673178586063841067 54:0.5 105:0.5 213:0.5 262:0.5 #
0.33333333362478673178586063841067 63:0.5 142:0.5 213:0.5 242:0.5 #
-0.33333333362478673178586063841067 3:0.5 142:0.5 213:0.5 302:0.5 #
-0.33333333362478673178586063841067 59:0.5 107:0.5 216:0.5 241:0.5 #
-0.33333333362478673178586063841067 63:0.5 142:0.5 216:0.5 242:0.5 #
0.33333333362478673178586063841067 57:0.5 90:0.5 170:0.5 273:0.5 #
0.33333333362478673178586063841067 59:0.5 90:0.5 194:0.5 250:0.5 #
0.33333333362478673178586063841067 59:0.5 90:0.5 217:0.5 243:0.5 #
-0.33333333362478673178586063841067 59:0.5 90:0.5 194:0.5 242:0.5 #
-0.33333333362478673178586063841067 59:0.5 90:0.5 217:0.5 250:0.5 #
-0.33333333362478673178586063841067 59:0.5 90:0.5 220:0.5 250:0.5 #
-0.33333333362478673178586063841067 57:0.5 90:0.5 170:0.5 298:0.5 #
0.33333333362478673178586063841067 59:0.5 142:0.5 227:0.5 303:0.5 #
0.33333333362478673178586063841067 59:0.5 142:0.5 213:0.5 241:0.5 #
0.33333333362478673178586063841067 59:0.5 142:0.5 225:0.5 303:0.5 #
-0.33333333362478673178586063841067 59:0.5 142:0.5 215:0.5 303:0.5 #
-0.33333333362478673178586063841067 59:0.5 142:0.5 213:0.5 301:0.5 #
-0.33333333362478673178586063841067 59:0.5 142:0.5 219:0.5 252:0.5 #
0.33333333362478673178586063841067 3:0.5 82:0.5 215:0.5 307:0.5 #
0.33333333362478673178586063841067 2:0.5 106:0.5 216:0.5 262:0.5 #
-0.21938847602775846112876934057567 57:0.5 94:0.5 208:0.5 262:0.5 #
0.33333333362478673178586063841067 59:0.5 90:0.5 171:0.5 275:0.5 #
0.33333333362478673178586063841067 63:0.5 142:0.5 213:0.5 242:0.5 #
0.33333333362478673178586063841067 59:0.5 142:0.5 216:0.5 242:0.5 #
-0.33333333362478673178586063841067 59:0.5 90:0.5 171:0.5 299:0.5 #
-0.23461802362594566528919415304699 59:0.5 125:0.5 218:0.5 251:0.5 #
-0.33333333362478673178586063841067 59:0.5 125:0.5 171:0.5 263:0.5 #
0.33333333362478673178586063841067 57:0.5 94:0.5 205:0.5 262:0.5 #
0.33333333362478673178586063841067 59:0.5 115:0.5 226:0.5 262:0.5 #
0.33333333362478673178586063841067 59:0.5 94:0.5 194:0.5 242:0.5 #
-0.055347067330368801552076263305935 57:0.5 84:0.5 170:0.5 263:0.5 #
-0.33333333362478673178586063841067 59:0.5 94:0.5 205:0.5 262:0.5 #
-0.33333333362478673178586063841067 59:0.5 105:0.5 216:0.5 262:0.5 #
-0.33333333362478673178586063841067 3:0.5 105:0.5 214:0.5 242:0.5 #
0.33333333362478673178586063841067 57:0.5 90:0.5 171:0.5 299:0.5 #
0.33333333362478673178586063841067 59:0.5 82:0.5 213:0.5 263:0.5 #
0.33333333362478673178586063841067 59:0.5 126:0.5 171:0.5 303:0.5 #
-0.33333333362478673178586063841067 59:0.5 126:0.5 213:0.5 303:0.5 #
-0.33333333362478673178586063841067 59:0.5 90:0.5 213:0.5 303:0.5 #
0.33333333362478673178586063841067 59:0.5 84:0.5 170:0.5 262:0.5 #
0.33333333362478673178586063841067 59:0.5 90:0.5 220:0.5 303:0.5 #
-0.058963463995466862399563723329265 57:0.5 94:0.5 194:0.5 242:0.5 #
-0.069095965276736309723659701376164 57:0.5 92:0.5 228:0.5 278:0.5 #
0.33333333362478673178586063841067 59:0.5 107:0.5 213:0.5 262:0.5 #
0.33333333362478673178586063841067 59:0.5 107:0.5 214:0.5 302:0.5 #
-0.33333333362478673178586063841067 59:0.5 115:0.5 176:0.5 302:0.5 #
-0.33333333362478673178586063841067 59:0.57735026 126:0.57735026 220:0.57735026 #
-0.33333333362478673178586063841067 59:0.5 126:0.5 172:0.5 302:0.5 #
-0.33333333362478673178586063841067 59:0.5 126:0.5 169:0.5 302:0.5 #
0.33333333362478673178586063841067 14:0.5 105:0.5 224:0.5 262:0.5 #
0.33333333362478673178586063841067 14:0.5 105:0.5 215:0.5 266:0.5 #
-0.0086779778242234793111942181553786 47:0.5 82:0.5 188:0.5 287:0.5 #
0.33333333362478673178586063841067 59:0.5 126:0.5 171:0.5 301:0.5 #
-0.33333333362478673178586063841067 14:0.5 144:0.5 215:0.5 266:0.5 #
-0.18576963361908069294337053634081 14:0.5 141:0.5 227:0.5 266:0.5 #
0.026429267657392091495083263907873 68:0.5 135:0.5 231:0.5 282:0.5 #
0.33333333362478673178586063841067 59:0.5 126:0.5 172:0.5 302:0.5 #
0.33333333362478673178586063841067 59:0.5 126:0.5 186:0.5 244:0.5 #
0.33333333362478673178586063841067 59:0.5 126:0.5 186:0.5 304:0.5 #
-0.22292780213487764506830046684627 68:0.5 101:0.5 225:0.5 265:0.5 #
0.066559636998196156087992392258457 72:0.5 84:0.5 219:0.5 250:0.5 #
0.33333333362478673178586063841067 14:0.5 106:0.5 215:0.5 266:0.5 #
0.33333333362478673178586063841067 14:0.5 144:0.5 213:0.5 266:0.5 #
0.33333333362478673178586063841067 12:0.5 143:0.5 176:0.5 287:0.5 #
0.33333333362478673178586063841067 59:0.5 107:0.5 214:0.5 302:0.5 #
-0.33333333362478673178586063841067 2:0.5 144:0.5 213:0.5 301:0.5 #
-0.33333333362478673178586063841067 4:0.5 144:0.5 213:0.5 301:0.5 #
-0.1121601162443526672474192196205 45:0.5 84:0.5 187:0.5 287:0.5 #
0.33333333362478673178586063841067 59:0.5 126:0.5 169:0.5 303:0.5 #
0.33333333362478673178586063841067 59:0.5 142:0.5 172:0.5 302:0.5 #
0.12771717429604356741634774152772 14:0.5 107:0.5 213:0.5 242:0.5 #
-0.26824568181957153534256121929502 59:0.5 106:0.5 214:0.5 302:0.5 #
-0.33333333362478673178586063841067 59:0.5 142:0.5 214:0.5 302:0.5 #
0.32311529995158083661266346098273 33:0.5 144:0.5 170:0.5 301:0.5 #
0.33333333362478673178586063841067 45:0.5 84:0.5 188:0.5 286:0.5 #
0.33333333362478673178586063841067 59:0.5 107:0.5 214:0.5 302:0.5 #
-0.33333333362478673178586063841067 45:0.5 82:0.5 188:0.5 286:0.5 #
-0.10050223321483366112349955301397 35:0.5 93:0.5 220:0.5 250:0.5 #
-0.11610543520988017562878269473003 59:0.5 107:0.5 217:0.5 252:0.5 #
0.33333333362478673178586063841067 59:0.5 125:0.5 214:0.5 301:0.5 #
0.33333333362478673178586063841067 59:0.5 142:0.5 227:0.5 302:0.5 #
0.33333333362478673178586063841067 59:0.5 90:0.5 215:0.5 302:0.5 #
0.33333333362478673178586063841067 60:0.5 95:0.5 219:0.5 250:0.5 #
-0.33333333362478673178586063841067 59:0.5 90:0.5 221:0.5 301:0.5 #
-0.33333333362478673178586063841067 59:0.5 90:0.5 214:0.5 301:0.5 #
-0.33333333362478673178586063841067 59:0.5 90:0.5 221:0.5 303:0.5 #
0.33333333362478673178586063841067 45:0.5 81:0.5 205:0.5 262:0.5 #
0.33333333362478673178586063841067 57:0.5 142:0.5 175:0.5 263:0.5 #
0.33333333362478673178586063841067 45:0.5 152:0.5 219:0.5 250:0.5 #
0.33333333362478673178586063841067 59:0.5 90:0.5 170:0.5 298:0.5 #
-0.33333333362478673178586063841067 58:0.5 83:0.5 219:0.5 250:0.5 #
-0.33333333362478673178586063841067 58:0.5 151:0.5 219:0.5 250:0.5 #
0.098583465018653865241660128049261 77:0.5 106:0.5 219:0.5 250:0.5 #
0.33333333362478673178586063841067 57:0.5 90:0.5 221:0.5 242:0.5 #
0.33333333362478673178586063841067 59:0.57735026 90:0.57735026 213:0.57735026 #
0.33333333362478673178586063841067 59:0.5 146:0.5 221:0.5 303:0.5 #
0.33333333362478673178586063841067 60:0.5 94:0.5 219:0.5 250:0.5 #
-0.33333333362478673178586063841067 59:0.5 81:0.5 170:0.5 262:0.5 #
-0.33333333362478673178586063841067 59:0.5 113:0.5 175:0.5 302:0.5 #
-0.27284119104235327046836800946039 59:0.5 81:0.5 169:0.5 262:0.5 #
0.33333333362478673178586063841067 58:0.5 94:0.5 219:0.5 250:0.5 #
0.15611188998932448712686493763613 64:0.5 83:0.5 219:0.5 250:0.5 #
0.33333333362478673178586063841067 59:0.5 84:0.5 170:0.5 262:0.5 #
-0.33333333362478673178586063841067 69:0.5 94:0.5 219:0.5 251:0.5 #
-0.33333333362478673178586063841067 30:0.5 128:0.5 219:0.5 250:0.5 #
-0.33333333362478673178586063841067 14:0.5 83:0.5 219:0.5 250:0.5 #
0.33333333362478673178586063841067 59:0.5 148:0.5 173:0.5 262:0.5 #
0.33333333362478673178586063841067 59:0.5 115:0.5 170:0.5 262:0.5 #
-0.33333333362478673178586063841067 59:0.5 94:0.5 170:0.5 262:0.5 #
-0.33333333362478673178586063841067 59:0.5 107:0.5 170:0.5 262:0.5 #
-0.33333333362478673178586063841067 59:0.5 84:0.5 171:0.5 262:0.5 #
0.33333333362478673178586063841067 30:0.5 91:0.5 172:0.5 294:0.5 #
0.33333333362478673178586063841067 35:0.5 108:0.5 219:0.5 250:0.5 #
0.33333333362478673178586063841067 34:0.5 103:0.5 219:0.5 298:0.5 #
-0.33333333362478673178586063841067 53:0.5 108:0.5 219:0.5 250:0.5 #
-0.33333333362478673178586063841067 13:0.5 108:0.5 219:0.5 250:0.5 #
-0.036480323983729856518465339831891 59:0.5 151:0.5 219:0.5 251:0.5 #
0.33333333362478673178586063841067 59:0.5 107:0.5 170:0.5 262:0.5 #
0.33333333362478673178586063841067 59:0.5 144:0.5 225:0.5 262:0.5 #
-0.33333333362478673178586063841067 59:0.5 93:0.5 225:0.5 262:0.5 #
0.33333333362478673178586063841067 59:0.5 94:0.5 219:0.5 251:0.5 #
-0.33333333362478673178586063841067 59:0.5 146:0.5 227:0.5 294:0.5 #
-0.33333333362478673178586063841067 59:0.5 125:0.5 225:0.5 262:0.5 #
-0.33333333362478673178586063841067 59:0.5 89:0.5 170:0.5 298:0.5 #
0.33333333362478673178586063841067 59:0.5 151:0.5 194:0.5 250:0.5 #
0.33333333362478673178586063841067 26:0.5 92:0.5 187:0.5 270:0.5 #
0.33333333362478673178586063841067 59:0.5 106:0.5 213:0.5 301:0.5 #
0.33333333362478673178586063841067 59:0.5 144:0.5 225:0.5 262:0.5 #
-0.33333333362478673178586063841067 59:0.5 106:0.5 213:0.5 242:0.5 #
-0.33333333362478673178586063841067 3:0.5 144:0.5 213:0.5 301:0.5 #
0.33333333362478673178586063841067 69:0.5 125:0.5 170:0.5 262:0.5 #
0.33333333362478673178586063841067 59:0.5 125:0.5 208:0.5 262:0.5 #
-0.33333333362478673178586063841067 59:0.5 125:0.5 206:0.5 262:0.5 #
-0.33333333362478673178586063841067 59:0.5 92:0.5 228:0.5 262:0.5 #
-0.33333333362478673178586063841067 59:0.5 107:0.5 172:0.5 262:0.5 #
-0.14950299631710151082586435222765 46:0.5 84:0.5 187:0.5 287:0.5 #
0.33333333362478673178586063841067 59:0.5 106:0.5 213:0.5 242:0.5 #
0.095786987917285376648024453061225 68:0.5 143:0.5 175:0.5 310:0.5 #
-0.33333333362478673178586063841067 59:0.5 106:0.5 213:0.5 242:0.5 #
-0.33333333362478673178586063841067 16:0.5 146:0.5 213:0.5 302:0.5 #
-0.33333333362478673178586063841067 59:0.5 146:0.5 213:0.5 263:0.5 #
-0.28436122520406909019996533061203 16:0.5 146:0.5 213:0.5 304:0.5 #
0.33333333362478673178586063841067 59:0.5 125:0.5 206:0.5 262:0.5 #
0.33333333362478673178586063841067 59:0.5 83:0.5 228:0.5 262:0.5 #
0.33333333362478673178586063841067 59:0.5 143:0.5 228:0.5 262:0.5 #
0.33333333362478673178586063841067 3:0.5 82:0.5 215:0.5 307:0.5 #
-0.33333333362478673178586063841067 59:0.5 108:0.5 228:0.5 262:0.5 #
-0.33333333362478673178586063841067 58:0.5 125:0.5 228:0.5 262:0.5 #
-0.33333333362478673178586063841067 72:0.5 125:0.5 228:0.5 262:0.5 #
0.33333333362478673178586063841067 4:0.5 135:0.5 220:0.5 263:0.5 #
0.33333333362478673178586063841067 59:0.5 146:0.5 213:0.5 243:0.5 #
0.049479482040032843337407086892199 59:0.5 146:0.5 213:0.5 262:0.5 #
-0.33333333362478673178586063841067 59:0.5 115:0.5 174:0.5 301:0.5 #
-0.33333333362478673178586063841067 59:0.5 94:0.5 194:0.5 243:0.5 #
-0.33333333362478673178586063841067 59:0.5 94:0.5 220:0.5 251:0.5 #
0.33333333362478673178586063841067 69:0.5 125:0.5 228:0.5 262:0.5 #
-0.059743351735871454144533032604159 60:0.5 94:0.5 194:0.5 242:0.5 #
-0.33333333362478673178586063841067 69:0.5 125:0.5 171:0.5 262:0.5 #
-0.02742131704318000878783934126659 59:0.5 146:0.5 196:0.5 249:0.5 #
-0.33333333362478673178586063841067 69:0.5 125:0.5 225:0.5 262:0.5 #
0.33333333362478673178586063841067 59:0.5 115:0.5 174:0.5 302:0.5 #
-0.33333333362478673178586063841067 59:0.5 142:0.5 215:0.5 302:0.5 #
-0.33333333362478673178586063841067 59:0.5 115:0.5 173:0.5 303:0.5 #
0.33333333362478673178586063841067 68:0.5 127:0.5 227:0.5 310:0.5 #
0.33333333362478673178586063841067 58:0.5 101:0.5 182:0.5 242:0.5 #
0.33333333362478673178586063841067 59:0.5 94:0.5 172:0.5 262:0.5 #
-0.33333333362478673178586063841067 68:0.5 107:0.5 218:0.5 250:0.5 #
0.33333333362478673178586063841067 59:0.5 126:0.5 169:0.5 303:0.5 #
-0.33333333362478673178586063841067 45:0.5 148:0.5 185:0.5 307:0.5 #
-0.33333333362478673178586063841067 68:0.5 101:0.5 228:0.5 267:0.5 #
-0.33333333362478673178586063841067 59:0.5 94:0.5 182:0.5 299:0.5 #
0.33333333362478673178586063841067 59:0.5 106:0.5 213:0.5 264:0.5 #
0.33333333362478673178586063841067 59:0.5 126:0.5 171:0.5 303:0.5 #
0.33333333362478673178586063841067 59:0.5 110:0.5 225:0.5 303:0.5 #
-0.33333333362478673178586063841067 59:0.5 126:0.5 213:0.5 303:0.5 #
0.036695486498964334509675921935923 37:0.5 106:0.5 219:0.5 250:0.5 #
-0.33333333362478673178586063841067 59:0.5 146:0.5 213:0.5 264:0.5 #
-0.33333333362478673178586063841067 59:0.5 126:0.5 216:0.5 303:0.5 #
0.30524065167201092085846880763711 68:0.5 128:0.5 198:0.5 266:0.5 #
0.33333333362478673178586063841067 68:0.5 132:0.5 215:0.5 298:0.5 #
0.33333333362478673178586063841067 68:0.5 108:0.5 219:0.5 250:0.5 #
-0.00060842833548829279577407902479536 68:0.5 106:0.5 219:0.5 251:0.5 #
0.31766453019165319382466350361938 59:0.57735026 142:0.57735026 213:0.57735026 #
-0.33333333362478673178586063841067 68:0.5 101:0.5 225:0.5 266:0.5 #
-0.33333333362478673178586063841067 68:0.5 105:0.5 219:0.5 251:0.5 #
0.33333333362478673178586063841067 59:0.5 146:0.5 216:0.5 294:0.5 #
0.33333333362478673178586063841067 59:0.5 146:0.5 228:0.5 264:0.5 #
-0.33333333362478673178586063841067 59:0.5 142:0.5 215:0.5 302:0.5 #
-0.33333333362478673178586063841067 59:0.5 90:0.5 172:0.5 298:0.5 #
-0.33333333362478673178586063841067 59:0.5 90:0.5 169:0.5 298:0.5 #
-0.25679115877353991814757705469674 59:0.5 91:0.5 196:0.5 242:0.5 #
0.33333333362478673178586063841067 64:0.5 126:0.5 225:0.5 306:0.5 #
0.33333333362478673178586063841067 60:0.5 118:0.5 225:0.5 286:0.5 #
0.33333333362478673178586063841067 45:0.5 125:0.5 213:0.5 286:0.5 #
-0.26569689087691950035718946310226 16:0.5 142:0.5 225:0.5 286:0.5 #
-0.33333333362478673178586063841067 45:0.5 146:0.5 186:0.5 306:0.5 #
0.13428096726627711254842267862841 59:0.5 146:0.5 187:0.5 293:0.5 #
0.33333333362478673178586063841067 59:0.5 94:0.5 219:0.5 251:0.5 #
-0.33333333362478673178586063841067 59:0.5 94:0.5 213:0.5 264:0.5 #
-0.33333333362478673178586063841067 59:0.5 94:0.5 213:0.5 261:0.5 #
-0.33333333362478673178586063841067 59:0.5 125:0.5 217:0.5 250:0.5 #
0.33333333362478673178586063841067 59:0.5 90:0.5 220:0.5 299:0.5 #
0.33333333362478673178586063841067 59:0.5 90:0.5 207:0.5 299:0.5 #
0.33333333362478673178586063841067 59:0.5 90:0.5 185:0.5 303:0.5 #
0.33333333362478673178586063841067 59:0.5 94:0.5 217:0.5 251:0.5 #
-0.026693060768052948722450778973325 60:0.5 90:0.5 170:0.5 299:0.5 #
0.33333333362478673178586063841067 59:0.5 115:0.5 227:0.5 250:0.5 #
-0.33333333362478673178586063841067 59:0.5 90:0.5 225:0.5 280:0.5 #
-0.33333333362478673178586063841067 59:0.5 90:0.5 223:0.5 303:0.5 #
-0.33333333362478673178586063841067 59:0.5 90:0.5 224:0.5 303:0.5 #
0.33333333362478673178586063841067 16:0.5 107:0.5 213:0.5 262:0.5 #
0.33333333362478673178586063841067 61:0.5 144:0.5 213:0.5 264:0.5 #
-0.29518472155158070879821252674446 57:0.5 96:0.5 208:0.5 262:0.5 #
0.33333333362478673178586063841067 59:0.5 90:0.5 170:0.5 298:0.5 #
-0.33333333362478673178586063841067 59:0.5 107:0.5 227:0.5 262:0.5 #
-0.33333333362478673178586063841067 64:0.5 105:0.5 215:0.5 262:0.5 #
-0.30478662492808850092984584989608 69:0.5 127:0.5 228:0.5 262:0.5 #
0.33333333362478673178586063841067 59:0.5 90:0.5 225:0.5 299:0.5 #
0.33333333362478673178586063841067 59:0.5 90:0.5 216:0.5 302:0.5 #
-0.33333333362478673178586063841067 57:0.5 90:0.5 170:0.5 299:0.5 #
-0.33333333362478673178586063841067 59:0.5 90:0.5 170:0.5 297:0.5 #
-0.14148142470700378336978531024215 59:0.5 90:0.5 225:0.5 264:0.5 #
-0.33333333362478673178586063841067 59:0.5 90:0.5 213:0.5 264:0.5 #
0.33333333362478673178586063841067 69:0.5 125:0.5 228:0.5 261:0.5 #
0.33333333362478673178586063841067 2:0.5 101:0.5 224:0.5 262:0.5 #
0.33333333362478673178586063841067 45:0.5 81:0.5 161:0.5 262:0.5 #
-0.30925598580982788243787240389793 45:0.5 84:0.5 185:0.5 286:0.5 #
-0.33333333362478673178586063841067 14:0.5 144:0.5 228:0.5 286:0.5 #
-0.043573581682731982178680141259974 2:0.5 146:0.5 222:0.5 298:0.5 #
0.33333333362478673178586063841067 57:0.5 90:0.5 170:0.5 276:0.5 #
0.33333333362478673178586063841067 57:0.5 90:0.5 170:0.5 274:0.5 #
0.33333333362478673178586063841067 59:0.5 90:0.5 217:0.5 303:0.5 #
0.33333333362478673178586063841067 59:0.5 94:0.5 228:0.5 264:0.5 #
-0.33333333362478673178586063841067 57:0.5 90:0.5 170:0.5 298:0.5 #
-0.12970470745737219808724205449835 59:0.5 141:0.5 215:0.5 302:0.5 #
-0.23885546007856015005010874574509 57:0.5 90:0.5 195:0.5 243:0.5 #
0.33333333362478673178586063841067 3:0.57735026 105:0.57735026 196:0.57735026 #
0.33333333362478673178586063841067 4:0.5 105:0.5 196:0.5 304:0.5 #
-0.019001830999651244530346261285558 53:0.5 125:0.5 220:0.5 250:0.5 #
-0.33333333362478673178586063841067 59:0.5 94:0.5 196:0.5 241:0.5 #
-0.33333333362478673178586063841067 59:0.5 94:0.5 228:0.5 261:0.5 #
-0.33333333362478673178586063841067 59:0.5 143:0.5 216:0.5 302:0.5 #
0.33333333362478673178586063841067 57:0.5 90:0.5 224:0.5 274:0.5 #
0.33333333362478673178586063841067 57:0.5 146:0.5 213:0.5 261:0.5 #
0.33333333362478673178586063841067 57:0.5 90:0.5 228:0.5 278:0.5 #
0.33333333362478673178586063841067 59:0.5 94:0.5 182:0.5 298:0.5 #
-0.031262625597196003202071779014659 59:0.5 90:0.5 221:0.5 244:0.5 #
-0.18416421443838382199231773483916 57:0.5 90:0.5 224:0.5 242:0.5 #
0.33333333362478673178586063841067 3:0.5 107:0.5 195:0.5 304:0.5 #
0.33333333362478673178586063841067 59:0.57735026 94:0.57735026 220:0.57735026 #
-0.058003956728547648169502792825369 57:0.5 90:0.5 194:0.5 242:0.5 #
-0.33333333362478673178586063841067 63:0.5 105:0.5 213:0.5 264:0.5 #
-0.044959383281145966215763820628126 71:0.5 94:0.5 219:0.5 251:0.5 #
0.33333333362478673178586063841067 59:0.5 82:0.5 224:0.5 302:0.5 #
0.33333333362478673178586063841067 59:0.5 107:0.5 215:0.5 302:0.5 #
-0.04151653934064152007277215261638 59:0.5 116:0.5 173:0.5 302:0.5 #
-0.026492016368104477630485149575179 59:0.5 114:0.5 170:0.5 302:0.5 #
-0.023671463203823659565694370598976 68:0.5 125:0.5 217:0.5 252:0.5 #
0.33333333362478673178586063841067 10:0.5 105:0.5 214:0.5 266:0.5 #
0.33333333362478673178586063841067 54:0.5 92:0.5 162:0.5 249:0.5 #
0.33333333362478673178586063841067 62:0.5 143:0.5 172:0.5 298:0.5 #
0.33333333362478673178586063841067 59:0.5 115:0.5 174:0.5 302:0.5 #
-0.33333333362478673178586063841067 60:0.5 94:0.5 182:0.5 298:0.5 #
-0.33333333362478673178586063841067 65:0.5 102:0.5 228:0.5 266:0.5 #
-0.11953512551148186282556906689933 65:0.5 107:0.5 217:0.5 252:0.5 #
0.33333333362478673178586063841067 59:0.5 105:0.5 215:0.5 302:0.5 #
0.33333333362478673178586063841067 59:0.5 144:0.5 169:0.5 302:0.5 #
-0.33333333362478673178586063841067 59:0.5 115:0.5 174:0.5 303:0.5 #
-0.33333333362478673178586063841067 59:0.5 115:0.5 174:0.5 304:0.5 #
-0.33333333362478673178586063841067 59:0.5 105:0.5 169:0.5 262:0.5 #
0.33333333362478673178586063841067 65:0.5 104:0.5 228:0.5 266:0.5 #
0.33333333362478673178586063841067 65:0.5 127:0.5 197:0.5 266:0.5 #
0.33333333362478673178586063841067 68:0.5 116:0.5 183:0.5 298:0.5 #
-0.33333333362478673178586063841067 65:0.5 101:0.5 228:0.5 266:0.5 #
-0.13350363726853170520669777943112 65:0.5 101:0.5 227:0.5 266:0.5 #
-0.33333333362478673178586063841067 65:0.5 104:0.5 228:0.5 268:0.5 #
0.33333333362478673178586063841067 59:0.5 146:0.5 174:0.5 262:0.5 #
0.33333333362478673178586063841067 59:0.5 148:0.5 174:0.5 262:0.5 #
-0.17653318914639010150935405363271 59:0.5 90:0.5 215:0.5 262:0.5 #
0.33333333362478673178586063841067 59:0.5 115:0.5 227:0.5 250:0.5 #
-0.33333333362478673178586063841067 59:0.5 148:0.5 216:0.5 262:0.5 #
-0.14621168736159015355546841874457 59:0.5 82:0.5 172:0.5 262:0.5 #
0.20989865176488864406678658269811 65:0.5 138:0.5 175:0.5 299:0.5 #
0.33333333362478673178586063841067 57:0.5 94:0.5 239:0.5 255:0.5 #
0.33333333362478673178586063841067 72:0.5 107:0.5 188:0.5 265:0.5 #
0.33333333362478673178586063841067 59:0.5 148:0.5 173:0.5 262:0.5 #
0.33333333362478673178586063841067 59:0.5 84:0.5 170:0.5 262:0.5 #
-0.33333333362478673178586063841067 68:0.5 104:0.5 225:0.5 265:0.5 #
-0.33333333362478673178586063841067 68:0.5 125:0.5 220:0.5 250:0.5 #
-0.33333333362478673178586063841067 59:0.5 116:0.5 175:0.5 302:0.5 #
0.33333333362478673178586063841067 59:0.5 90:0.5 224:0.5 262:0.5 #
0.33333333362478673178586063841067 59:0.5 90:0.5 213:0.5 262:0.5 #
-0.33333333362478673178586063841067 59:0.5 83:0.5 170:0.5 262:0.5 #
-0.33333333362478673178586063841067 59:0.5 126:0.5 170:0.5 262:0.5 #
-0.084497724922676514802688529925945 14:0.5 142:0.5 226:0.5 266:0.5 #
0.33333333362478673178586063841067 59:0.5 105:0.5 215:0.5 302:0.5 #
-0.33333333362478673178586063841067 59:0.5 126:0.5 219:0.5 250:0.5 #
-0.33333333362478673178586063841067 59:0.5 146:0.5 219:0.5 249:0.5 #
0.33333333362478673178586063841067 59:0.5 142:0.5 228:0.5 261:0.5 #
0.33333333362478673178586063841067 59:0.5 142:0.5 172:0.5 303:0.5 #
0.33333333362478673178586063841067 59:0.5 106:0.5 228:0.5 303:0.5 #
-0.33333333362478673178586063841067 59:0.5 142:0.5 227:0.5 262:0.5 #
-0.33333333362478673178586063841067 59:0.5 95:0.5 183:0.5 298:0.5 #
-0.33333333362478673178586063841067 59:0.5 95:0.5 183:0.5 299:0.5 #
0.33333333362478673178586063841067 9:0.5 146:0.5 219:0.5 250:0.5 #
0.29635816540580323108500238049601 59:0.5 126:0.5 219:0.5 296:0.5 #
0.33333333362478673178586063841067 59:0.5 89:0.5 219:0.5 250:0.5 #
-0.33333333362478673178586063841067 59:0.5 126:0.5 219:0.5 250:0.5 #
-0.33333333362478673178586063841067 30:0.5 127:0.5 219:0.5 250:0.5 #
-0.33333333362478673178586063841067 59:0.5 144:0.5 219:0.5 251:0.5 #
0.33333333362478673178586063841067 59:0.5 142:0.5 225:0.5 262:0.5 #
0.33333333362478673178586063841067 59:0.5 82:0.5 227:0.5 242:0.5 #
0.33333333362478673178586063841067 59:0.5 95:0.5 219:0.5 250:0.5 #
-0.17248665864922060886321730777127 46:0.5 148:0.5 188:0.5 308:0.5 #
-0.33333333362478673178586063841067 61:0.5 142:0.5 214:0.5 242:0.5 #
-0.33333333362478673178586063841067 16:0.5 82:0.5 224:0.5 274:0.5 #
0.32657428536840837907107015780639 59:0.57735026 95:0.57735026 219:0.57735026 #
0.33333333362478673178586063841067 59:0.5 127:0.5 219:0.5 250:0.5 #
-0.33333333362478673178586063841067 59:0.5 90:0.5 219:0.5 249:0.5 #
-0.33333333362478673178586063841067 59:0.5 142:0.5 219:0.5 249:0.5 #
0.33333333362478673178586063841067 70:0.5 155:0.5 170:0.5 298:0.5 #
0.17268444992491654987887272909575 68:0.5 144:0.5 183:0.5 286:0.5 #
0.33333333362478673178586063841067 30:0.5 112:0.5 223:0.5 313:0.5 #
-0.33333333362478673178586063841067 13:0.5 107:0.5 213:0.5 261:0.5 #
-0.33333333362478673178586063841067 59:0.5 106:0.5 213:0.5 262:0.5 #
-0.33333333362478673178586063841067 59:0.5 89:0.5 213:0.5 302:0.5 #
0.33333333362478673178586063841067 59:0.5 94:0.5 182:0.5 249:0.5 #
0.33333333362478673178586063841067 59:0.5 94:0.5 219:0.5 249:0.5 #
0.33333333362478673178586063841067 16:0.5 107:0.5 213:0.5 262:0.5 #
-0.33333333362478673178586063841067 59:0.5 94:0.5 217:0.5 249:0.5 #
-0.33333333362478673178586063841067 59:0.5 94:0.5 207:0.5 262:0.5 #
-0.29454803633227027992447233373241 59:0.5 94:0.5 218:0.5 250:0.5 #
0.33333333362478673178586063841067 59:0.5 142:0.5 213:0.5 263:0.5 #
0.33333333362478673178586063841067 59:0.5 89:0.5 218:0.5 243:0.5 #
-0.33333333362478673178586063841067 59:0.5 107:0.5 213:0.5 263:0.5 #
-0.33333333362478673178586063841067 16:0.5 107:0.5 223:0.5 276:0.5 #
-0.33333333362478673178586063841067 62:0.5 143:0.5 213:0.5 243:0.5 #
0.33333333362478673178586063841067 59:0.5 83:0.5 175:0.5 299:0.5 #
0.33333333362478673178586063841067 59:0.5 106:0.5 232:0.5 268:0.5 #
-0.33333333362478673178586063841067 59:0.5 83:0.5 170:0.5 262:0.5 #
-0.33333333362478673178586063841067 59:0.5 95:0.5 182:0.5 298:0.5 #
0.021473924724729233359798996616519 59:0.5 142:0.5 170:0.5 302:0.5 #
-0.33333333362478673178586063841067 59:0.5 115:0.5 218:0.5 242:0.5 #
0.33333333362478673178586063841067 16:0.5 107:0.5 228:0.5 293:0.5 #
0.33333333362478673178586063841067 65:0.5 144:0.5 213:0.5 264:0.5 #
0.33333333362478673178586063841067 16:0.5 107:0.5 204:0.5 265:0.5 #
0.33333333362478673178586063841067 59:0.5 90:0.5 170:0.5 262:0.5 #
-0.030285448604943396994082505102597 16:0.5 107:0.5 219:0.5 252:0.5 #
-0.33333333362478673178586063841067 14:0.5 107:0.5 221:0.5 274:0.5 #
-0.33333333362478673178586063841067 14:0.5 107:0.5 221:0.5 273:0.5 #
0.33333333362478673178586063841067 59:0.5 115:0.5 172:0.5 301:0.5 #
-0.33333333362478673178586063841067 59:0.5 90:0.5 172:0.5 299:0.5 #
-0.33333333362478673178586063841067 59:0.5 115:0.5 176:0.5 301:0.5 #
-0.33333333362478673178586063841067 59:0.5 127:0.5 170:0.5 301:0.5 #
0.33333333362478673178586063841067 14:0.5 106:0.5 168:0.5 242:0.5 #
0.33333333362478673178586063841067 50:0.5 129:0.5 207:0.5 286:0.5 #
0.33333333362478673178586063841067 59:0.5 142:0.5 221:0.5 263:0.5 #
-0.33333333362478673178586063841067 66:0.5 103:0.5 228:0.5 265:0.5 #
-0.33333333362478673178586063841067 69:0.5 125:0.5 228:0.5 264:0.5 #
-0.10631393160814124609903075224793 66:0.5 101:0.5 228:0.5 265:0.5 #
0.33333333362478673178586063841067 59:0.5 126:0.5 213:0.5 307:0.5 #
0.33333333362478673178586063841067 59:0.5 107:0.5 228:0.5 262:0.5 #
0.32776003950331233927073526501772 59:0.5 86:0.5 170:0.5 301:0.5 #
-0.33198344581794780872030514728976 59:0.5 147:0.5 221:0.5 294:0.5 #
-0.33333333362478673178586063841067 59:0.5 142:0.5 213:0.5 304:0.5 #
0.33333333362478673178586063841067 59:0.5 125:0.5 228:0.5 264:0.5 #
0.33333333362478673178586063841067 66:0.5 149:0.5 171:0.5 274:0.5 #
0.33333333362478673178586063841067 36:0.5 103:0.5 208:0.5 299:0.5 #
-0.2155654016870431899377535955864 48:0.5 145:0.5 188:0.5 307:0.5 #
-0.33333333362478673178586063841067 70:0.5 125:0.5 170:0.5 261:0.5 #
-0.33021810299557619039489964052336 59:0.5 96:0.5 208:0.5 264:0.5 #
0.33333333362478673178586063841067 59:0.5 142:0.5 213:0.5 243:0.5 #
0.33333333362478673178586063841067 59:0.5 96:0.5 213:0.5 262:0.5 #
0.33333333362478673178586063841067 59:0.5 125:0.5 213:0.5 304:0.5 #
0.22390020934603888091984913444321 59:0.5 141:0.5 219:0.5 242:0.5 #
-0.33333333362478673178586063841067 59:0.5 92:0.5 213:0.5 262:0.5 #
-0.33333333362478673178586063841067 59:0.5 126:0.5 213:0.5 262:0.5 #
-0.33333333362478673178586063841067 59:0.5 128:0.5 213:0.5 262:0.5 #
0.33333333362478673178586063841067 45:0.5 147:0.5 188:0.5 306:0.5 #
0.33333333362478673178586063841067 61:0.5 127:0.5 194:0.5 302:0.5 #
0.33333333362478673178586063841067 14:0.5 108:0.5 208:0.5 294:0.5 #
-0.040288940129412739721281866422942 45:0.5 147:0.5 186:0.5 306:0.5 #
0.33333333362478673178586063841067 59:0.5 90:0.5 213:0.5 262:0.5 #
-0.33333333362478673178586063841067 14:0.5 108:0.5 222:0.5 274:0.5 #
0.33333333362478673178586063841067 59:0.5 134:0.5 223:0.5 261:0.5 #
-0.33333333362478673178586063841067 59:0.5 89:0.5 195:0.5 243:0.5 #
0.33333333362478673178586063841067 59:0.5 146:0.5 221:0.5 262:0.5 #
0.33333333362478673178586063841067 59:0.5 125:0.5 223:0.5 262:0.5 #
-0.33333333362478673178586063841067 59:0.5 146:0.5 224:0.5 295:0.5 #
-0.33333333362478673178586063841067 59:0.5 146:0.5 226:0.5 294:0.5 #
-0.33333333362478673178586063841067 59:0.5 146:0.5 194:0.5 250:0.5 #
0.33333333362478673178586063841067 3:0.57735026 108:0.57735026 195:0.57735026 #
0.33333333362478673178586063841067 3:0.5 108:0.5 195:0.5 301:0.5 #
0.33333333362478673178586063841067 2:0.5 147:0.5 175:0.5 298:0.5 #
0.33333333362478673178586063841067 59:0.5 146:0.5 228:0.5 264:0.5 #
0.095436445027570773746994348130102 55:0.5 121:0.5 162:0.5 298:0.5 #
-0.33333333362478673178586063841067 3:0.5 142:0.5 213:0.5 301:0.5 #
-0.33333333362478673178586063841067 2:0.5 142:0.5 213:0.5 301:0.5 #
0.33333333362478673178586063841067 59:0.5 146:0.5 224:0.5 303:0.5 #
0.31035846354543533687220246974903 59:0.5 146:0.5 224:0.5 294:0.5 #
-0.33333333362478673178586063841067 59:0.5 90:0.5 228:0.5 261:0.5 #
-0.33333333362478673178586063841067 3:0.5 146:0.5 224:0.5 299:0.5 #
-0.33333333362478673178586063841067 59:0.5 127:0.5 228:0.5 262:0.5 #
0.33333333362478673178586063841067 51:0.5 142:0.5 227:0.5 295:0.5 #
0.33333333362478673178586063841067 35:0.5 142:0.5 170:0.5 301:0.5 #
0.33333333362478673178586063841067 59:0.5 90:0.5 213:0.5 262:0.5 #
-0.087256695837567635476439420472161 45:0.5 146:0.5 187:0.5 306:0.5 #
-0.09527525341533607527999549802189 59:0.5 143:0.5 216:0.5 301:0.5 #
-0.073320871495606634860031647349388 13:0.5 142:0.5 227:0.5 267:0.5 #
0.33333333362478673178586063841067 59:0.57735026 140:0.57735026 213:0.57735026 #
0.33333333362478673178586063841067 67:0.5 93:0.5 219:0.5 250:0.5 #
-0.33333333362478673178586063841067 59:0.5 108:0.5 213:0.5 262:0.5 #
-0.33333333362478673178586063841067 59:0.5 108:0.5 213:0.5 242:0.5 #
-0.33333333362478673178586063841067 59:0.5 106:0.5 213:0.5 244:0.5 #
0.33333333362478673178586063841067 4:0.5 83:0.5 216:0.5 307:0.5 #
0.33333333362478673178586063841067 64:0.5 128:0.5 194:0.5 302:0.5 #
0.33333333362478673178586063841067 59:0.5 142:0.5 213:0.5 263:0.5 #
-0.24308487782240584262893889899715 4:0.5 144:0.5 216:0.5 304:0.5 #
-0.33333333362478673178586063841067 67:0.5 107:0.5 219:0.5 252:0.5 #
-0.33333333362478673178586063841067 47:0.5 146:0.5 188:0.5 307:0.5 #
0.33333333362478673178586063841067 59:0.5 106:0.5 213:0.5 295:0.5 #
0.33333333362478673178586063841067 59:0.5 142:0.5 213:0.5 242:0.5 #
0.33333333362478673178586063841067 59:0.5 106:0.5 213:0.5 293:0.5 #
-0.33333333362478673178586063841067 59:0.5 142:0.5 214:0.5 302:0.5 #
-0.33333333362478673178586063841067 59:0.5 90:0.5 213:0.5 263:0.5 #
-0.33333333362478673178586063841067 59:0.5 128:0.5 213:0.5 302:0.5 #
-0.33333333362478673178586063841067 59:0.5 106:0.5 213:0.5 264:0.5 #
0.33333333362478673178586063841067 47:0.5 110:0.5 231:0.5 267:0.5 #
0.33333333362478673178586063841067 48:0.5 107:0.5 188:0.5 265:0.5 #
0.33333333362478673178586063841067 2:0.5 107:0.5 195:0.5 304:0.5 #
-0.32982527333394567881086345551012 60:0.5 107:0.5 170:0.5 262:0.5 #
-0.12588048742644694644177150166797 48:0.5 81:0.5 188:0.5 287:0.5 #
0.33333333362478673178586063841067 59:0.5 146:0.5 213:0.5 244:0.5 #
0.33333333362478673178586063841067 59:0.5 96:0.5 219:0.5 252:0.5 #
0.33333333362478673178586063841067 59:0.5 148:0.5 213:0.5 301:0.5 #
-0.33333333362478673178586063841067 59:0.5 96:0.5 207:0.5 263:0.5 #
-0.33333333362478673178586063841067 59:0.5 143:0.5 213:0.5 301:0.5 #
-0.33333333362478673178586063841067 59:0.5 146:0.5 219:0.5 249:0.5 #
0.33333333362478673178586063841067 14:0.5 107:0.5 222:0.5 262:0.5 #
0.33333333362478673178586063841067 14:0.5 107:0.5 186:0.5 262:0.5 #
0.33333333362478673178586063841067 69:0.5 84:0.5 170:0.5 262:0.5 #
-0.32990908348928343896133696944162 60:0.5 107:0.5 170:0.5 262:0.5 #
-0.33333333362478673178586063841067 57:0.5 107:0.5 170:0.5 262:0.5 #
-0.028567397470109140433791594659851 48:0.5 148:0.5 188:0.5 308:0.5 #
0.33333333362478673178586063841067 59:0.5 126:0.5 188:0.5 304:0.5 #
0.33333333362478673178586063841067 59:0.5 90:0.5 217:0.5 243:0.5 #
-0.20262916857926552283153398548166 59:0.5 89:0.5 195:0.5 243:0.5 #
-0.33333333362478673178586063841067 59:0.5 93:0.5 195:0.5 243:0.5 #
-0.33333333362478673178586063841067 59:0.5 90:0.5 213:0.5 304:0.5 #
-0.30885711158877449111770374656771 59:0.5 115:0.5 173:0.5 304:0.5 #
0.33333333362478673178586063841067 60:0.5 151:0.5 196:0.5 247:0.5 #
0.33333333362478673178586063841067 57:0.5 90:0.5 221:0.5 302:0.5 #
0.33333333362478673178586063841067 59:0.5 125:0.5 170:0.5 262:0.5 #
-0.33333333362478673178586063841067 14:0.5 148:0.5 216:0.5 302:0.5 #
-0.33333333362478673178586063841067 45:0.5 84:0.5 188:0.5 288:0.5 #
-0.064185927506886619742232369389967 47:0.5 84:0.5 188:0.5 288:0.5 #
0.33333333362478673178586063841067 59:0.57735026 93:0.57735026 220:0.57735026 #
0.33333333362478673178586063841067 59:0.5 115:0.5 172:0.5 301:0.5 #
-0.27436743970461130448512676593964 59:0.5 82:0.5 172:0.5 262:0.5 #
0.33333333362478673178586063841067 4:0.5 83:0.5 216:0.5 307:0.5 #
-0.33333333362478673178586063841067 59:0.5 125:0.5 220:0.5 250:0.5 #
0.097435565155507178336513618432946 59:0.5 82:0.5 228:0.5 306:0.5 #
-0.33333333362478673178586063841067 59:0.5 90:0.5 196:0.5 241:0.5 #
0.33333333362478673178586063841067 53:0.5 104:0.5 213:0.5 288:0.5 #
0.33333333362478673178586063841067 62:0.5 96:0.5 227:0.5 274:0.5 #
0.33333333362478673178586063841067 14:0.5 105:0.5 214:0.5 266:0.5 #
-0.33333333362478673178586063841067 1:0.5 144:0.5 213:0.5 301:0.5 #
-0.099112498700748966062867850723705 65:0.5 104:0.5 227:0.5 267:0.5 #
-0.18282932314854805078141453122953 58:0.5 115:0.5 175:0.5 301:0.5 #
0.33333333362478673178586063841067 59:0.5 143:0.5 228:0.5 262:0.5 #
0.33333333362478673178586063841067 59:0.5 147:0.5 219:0.5 250:0.5 #
0.33333333362478673178586063841067 59:0.5 107:0.5 216:0.5 302:0.5 #
-0.22176508623059384972542318337219 59:0.5 147:0.5 221:0.5 294:0.5 #
0.33333333362478673178586063841067 59:0.5 90:0.5 216:0.5 302:0.5 #
-0.33333333362478673178586063841067 35:0.5 96:0.5 217:0.5 250:0.5 #
-0.33333333362478673178586063841067 14:0.5 143:0.5 228:0.5 266:0.5 #
-0.33333333362478673178586063841067 54:0.5 105:0.5 219:0.5 249:0.5 #
0.33333333362478673178586063841067 54:0.5 90:0.5 225:0.5 298:0.5 #
0.33333333362478673178586063841067 59:0.5 125:0.5 226:0.5 291:0.5 #
0.33333333362478673178586063841067 58:0.5 90:0.5 219:0.5 242:0.5 #
0.33333333362478673178586063841067 59:0.5 82:0.5 184:0.5 250:0.5 #
-0.33333333362478673178586063841067 58:0.5 90:0.5 219:0.5 291:0.5 #
-0.063373740560373439945074380830192 47:0.5 148:0.5 188:0.5 308:0.5 #
0.33333333362478673178586063841067 1:0.5 144:0.5 213:0.5 244:0.5 #
0.33333333362478673178586063841067 59:0.5 94:0.5 219:0.5 249:0.5 #
-0.015676138899764709838668963470809 59:0.5 106:0.5 216:0.5 244:0.5 #
-0.33333333362478673178586063841067 59:0.5 107:0.5 216:0.5 244:0.5 #
-0.33333333362478673178586063841067 59:0.5 116:0.5 175:0.5 302:0.5 #
0.33333333362478673178586063841067 58:0.5 136:0.5 207:0.5 309:0.5 #
0.33333333362478673178586063841067 58:0.5 90:0.5 219:0.5 242:0.5 #
0.33333333362478673178586063841067 13:0.5 134:0.5 219:0.5 263:0.5 #
0.33333333362478673178586063841067 59:0.5 146:0.5 216:0.5 294:0.5 #
-0.33333333362478673178586063841067 36:0.5 94:0.5 219:0.5 251:0.5 #
-0.33333333362478673178586063841067 60:0.5 91:0.5 219:0.5 291:0.5 #
-0.33333333362478673178586063841067 54:0.5 125:0.5 219:0.5 249:0.5 #
0.33333333362478673178586063841067 59:0.5 107:0.5 213:0.5 241:0.5 #
-0.33333333362478673178586063841067 59:0.5 107:0.5 216:0.5 242:0.5 #
-0.33333333362478673178586063841067 59:0.5 107:0.5 216:0.5 262:0.5 #
0.33333333362478673178586063841067 45:0.5 106:0.5 219:0.5 250:0.5 #
0.33333333362478673178586063841067 30:0.5 125:0.5 219:0.5 250:0.5 #
0.33333333362478673178586063841067 46:0.5 106:0.5 219:0.5 250:0.5 #
0.33333333362478673178586063841067 59:0.5 143:0.5 228:0.5 262:0.5 #
0.33333333362478673178586063841067 59:0.5 107:0.5 216:0.5 302:0.5 #
-0.33333333362478673178586063841067 59:0.5 146:0.5 219:0.5 252:0.5 #
-0.33278645572157283805125871367636 46:0.5 146:0.5 187:0.5 307:0.5 #
-0.33333333362478673178586063841067 59:0.5 146:0.5 193:0.5 250:0.5 #
0.33333333362478673178586063841067 59:0.5 107:0.5 169:0.5 242:0.5 #
0.10752142416056650886524437282787 3:0.5 107:0.5 194:0.5 301:0.5 #
-0.33333333362478673178586063841067 59:0.5 107:0.5 216:0.5 242:0.5 #
-0.33333333362478673178586063841067 59:0.5 107:0.5 214:0.5 242:0.5 #
-0.33333333362478673178586063841067 59:0.5 125:0.5 169:0.5 262:0.5 #
0.33333333362478673178586063841067 59:0.5 146:0.5 188:0.5 243:0.5 #
0.33333333362478673178586063841067 59:0.5 146:0.5 188:0.5 244:0.5 #
0.20683615904258528805925720917003 24:0.5 146:0.5 219:0.5 250:0.5 #
0.33333333362478673178586063841067 59:0.5 107:0.5 169:0.5 242:0.5 #
-0.33333333362478673178586063841067 45:0.5 83:0.5 188:0.5 286:0.5 #
-0.15633207779492228062245828823507 59:0.5 95:0.5 194:0.5 244:0.5 #
-0.33333333362478673178586063841067 59:0.5 113:0.5 174:0.5 302:0.5 #
0.33333333362478673178586063841067 59:0.5 125:0.5 170:0.5 261:0.5 #
0.33333333362478673178586063841067 59:0.5 94:0.5 220:0.5 242:0.5 #
0.33333333362478673178586063841067 59:0.5 125:0.5 170:0.5 262:0.5 #
-0.33333333362478673178586063841067 59:0.5 94:0.5 228:0.5 263:0.5 #
-0.33333333362478673178586063841067 59:0.5 94:0.5 194:0.5 244:0.5 #
0.33333333362478673178586063841067 26:0.5 89:0.5 187:0.5 270:0.5 #
0.33333333362478673178586063841067 45:0.5 125:0.5 213:0.5 286:0.5 #
0.33333333362478673178586063841067 66:0.5 128:0.5 200:0.5 266:0.5 #
0.33333333362478673178586063841067 59:0.5 94:0.5 219:0.5 251:0.5 #
-0.20703891680902253291662873380119 3:0.5 106:0.5 215:0.5 242:0.5 #
-0.33333333362478673178586063841067 59:0.5 125:0.5 226:0.5 262:0.5 #
-0.33333333362478673178586063841067 3:0.57735026 125:0.57735026 215:0.57735026 #
0.33333333362478673178586063841067 59:0.5 94:0.5 228:0.5 262:0.5 #
0.33333333362478673178586063841067 59:0.5 115:0.5 174:0.5 302:0.5 #
-0.33333333362478673178586063841067 59:0.5 125:0.5 219:0.5 251:0.5 #
-0.33333333362478673178586063841067 59:0.5 146:0.5 219:0.5 251:0.5 #
0.33333333362478673178586063841067 59:0.5 102:0.5 227:0.5 307:0.5 #
0.26903264368284685037480130631593 59:0.5 84:0.5 174:0.5 299:0.5 #
-0.33333333362478673178586063841067 59:0.5 94:0.5 228:0.5 263:0.5 #
0.33333333362478673178586063841067 59:0.5 94:0.5 219:0.5 251:0.5 #
-0.33333333362478673178586063841067 59:0.5 90:0.5 169:0.5 299:0.5 #
-0.33333333362478673178586063841067 59:0.5 145:0.5 223:0.5 295:0.5 #
0.33333333362478673178586063841067 59:0.5 113:0.5 219:0.5 242:0.5 #
0.33333333362478673178586063841067 59:0.5 146:0.5 176:0.5 262:0.5 #
0.33333333362478673178586063841067 59:0.5 142:0.5 213:0.5 263:0.5 #
0.33333333362478673178586063841067 59:0.5 83:0.5 175:0.5 299:0.5 #
-0.33333333362478673178586063841067 59:0.5 114:0.5 219:0.5 242:0.5 #
-0.33333333362478673178586063841067 59:0.5 94:0.5 225:0.5 262:0.5 #
-0.33333333362478673178586063841067 59:0.5 94:0.5 206:0.5 262:0.5 #
0.33333333362478673178586063841067 59:0.5 90:0.5 217:0.5 291:0.5 #
0.33333333362478673178586063841067 36:0.5 90:0.5 195:0.5 287:0.5 #
0.33333333362478673178586063841067 59:0.5 90:0.5 217:0.5 267:0.5 #
0.33333333362478673178586063841067 59:0.5 94:0.5 228:0.5 262:0.5 #
-0.33333333362478673178586063841067 59:0.5 143:0.5 213:0.5 302:0.5 #
-0.33333333362478673178586063841067 59:0.5 90:0.5 213:0.5 261:0.5 #
-0.33333333362478673178586063841067 59:0.5 90:0.5 222:0.5 275:0.5 #
0.33333333362478673178586063841067 59:0.5 103:0.5 228:0.5 262:0.5 #
0.33333333362478673178586063841067 65:0.5 125:0.5 205:0.5 262:0.5 #
-0.33333333362478673178586063841067 59:0.5 128:0.5 228:0.5 262:0.5 #
0.33333333362478673178586063841067 59:0.5 90:0.5 183:0.5 275:0.5 #
-0.33333333362478673178586063841067 72:0.5 125:0.5 170:0.5 262:0.5 #
-0.050990733516698159843993920503635 68:0.5 101:0.5 226:0.5 266:0.5 #
-0.33333333362478673178586063841067 59:0.5 82:0.5 170:0.5 262:0.5 #
-0.33333333362478673178586063841067 59:0.5 106:0.5 170:0.5 262:0.5 #
0.33333333362478673178586063841067 59:0.5 104:0.5 213:0.5 302:0.5 #
0.22657613102380724789952637365786 59:0.5 144:0.5 213:0.5 301:0.5 #
0.33333333362478673178586063841067 59:0.5 142:0.5 225:0.5 262:0.5 #
-0.33333333362478673178586063841067 1:0.5 144:0.5 213:0.5 304:0.5 #
-0.33333333362478673178586063841067 59:0.5 144:0.5 220:0.5 250:0.5 #
-0.33333333362478673178586063841067 59:0.5 152:0.5 217:0.5 250:0.5 #
0.33333333362478673178586063841067 59:0.5 125:0.5 170:0.5 262:0.5 #
0.2684491736802859240818008856877 68:0.5 128:0.5 219:0.5 262:0.5 #
-0.33333333362478673178586063841067 59:0.5 125:0.5 219:0.5 251:0.5 #
-0.33333333362478673178586063841067 59:0.5 128:0.5 228:0.5 262:0.5 #
0.33333333362478673178586063841067 1:0.5 144:0.5 213:0.5 244:0.5 #
-0.33333333362478673178586063841067 59:0.5 93:0.5 213:0.5 262:0.5 #
-0.33333333362478673178586063841067 59:0.5 142:0.5 226:0.5 262:0.5 #
-0.33333333362478673178586063841067 59:0.5 142:0.5 215:0.5 301:0.5 #
0.33333333362478673178586063841067 59:0.5 148:0.5 208:0.5 250:0.5 #
0.33333333362478673178586063841067 67:0.5 107:0.5 167:0.5 250:0.5 #
0.33333333362478673178586063841067 59:0.5 148:0.5 205:0.5 250:0.5 #
0.33333333362478673178586063841067 59:0.5 94:0.5 219:0.5 251:0.5 #
-0.33333333362478673178586063841067 59:0.5 148:0.5 196:0.5 250:0.5 #
-0.33333333362478673178586063841067 67:0.5 102:0.5 225:0.5 266:0.5 #
-0.26675505997713805372839601659507 67:0.5 104:0.5 225:0.5 265:0.5 #
0.33333333362478673178586063841067 59:0.5 126:0.5 228:0.5 303:0.5 #
0.33333333362478673178586063841067 59:0.5 90:0.5 220:0.5 290:0.5 #
-0.33333333362478673178586063841067 59:0.5 90:0.5 219:0.5 249:0.5 #
-0.33333333362478673178586063841067 59:0.5 94:0.5 205:0.5 264:0.5 #
-0.33333333362478673178586063841067 59:0.5 94:0.5 205:0.5 261:0.5 #
-0.33333333362478673178586063841067 59:0.5 90:0.5 228:0.5 280:0.5 #
0.33308294078690808825982117014064 27:0.5 119:0.5 223:0.5 266:0.5 #
0.33333333362478673178586063841067 14:0.5 106:0.5 216:0.5 266:0.5 #
0.33333333362478673178586063841067 3:0.5 118:0.5 223:0.5 277:0.5 #
0.33333333362478673178586063841067 59:0.5 90:0.5 218:0.5 296:0.5 #
0.33333333362478673178586063841067 59:0.5 90:0.5 213:0.5 262:0.5 #
-0.33333333362478673178586063841067 14:0.5 84:0.5 223:0.5 274:0.5 #
-0.33333333362478673178586063841067 68:0.5 101:0.5 227:0.5 266:0.5 #
-0.13684684172511540900529780628858 2:0.5 148:0.5 223:0.5 298:0.5 #
0.33333333362478673178586063841067 59:0.5 90:0.5 217:0.5 311:0.5 #
0.33333333362478673178586063841067 59:0.5 94:0.5 182:0.5 298:0.5 #
-0.33333333362478673178586063841067 59:0.5 90:0.5 218:0.5 292:0.5 #
-0.33333333362478673178586063841067 59:0.5 90:0.5 224:0.5 243:0.5 #
-0.33333333362478673178586063841067 59:0.5 90:0.5 221:0.5 275:0.5 #
0.33333333362478673178586063841067 14:0.5 107:0.5 206:0.5 258:0.5 #
0.33333333362478673178586063841067 67:0.5 84:0.5 228:0.5 262:0.5 #
0.33333333362478673178586063841067 68:0.5 147:0.5 239:0.5 286:0.5 #
-0.33333333362478673178586063841067 3:0.5 142:0.5 213:0.5 303:0.5 #
-0.33333333362478673178586063841067 59:0.5 126:0.5 208:0.5 262:0.5 #
-0.089365062877609077740537202316773 3:0.5 147:0.5 222:0.5 298:0.5 #
0.33333333362478673178586063841067 59:0.5 90:0.5 220:0.5 265:0.5 #
0.33333333362478673178586063841067 59:0.5 146:0.5 221:0.5 262:0.5 #
-0.33333333362478673178586063841067 53:0.5 107:0.5 220:0.5 250:0.5 #
-0.33333333362478673178586063841067 59:0.5 91:0.5 220:0.5 290:0.5 #
-0.33333333362478673178586063841067 59:0.5 147:0.5 223:0.5 296:0.5 #
0.33333333362478673178586063841067 59:0.5 102:0.5 171:0.5 319:0.5 #
0.33333333362478673178586063841067 59:0.5 146:0.5 221:0.5 301:0.5 #
0.33333333362478673178586063841067 59:0.5 142:0.5 223:0.5 267:0.5 #
-0.33333333362478673178586063841067 59:0.5 94:0.5 171:0.5 262:0.5 #
-0.26752696954846616472778464412841 59:0.5 96:0.5 171:0.5 262:0.5 #
-0.33333333362478673178586063841067 59:0.5 126:0.5 228:0.5 262:0.5 #
0.33333333362478673178586063841067 36:0.5 90:0.5 225:0.5 306:0.5 #
0.33333333362478673178586063841067 47:0.5 152:0.5 219:0.5 250:0.5 #
0.088562321495804438575838446467969 59:0.5 107:0.5 213:0.5 242:0.5 #
-0.33333333362478673178586063841067 60:0.5 90:0.5 195:0.5 244:0.5 #
-0.23512503751088192904816764894349 57:0.5 90:0.5 171:0.5 299:0.5 #
-0.33333333362478673178586063841067 47:0.5 146:0.5 186:0.5 307:0.5 #
0.33333333362478673178586063841067 59:0.5 125:0.5 224:0.5 262:0.5 #
0.33333333362478673178586063841067 59:0.5 126:0.5 220:0.5 296:0.5 #
-0.33333333362478673178586063841067 59:0.5 90:0.5 225:0.5 277:0.5 #
-0.33333333362478673178586063841067 59:0.5 142:0.5 219:0.5 251:0.5 #
-0.33333333362478673178586063841067 59:0.5 146:0.5 217:0.5 250:0.5 #
0.33333333362478673178586063841067 60:0.5 90:0.5 213:0.5 266:0.5 #
-0.33333333362478673178586063841067 4:0.5 141:0.5 213:0.5 302:0.5 #
-0.33333333362478673178586063841067 58:0.5 125:0.5 213:0.5 303:0.5 #
0.33333333362478673178586063841067 59:0.5 96:0.5 219:0.5 249:0.5 #
0.33333333362478673178586063841067 59:0.5 107:0.5 215:0.5 302:0.5 #
-0.33333333362478673178586063841067 59:0.5 151:0.5 219:0.5 249:0.5 #
-0.33333333362478673178586063841067 59:0.5 83:0.5 219:0.5 249:0.5 #
-0.33333333362478673178586063841067 59:0.5 113:0.5 174:0.5 302:0.5 #
0.33333333362478673178586063841067 35:0.5 125:0.5 213:0.5 303:0.5 #
0.33333333362478673178586063841067 3:0.57735026 125:0.57735026 213:0.57735026 #
0.33333333362478673178586063841067 3:0.5 107:0.5 194:0.5 303:0.5 #
-0.33333333362478673178586063841067 68:0.5 103:0.5 226:0.5 266:0.5 #
-0.33333333362478673178586063841067 13:0.5 107:0.5 222:0.5 274:0.5 #
0.33333333362478673178586063841067 59:0.5 94:0.5 219:0.5 249:0.5 #
-0.33333333362478673178586063841067 59:0.5 94:0.5 193:0.5 242:0.5 #
-0.33333333362478673178586063841067 59:0.5 94:0.5 196:0.5 242:0.5 #
-0.33333333362478673178586063841067 59:0.5 94:0.5 220:0.5 251:0.5 #
0.21167290411637099123431937641726 62:0.5 128:0.5 196:0.5 302:0.5 #
0.33333333362478673178586063841067 64:0.5 128:0.5 196:0.5 302:0.5 #
0.32531462066246052966533852668363 61:0.5 126:0.5 196:0.5 302:0.5 #
0.33333333362478673178586063841067 59:0.57735026 94:0.57735026 217:0.57735026 #
-0.33333333362478673178586063841067 31:0.5 126:0.5 219:0.5 250:0.5 #
-0.33333333362478673178586063841067 30:0.5 126:0.5 219:0.5 250:0.5 #
-0.30194887513195395323251091213024 57:0.5 115:0.5 174:0.5 302:0.5 #
0.33333333362478673178586063841067 59:0.5 82:0.5 228:0.5 242:0.5 #
0.33333333362478673178586063841067 59:0.5 146:0.5 173:0.5 242:0.5 #
0.33333333362478673178586063841067 1:0.5 101:0.5 219:0.5 250:0.5 #
-0.33333333362478673178586063841067 59:0.5 126:0.5 228:0.5 262:0.5 #
0.32306665255770533606849426178087 29:0.5 101:0.5 219:0.5 250:0.5 #
0.2493485731151482975853639345587 67:0.5 101:0.5 219:0.5 250:0.5 #
0.33333333362478673178586063841067 59:0.5 103:0.5 228:0.5 262:0.5 #
-0.33333333362478673178586063841067 15:0.5 82:0.5 219:0.5 250:0.5 #
-0.068702548887656145204516633384628 35:0.5 95:0.5 219:0.5 252:0.5 #
-0.33333333362478673178586063841067 59:0.5 150:0.5 217:0.5 250:0.5 #
0.33333333362478673178586063841067 59:0.5 148:0.5 174:0.5 262:0.5 #
0.33333333362478673178586063841067 14:0.5 105:0.5 222:0.5 262:0.5 #
-0.33333333362478673178586063841067 59:0.5 115:0.5 173:0.5 303:0.5 #
-0.33333333362478673178586063841067 59:0.5 106:0.5 172:0.5 262:0.5 #
-0.33333333362478673178586063841067 59:0.5 96:0.5 169:0.5 262:0.5 #
0.33333333362478673178586063841067 59:0.5 145:0.5 219:0.5 250:0.5 #
0.33333333362478673178586063841067 59:0.5 141:0.5 219:0.5 250:0.5 #
-0.33333333362478673178586063841067 59:0.5 114:0.5 219:0.5 250:0.5 #
-0.33333333362478673178586063841067 14:0.5 128:0.5 219:0.5 250:0.5 #
-0.33333333362478673178586063841067 14:0.5 127:0.5 219:0.5 250:0.5 #
0.33333333362478673178586063841067 59:0.5 150:0.5 225:0.5 303:0.5 #
0.33333333362478673178586063841067 59:0.5 115:0.5 172:0.5 301:0.5 #
0.33333333362478673178586063841067 59:0.5 126:0.5 186:0.5 303:0.5 #
-0.089460664437395920334239463045378 59:0.5 89:0.5 223:0.5 303:0.5 #
0.064661407813819196666038635612495 69:0.5 125:0.5 219:0.5 250:0.5 #
-0.28069843167597757771503097501409 59:0.5 105:0.5 215:0.5 242:0.5 #
0.30059022954948733108437863847939 22:0.5 146:0.5 219:0.5 250:0.5 #
0.32738399917928218130214190750849 57:0.5 107:0.5 219:0.5 250:0.5 #
0.33333333362478673178586063841067 59:0.5 90:0.5 217:0.5 243:0.5 #
-0.2536555613471385139945368791814 67:0.5 103:0.5 228:0.5 268:0.5 #
-7.2378806091692084330978251838218e-05 58:0.5 146:0.5 223:0.5 295:0.5 #
-0.33333333362478673178586063841067 3:0.5 146:0.5 224:0.5 298:0.5 #
0.30764843552694770556499292979424 59:0.5 84:0.5 173:0.5 299:0.5 #
-0.33333333362478673178586063841067 59:0.5 90:0.5 221:0.5 243:0.5 #
-0.33333333362478673178586063841067 59:0.5 90:0.5 172:0.5 300:0.5 #
-0.33333333362478673178586063841067 59:0.5 90:0.5 221:0.5 242:0.5 #
0.33333333362478673178586063841067 55:0.5 121:0.5 162:0.5 298:0.5 #
0.33333333362478673178586063841067 3:0.57735026 105:0.57735026 193:0.57735026 #
0.33333333362478673178586063841067 59:0.5 96:0.5 219:0.5 249:0.5 #
0.33333333362478673178586063841067 59:0.5 90:0.5 216:0.5 302:0.5 #
-0.0028294658996651919288800591800737 1:0.5 148:0.5 222:0.5 299:0.5 #
-0.28366644481214581263728291560255 1:0.5 148:0.5 222:0.5 298:0.5 #
-0.049149708137371683758232165928348 3:0.5 146:0.5 222:0.5 299:0.5 #
0.33333333362478673178586063841067 59:0.5 90:0.5 208:0.5 262:0.5 #
-0.32285639549704669981622373597929 59:0.5 116:0.5 173:0.5 302:0.5 #
-0.33333333362478673178586063841067 59:0.5 116:0.5 176:0.5 302:0.5 #
0.30429256193930359630783755164884 68:0.5 124:0.5 187:0.5 314:0.5 #
0.11388367785324053638174035540942 18:0.5 124:0.5 191:0.5 281:0.5 #
0.2710515406041147934423918286484 68:0.5 159:0.5 179:0.5 290:0.5 #
-0.33333333362478673178586063841067 68:0.5 105:0.5 219:0.5 251:0.5 #
-0.33333333362478673178586063841067 45:0.5 84:0.5 187:0.5 286:0.5 #
-0.33333333362478673178586063841067 57:0.5 96:0.5 205:0.5 262:0.5 #
-0.33333333362478673178586063841067 56:0.5 105:0.5 219:0.5 249:0.5 #
0.33333333362478673178586063841067 59:0.5 115:0.5 170:0.5 302:0.5 #
0.33333333362478673178586063841067 59:0.5 143:0.5 228:0.5 302:0.5 #
0.33333333362478673178586063841067 59:0.5 144:0.5 169:0.5 302:0.5 #
-0.33333333362478673178586063841067 59:0.5 127:0.5 213:0.5 302:0.5 #
-0.33333333362478673178586063841067 59:0.5 126:0.5 213:0.5 302:0.5 #
0.33333333362478673178586063841067 35:0.5 146:0.5 164:0.5 304:0.5 #
0.33083888982909070985982680213056 67:0.5 106:0.5 211:0.5 307:0.5 #
-0.33333333362478673178586063841067 60:0.5 125:0.5 228:0.5 262:0.5 #
-0.17099696276903139646741180968093 48:0.5 146:0.5 187:0.5 307:0.5 #
-0.33333333362478673178586063841067 59:0.5 107:0.5 170:0.5 261:0.5 #
0.33333333362478673178586063841067 59:0.5 148:0.5 205:0.5 250:0.5 #
0.33333333362478673178586063841067 59:0.5 126:0.5 186:0.5 295:0.5 #
0.33333333362478673178586063841067 59:0.5 142:0.5 213:0.5 305:0.5 #
-0.33333333362478673178586063841067 59:0.5 142:0.5 214:0.5 301:0.5 #
-0.17567221697261919954868858440022 59:0.5 148:0.5 220:0.5 250:0.5 #
0.20238460778627936909046525215672 1:0.5 125:0.5 213:0.5 262:0.5 #
0.33333333362478673178586063841067 65:0.5 127:0.5 198:0.5 266:0.5 #
0.33333333362478673178586063841067 66:0.5 127:0.5 197:0.5 266:0.5 #
0.33333333362478673178586063841067 59:0.57735026 94:0.57735026 220:0.57735026 #
-0.33333333362478673178586063841067 65:0.5 103:0.5 227:0.5 266:0.5 #
-0.33333333362478673178586063841067 59:0.5 95:0.5 213:0.5 262:0.5 #
-0.33333333362478673178586063841067 59:0.5 94:0.5 208:0.5 263:0.5 #
-0.33333333362478673178586063841067 59:0.5 94:0.5 205:0.5 263:0.5 #
0.33333333362478673178586063841067 59:0.57735026 107:0.57735026 170:0.57735026 #
-0.33333333362478673178586063841067 46:0.5 84:0.5 186:0.5 285:0.5 #
-0.33333333362478673178586063841067 59:0.57735026 92:0.57735026 170:0.57735026 #
-0.32425588372369168466136102324526 59:0.5 107:0.5 214:0.5 241:0.5 #
0.33333333362478673178586063841067 59:0.5 148:0.5 213:0.5 262:0.5 #
0.33333333362478673178586063841067 59:0.5 142:0.5 228:0.5 263:0.5 #
0.33333333362478673178586063841067 59:0.5 142:0.5 205:0.5 263:0.5 #
-0.33333333362478673178586063841067 59:0.5 126:0.5 228:0.5 262:0.5 #
-0.33333333362478673178586063841067 59:0.5 147:0.5 213:0.5 262:0.5 #
-0.33333333362478673178586063841067 59:0.5 126:0.5 205:0.5 262:0.5 #
0.22063116680984468098714046391251 38:0.5 156:0.5 191:0.5 241:0.5 #
0.33333333362478673178586063841067 66:0.5 120:0.5 191:0.5 241:0.5 #
-0.33333333362478673178586063841067 66:0.5 102:0.5 228:0.5 265:0.5 #
-0.015808015117577033092910454570301 59:0.5 105:0.5 220:0.5 250:0.5 #
-0.33333333362478673178586063841067 3:0.5 142:0.5 213:0.5 304:0.5 #
0.33333333362478673178586063841067 59:0.5 146:0.5 176:0.5 262:0.5 #
0.21717737079252183440836176941957 59:0.5 150:0.5 163:0.5 254:0.5 #
-0.33333333362478673178586063841067 59:0.5 90:0.5 221:0.5 241:0.5 #
-0.33333333362478673178586063841067 59:0.5 90:0.5 224:0.5 276:0.5 #
-0.33333333362478673178586063841067 59:0.5 90:0.5 224:0.5 244:0.5 #
0.33333333362478673178586063841067 65:0.5 126:0.5 200:0.5 266:0.5 #
0.17315518500740281759853189669229 66:0.5 126:0.5 200:0.5 266:0.5 #
-0.33333333362478673178586063841067 67:0.5 106:0.5 219:0.5 249:0.5 #
-0.33333333362478673178586063841067 58:0.5 143:0.5 219:0.5 250:0.5 #
0.33333333362478673178586063841067 59:0.5 94:0.5 195:0.5 303:0.5 #
0.33333333362478673178586063841067 59:0.5 90:0.5 161:0.5 241:0.5 #
-0.29925706802272517004226415338053 59:0.5 89:0.5 216:0.5 302:0.5 #
-0.33333333362478673178586063841067 59:0.5 126:0.5 216:0.5 302:0.5 #
-0.33333333362478673178586063841067 59:0.5 127:0.5 216:0.5 302:0.5 #
0.33333333362478673178586063841067 67:0.5 102:0.5 219:0.5 250:0.5 #
0.33333333362478673178586063841067 72:0.5 84:0.5 219:0.5 250:0.5 #
-0.3091568659242657779451235455781 67:0.5 102:0.5 227:0.5 266:0.5 #
-0.33333333362478673178586063841067 59:0.5 150:0.5 219:0.5 252:0.5 #
-0.33333333362478673178586063841067 16:0.5 142:0.5 225:0.5 266:0.5 #
-0.33333333362478673178586063841067 55:0.5 126:0.5 219:0.5 250:0.5 #
0.33333333362478673178586063841067 59:0.5 104:0.5 213:0.5 302:0.5 #
-0.33333333362478673178586063841067 59:0.5 127:0.5 213:0.5 302:0.5 #
0.33333333362478673178586063841067 59:0.5 94:0.5 219:0.5 249:0.5 #
-0.33333333362478673178586063841067 59:0.5 141:0.5 213:0.5 302:0.5 #
-0.33333333362478673178586063841067 59:0.5 143:0.5 213:0.5 303:0.5 #
-0.33333333362478673178586063841067 59:0.5 82:0.5 219:0.5 249:0.5 #
-0.33333333362478673178586063841067 59:0.5 106:0.5 219:0.5 249:0.5 #
0.33333333362478673178586063841067 63:0.5 144:0.5 213:0.5 242:0.5 #
-0.33333333362478673178586063841067 58:0.5 90:0.5 217:0.5 291:0.5 #
-0.19797452616056898655472195969196 35:0.5 94:0.5 217:0.5 250:0.5 #
-0.33333333362478673178586063841067 35:0.5 94:0.5 220:0.5 249:0.5 #
0.29090288876785502791832982438791 59:0.5 150:0.5 225:0.5 301:0.5 #
0.33333333362478673178586063841067 59:0.5 82:0.5 175:0.5 299:0.5 #
-0.33333333362478673178586063841067 59:0.5 146:0.5 196:0.5 250:0.5 #
-0.33333333362478673178586063841067 59:0.5 114:0.5 175:0.5 301:0.5 #
0.17291967889772064115305738596362 52:0.5 135:0.5 224:0.5 255:0.5 #
0.090026970108216947119572637348028 14:0.5 105:0.5 224:0.5 310:0.5 #
0.33333333362478673178586063841067 59:0.5 95:0.5 219:0.5 250:0.5 #
0.33333333362478673178586063841067 59:0.5 94:0.5 219:0.5 249:0.5 #
-0.33333333362478673178586063841067 65:0.5 104:0.5 225:0.5 267:0.5 #
-0.31245880993795605018448213741067 15:0.5 125:0.5 224:0.5 299:0.5 #
-0.33333333362478673178586063841067 62:0.5 144:0.5 215:0.5 243:0.5 #
0.33333333362478673178586063841067 59:0.5 89:0.5 219:0.5 250:0.5 #
-0.33333333362478673178586063841067 59:0.5 150:0.5 219:0.5 251:0.5 #
-0.33333333362478673178586063841067 59:0.5 148:0.5 219:0.5 251:0.5 #
0.23338049300494126403471284447733 62:0.5 126:0.5 196:0.5 302:0.5 #
0.14708855059970576961703159213357 69:0.5 125:0.5 232:0.5 301:0.5 #
-0.33333333362478673178586063841067 59:0.5 95:0.5 195:0.5 242:0.5 #
-0.24945994757288822429863728302735 60:0.5 90:0.5 195:0.5 243:0.5 #
0.19793544696616563460800364282477 59:0.5 127:0.5 219:0.5 306:0.5 #
0.33333333362478673178586063841067 59:0.5 90:0.5 219:0.5 300:0.5 #
-0.33333333362478673178586063841067 14:0.5 147:0.5 219:0.5 250:0.5 #
-0.30006502347898283966642907216738 58:0.5 127:0.5 219:0.5 250:0.5 #
0.33333333362478673178586063841067 51:0.5 142:0.5 195:0.5 287:0.5 #
-0.33333333362478673178586063841067 59:0.5 95:0.5 181:0.5 300:0.5 #
-0.33333333362478673178586063841067 59:0.5 125:0.5 171:0.5 263:0.5 #
-0.32723351649671766905314029827423 72:0.5 125:0.5 172:0.5 262:0.5 #
0.33318529604459740101063403017179 46:0.5 150:0.5 219:0.5 250:0.5 #
0.0032882583004950273648792080649628 59:0.5 146:0.5 213:0.5 262:0.5 #
